6074 50
</s> 0.008005 0.008839 -0.007661 -0.006556 0.002733 0.006042 0.001882 0.000423 -0.007207 0.004437 -0.008713 0.002499 -0.001503 -0.001914 -0.006631 -0.003764 0.005159 0.006051 0.005938 0.003195 0.003090 -0.007605 -0.008192 0.009939 0.007603 0.006180 -0.001208 0.008031 -0.000990 0.001469 -0.000298 -0.005966 0.002625 -0.002675 -0.007651 0.009508 0.008759 -0.002190 -0.000452 0.001018 -0.007275 -0.008014 0.009109 0.000126 -0.005165 -0.006084 -0.006153 0.003394 0.000403 0.002662 
， -0.029594 -0.196412 0.070587 0.160647 0.179533 -0.608291 -0.133695 -0.502383 -0.067227 0.182364 -0.055353 0.014417 0.364739 0.127328 0.032687 0.110785 0.197952 0.019702 -0.299858 0.015772 -0.435674 0.507929 0.089676 -0.000975 -0.386428 0.294864 -0.118384 -0.203216 -0.508476 -0.025203 -0.077173 0.286033 -0.407217 0.125014 -0.218168 -0.216049 0.060203 -0.060489 -0.209287 -0.107914 -0.141298 0.133754 -0.486559 0.309042 -0.122793 0.438277 -0.061420 0.054341 0.113369 0.124291 
的 0.227061 -0.019466 0.275309 -0.003654 0.284307 -0.481611 0.074008 -0.425216 0.065224 0.218841 0.075149 -0.553799 0.459163 -0.116185 -0.348247 0.219080 0.549336 -0.023810 -0.201622 0.216492 -0.332312 -0.275396 -0.534314 0.635860 -0.148805 0.015149 0.263079 0.172228 -0.638282 0.357766 0.315197 0.394316 -0.387396 -0.303224 0.010013 -0.443701 0.219804 0.042735 -0.212372 0.230800 -0.284569 0.328689 -0.114974 -0.200864 0.026078 0.108052 0.041406 0.223188 -0.166369 -0.356788 
。 -0.325167 -0.062463 -0.517943 0.068577 0.376306 0.295432 0.132063 -0.399275 0.087373 0.120748 0.084889 0.066484 0.332668 -0.053006 0.141038 0.169778 0.008008 -0.440423 -0.012448 0.687950 -0.126677 0.189049 0.088389 0.843574 0.408413 0.764929 -0.039542 -0.243313 -0.550514 0.101601 0.342024 0.244290 -0.056046 -0.471588 0.166080 -0.106626 0.433959 -0.127955 -0.265811 -0.135001 -0.521891 0.298166 0.172892 0.591625 0.274945 0.289418 -0.370860 0.238187 -0.310765 -0.602081 
一 0.985586 -0.763404 0.423465 -0.147677 0.713596 -0.956344 -0.408071 -0.025063 -0.487068 -1.133508 0.059271 -0.438775 -0.456994 -0.341832 -0.193274 0.000780 -0.221428 0.500437 -0.350421 -0.009880 -0.579240 0.075815 0.427824 0.234406 -0.406749 0.134317 -0.003017 -0.018768 -1.022022 0.147073 1.030059 -0.060382 -0.322797 -0.466743 0.167696 -0.300918 -0.235725 0.335790 -0.288865 0.039950 0.381568 0.373808 -0.157843 0.501157 0.247028 0.393983 0.075221 0.040826 0.059494 -0.414642 
、 -0.525470 1.623725 -0.505213 -0.675271 0.487884 1.775857 0.194520 0.869049 0.611223 0.220270 0.261743 -0.547444 0.862218 -0.189935 0.532927 0.129883 -1.283564 -0.200710 0.405039 -0.465415 0.438235 -1.093121 -0.279181 0.870095 -0.016612 -0.773264 0.080479 0.944993 0.872615 -0.273235 0.349797 -0.010056 0.991946 0.293370 0.644239 0.105045 0.320033 -0.086759 0.144729 0.167014 0.115030 -0.050605 1.272834 -0.403684 0.760638 -0.247910 -0.119530 -0.786423 0.282393 1.146148 
1 0.527361 -1.044731 -1.080413 0.330163 -0.479078 1.791701 -0.390972 1.149585 -2.790287 0.764806 1.916577 2.029886 0.083573 0.239075 -0.505653 1.131419 -0.086682 1.189356 -0.089854 0.029947 0.524603 1.303203 1.907943 -1.653212 -0.553670 -1.818163 0.033078 0.040664 2.085637 -0.544824 -1.485883 0.417730 -0.335366 0.425367 0.518559 0.915198 -0.145188 0.485215 1.387695 -1.708017 1.667373 -0.731236 -1.614637 0.407948 -0.970452 -1.038564 -0.246211 -0.327153 1.523668 -0.968390 
人 -0.006722 -0.402721 0.898570 -0.169779 -0.224780 -0.745253 0.284481 -0.046894 -0.076678 0.571034 -0.341377 0.235227 0.593447 -0.060921 0.304942 -0.406713 0.369296 0.663067 0.730462 -0.556369 0.353361 0.736572 -0.395532 0.238019 0.331920 0.071727 0.172737 -0.191315 0.319035 0.140962 1.006371 0.022713 -1.135265 0.029876 -0.664390 -0.183485 0.367962 0.452286 0.452551 0.595391 0.052371 0.370990 -0.225960 0.166482 0.686787 -0.238962 -0.858255 0.170617 0.590270 0.138202 
在 0.361629 -0.416130 -0.238278 -0.273409 -0.008884 -0.697899 -0.134782 -0.409285 -0.264380 -0.144242 -0.142875 -0.288516 0.257411 0.170506 -0.654892 -0.514193 0.368964 0.538920 0.042546 -0.690302 -0.466172 0.238062 0.794021 -0.433281 -0.492994 -0.307602 0.502226 0.103125 -0.606220 -0.338509 -0.046323 -0.167648 -0.528531 -0.448188 -0.334598 -0.050775 -0.064768 -0.057215 0.029834 0.159475 -0.157011 -0.119923 -0.419757 0.155294 -0.754514 0.054587 0.108071 -0.432940 0.025894 0.277936 
0 0.705528 -1.097138 -0.997762 -0.173788 -0.364746 2.412149 -0.621218 0.711127 -2.674164 0.340495 2.243062 1.944361 0.538048 0.022537 0.424860 1.809598 0.423376 1.121894 -0.413142 0.626410 -0.224793 1.723966 1.363232 -1.056292 -0.727283 -1.281601 -0.325413 -0.152186 1.648411 -0.251699 -0.821515 0.383027 -0.341542 0.220738 -0.290446 0.265591 -0.498424 1.333064 1.652482 -2.326639 1.370281 -1.110980 -0.903616 0.406002 -0.458793 -1.092340 0.000023 0.363943 1.294795 -1.559615 
是 0.010754 -0.639221 0.858745 0.352009 0.200938 -1.502353 0.267963 -0.879040 0.005786 -0.372034 0.337501 -0.868370 0.138135 -0.642608 -0.316956 0.434515 0.328581 0.060317 0.383941 -0.111341 -0.086622 -0.477807 -1.005332 0.242248 -0.891391 0.652871 0.027169 -0.378041 -1.202663 0.653139 0.169934 0.101892 -0.863452 -0.845862 -0.628184 -0.122168 -0.383661 -0.034967 -0.732014 0.264789 -0.035112 0.331836 -0.505268 -0.279189 0.064295 0.391129 -0.068365 1.130741 -0.372598 -0.735638 
“ -0.788385 0.235605 0.641997 0.243140 -0.013396 -0.407725 -0.030480 0.844941 -0.519671 -0.947794 -0.538838 -0.292899 -0.322477 -0.546293 0.250473 0.115671 0.262964 0.326908 0.218179 -0.378663 0.238043 -0.922780 0.087673 -0.366831 -0.182865 0.103280 -0.190344 0.455358 -0.883860 1.161299 0.295690 -0.125908 -1.066921 -0.214222 0.138635 -0.080949 -0.355777 0.093336 -0.538226 -0.032461 0.180210 0.813278 -0.285121 0.012259 0.329703 0.558073 -0.032866 0.397307 -0.612988 -0.482593 
” -0.651894 0.512312 0.590158 -0.292994 0.137505 0.087933 0.035475 0.830808 -0.273024 -0.797694 -0.534559 -0.170019 -0.500278 -0.854549 0.260068 0.210548 -0.044519 0.103392 0.318341 -0.208358 0.300322 -1.137027 0.572414 -0.019821 0.172822 0.175488 -0.289337 0.351514 -0.532133 0.924189 0.401739 -0.324205 -0.961970 -0.437416 0.584801 0.103771 -0.298093 0.028926 -0.313941 -0.047375 -0.081886 0.989013 0.063028 0.011689 0.629799 0.635003 0.057604 0.195651 -0.404915 -0.420931 
了 -0.049675 -0.283139 0.078189 0.114364 0.112381 -0.630717 -0.146306 -0.898033 0.188316 -1.022284 -0.344002 -0.003709 -0.007338 0.064355 0.259216 0.143196 0.541844 0.303995 -0.388324 0.106866 -0.245758 0.855569 0.362339 -0.124102 -0.048365 0.112016 -0.093307 -0.073026 -1.022469 0.232497 0.222168 0.073753 -0.187946 -0.391422 -0.178136 -0.039571 -0.075388 -0.071846 -0.317271 0.145109 0.173005 0.418635 -0.740336 0.906699 0.323509 0.806399 0.089802 -0.014712 -0.064069 -0.530441 
有 0.327170 -0.465719 0.686030 0.070460 0.607371 -1.344246 0.194360 -1.308749 -0.032256 0.653331 0.536509 -0.463488 0.488759 -0.330123 0.269969 0.786206 0.823859 -0.070727 0.593271 -0.068034 -0.326137 0.513223 -0.485044 0.597116 -0.430433 0.819995 0.107399 0.220445 -0.683061 0.156631 -0.260044 0.086492 -0.278718 -0.405644 -0.800496 -0.281668 0.163518 0.083833 -0.417969 -0.334220 -0.376431 0.590356 -0.555071 -0.151967 0.042557 0.463381 -0.233462 0.629717 -0.077424 0.118656 
不 -0.492122 -0.626993 0.490653 0.404101 0.453330 -1.071602 0.739032 -1.193875 1.052153 -0.265110 0.042038 -0.863958 0.576499 -0.439738 0.523674 0.074061 1.021608 -0.173598 0.044300 0.132980 -0.280835 0.688532 -0.857537 0.273517 -0.495397 1.727796 -0.004262 -0.792456 -1.010423 0.110089 0.032737 -0.187860 -0.834771 -0.774325 -0.294672 -0.431201 0.079415 -0.382463 -0.581883 -0.498172 -1.031704 0.689525 -0.703111 0.128372 0.205573 0.995774 -0.266476 1.670125 -0.961055 0.050477 
中 0.725980 -0.061684 0.183716 -0.314534 -0.831979 0.064478 0.545706 0.575851 -0.653003 0.521894 0.332912 -0.769827 0.269043 0.164520 0.065929 0.075281 -0.164851 0.262202 0.402420 -0.315660 -0.951726 -0.784964 0.152777 -0.093993 0.499621 -0.993401 -0.035193 0.412023 -0.175638 0.377971 0.175698 0.569678 0.746545 0.366890 0.080296 -0.091546 -0.186033 0.027426 0.272815 0.793370 0.492657 -0.476680 -0.352018 -0.035333 -0.286553 -0.732366 -0.263595 -0.706267 0.081709 0.280156 
年 1.018571 -1.111856 -0.766897 -0.270502 0.009350 0.232180 -0.149945 0.027806 -1.388232 0.184959 1.211823 0.767530 0.503860 0.416161 0.147874 0.708899 0.039097 1.421567 -1.000778 0.283677 0.026052 0.201676 2.159601 -0.676612 -0.623564 -0.944727 0.773005 -1.153063 0.722500 1.119558 -1.755071 0.844647 -1.270391 0.829367 -0.189033 -0.776137 -0.906568 0.522677 1.144820 -0.528368 1.337497 -1.112949 -1.785548 1.129977 -0.885904 -1.290517 -0.200947 0.410186 1.038236 -0.369023 
2 0.910724 -1.221354 -1.226661 0.149635 -0.028814 2.165382 -0.352897 1.035278 -2.871601 0.787590 1.731300 1.971727 0.088039 0.262372 -0.152456 1.318208 -0.071050 0.994884 -0.296797 0.335816 0.327300 0.969615 1.588010 -1.369510 -0.514694 -1.398257 -0.098390 -0.139257 1.974110 -0.355998 -1.593133 0.158240 -0.509332 0.620391 0.410358 0.655766 -0.280535 0.758094 1.388930 -2.022778 1.415079 -1.201623 -1.693205 0.532198 -0.857948 -1.034142 0.005968 -0.229464 1.596983 -1.121009 
大 -0.434338 -0.742871 -0.125452 -1.137949 0.602185 -0.199370 -0.233154 0.551766 -0.353096 -0.063864 0.047429 -1.088776 0.475984 0.675966 0.770873 0.468408 -0.334994 0.786366 0.246913 -0.236135 -0.352077 -1.359273 0.136493 -0.167008 0.314891 -0.128865 0.159439 0.426944 -0.292212 0.105580 0.069493 0.549436 0.011566 -0.047097 0.251472 -0.941289 0.086074 0.694210 -0.042431 0.434070 0.481588 -0.082443 0.309532 0.421821 0.226435 -0.358858 0.043585 -0.050512 -0.082063 -0.028845 
国 0.800259 -0.421705 0.313818 -0.711310 -1.664169 -0.091400 0.746326 0.479841 -1.466313 0.838825 0.975623 -2.077657 0.436487 0.267155 0.305088 -0.297153 0.758326 0.229582 1.175496 -0.692081 0.083019 -1.492931 -0.818871 -0.504306 1.333351 -1.457034 -0.391393 0.147956 -0.347066 0.162303 -0.929379 1.441948 1.287562 1.559654 -0.043267 -0.039325 -0.610213 -0.422824 0.938563 0.550763 -0.040203 -0.350726 -0.264688 -0.205352 -0.399720 -1.891318 0.129229 -1.108938 -0.163868 0.051123 
上 0.241497 -0.493592 -0.350038 0.438749 -0.022735 -0.334055 -0.823972 -0.117584 -0.947839 -0.343130 0.057915 -0.426144 -0.380005 -0.513829 -0.610569 0.080777 0.194496 0.707714 -0.135783 -0.194960 -0.784168 0.610580 0.509446 -0.825661 -0.592146 -0.660883 0.106931 0.177798 -0.462673 -0.263912 0.556371 -0.347268 -0.801214 -0.484049 0.621951 -0.372993 0.499351 -0.149222 -0.202893 -0.380007 0.069594 -0.194067 -0.241043 0.320468 -0.346636 0.725252 0.155300 -0.630500 -0.112168 0.197985 
为 -0.221969 0.299656 0.001113 -0.121189 -0.310501 -0.107982 0.624945 0.107237 -0.380177 0.478945 0.227480 -0.691415 0.340843 -0.419476 0.158401 0.379690 -0.121256 -0.495770 -0.112776 0.049764 -0.085582 -0.542160 -0.821679 0.403479 -0.233488 0.124449 -0.045884 -0.304955 -0.492639 0.348849 0.246934 0.282006 -0.340120 0.058238 0.026391 0.198026 -0.335613 0.101606 0.284416 -0.036505 -0.140093 0.254304 -0.388293 -0.176674 0.259574 -0.431524 -0.111586 0.625083 0.240865 -0.817034 
和 0.231064 0.865891 0.182710 -0.765102 0.029439 1.122264 0.083799 0.354637 0.389428 0.463836 0.158093 -0.932698 0.788080 0.161737 -0.018891 -0.297514 -0.294886 -0.076781 -0.000541 0.257803 -0.058343 -0.394508 -0.934024 0.888897 0.389843 -0.458255 0.047007 0.328843 -0.455238 0.180700 0.415087 0.376884 0.441868 0.507400 -0.154766 0.033540 0.751402 -0.179275 -0.156476 0.258312 -0.121105 0.352051 0.212764 -0.431238 0.295582 -0.494832 -0.341141 -0.653618 0.317022 0.301083 
会 0.447783 -0.256845 0.147024 -0.959449 -0.441423 -0.378575 0.906341 0.089685 0.352806 -0.606988 0.963152 -1.555402 1.889835 0.567100 0.746721 -0.356881 -0.462993 0.556204 -0.697291 -0.121088 0.440567 -0.160547 0.035054 0.012489 0.379978 0.027139 0.730209 -0.252367 0.047444 0.994485 0.191812 -0.086445 0.950855 1.343502 -0.689868 -0.065553 1.449705 -1.160742 -0.172892 1.460398 0.036440 -0.086648 -0.765954 1.158214 -0.607645 0.169935 -1.413576 -1.031111 -0.302349 0.029654 
到 -0.511949 -1.099430 0.060342 -0.071717 0.401221 -0.589950 -0.385188 -1.180445 -0.488573 -0.034799 -0.028986 0.761216 0.447335 0.154866 -0.165693 -0.604752 0.166391 0.969654 -0.135175 0.097593 -0.314922 1.474058 1.079949 -0.598786 -0.530233 0.104128 -0.514751 -0.195410 -0.169285 -0.874558 0.524087 -0.208146 -1.238163 -0.938292 -0.502244 0.664463 0.341013 -0.058663 0.138979 0.595237 -0.049526 -0.195052 -0.423753 0.954901 0.035434 1.370615 0.078742 -0.646075 -0.138750 -0.615074 
时 0.004242 -1.073615 -0.654066 0.656023 -0.226810 -0.412728 -0.846138 -0.687586 -0.013496 0.377759 -0.285258 0.213252 0.358607 0.991030 -0.815255 -0.347562 0.941351 -0.132253 -0.787619 -0.436720 -0.214400 1.147914 1.475269 -0.825368 -0.833976 0.541467 0.340958 -0.990409 -0.084011 -0.879470 0.446156 0.262215 -1.061587 -0.736150 -0.521644 -0.402893 0.458047 -1.255317 -0.184539 -0.516410 0.184380 -0.520484 -0.420878 0.357372 -0.967603 0.501871 0.159716 0.550590 -0.330640 0.272974 
日 -0.449369 -0.812939 -0.817528 0.539948 -1.827825 0.616469 -0.185211 0.309159 -1.839010 0.783254 0.055821 0.666924 0.055536 0.067692 -1.025621 0.046418 0.059864 0.819543 0.344152 -0.814087 0.657194 0.890721 2.110722 -2.399903 0.102311 -2.112983 0.846003 -0.280788 1.629620 -0.515220 -1.703193 0.990232 -0.201367 0.691620 0.657409 0.818838 -0.185664 -1.273156 0.036240 -0.521540 1.455292 -0.222098 -2.049935 0.437673 -1.554782 -1.378389 -0.234316 -1.013243 0.545632 0.641042 
发 0.001336 0.732961 -1.125482 -0.780661 -0.312696 0.153221 0.087915 -0.823138 -0.137903 0.342594 -1.074807 -0.489002 -0.130396 1.177280 0.372706 0.494202 0.311476 -0.173103 -0.359417 0.674303 -0.795170 -0.584258 0.477753 -0.085358 1.047765 -0.659738 0.091340 0.136119 -0.411564 -0.082865 -1.638009 0.440012 0.919771 0.702416 0.440995 -0.671517 0.701598 1.315767 0.257577 0.715649 -0.335199 0.271631 -0.973340 0.183303 -0.583652 0.527428 -0.592675 -1.445394 0.376771 0.059647 
出 0.279654 -0.143863 0.017423 0.329742 -0.468436 -0.006258 0.136501 -0.491917 -0.713491 -0.547265 -0.489178 -0.320923 0.079969 0.292000 0.466828 -0.088094 0.025748 -0.516913 -0.521552 0.027644 -0.286598 -0.048089 -0.200194 -0.322658 -0.238369 0.377405 -0.634785 0.236337 -0.960080 -0.168647 0.216160 -0.269909 -0.702522 0.094491 0.376722 -0.735510 0.243395 -0.002226 0.021442 -0.258425 0.000858 -0.660650 0.055298 0.287294 -0.416430 0.614483 -0.385513 -0.808402 -0.406327 -0.161061 
生 -0.297042 1.451997 1.345523 -1.357610 0.516357 0.329978 -0.324678 -0.159360 1.317076 0.593415 0.577997 -0.112317 -0.225576 -0.539352 -1.151302 0.930581 -0.191468 0.048527 0.125672 1.073665 0.151567 -0.218541 0.262237 0.829516 0.478688 -0.187805 -0.457067 -0.348796 -0.791922 -0.161928 -0.092033 0.318477 -0.919606 -1.110418 -0.443887 0.364331 0.565564 0.541169 0.103571 1.913882 0.246839 -0.584491 -0.832266 -0.175285 0.180096 -0.267163 0.028523 0.510370 1.280644 -0.086236 
这 0.584116 -1.162431 0.955717 -0.047793 0.667785 -1.824626 0.286836 -1.244006 -0.662421 -0.372942 0.696711 -0.321126 -0.529989 -0.894558 -0.344959 -0.565284 0.605776 0.122751 0.167796 0.205111 -0.362663 -0.313449 -0.345233 -0.133737 -1.126496 0.450768 -0.326744 0.018957 -1.509575 1.147638 0.320644 0.019060 -0.341336 -1.196138 -0.359404 0.072339 -0.154866 0.273075 -0.907859 0.568390 0.388839 0.451100 -0.469460 -0.116250 0.155223 1.082085 -0.761067 1.065806 -0.099098 -1.061636 
个 0.709503 -0.451744 0.691160 0.084998 0.737298 -0.710585 -0.972329 0.044790 -0.896934 -1.057026 0.887763 -0.382701 -0.060290 0.423214 0.059043 0.644912 0.600471 0.458297 -0.654809 0.054915 -0.260586 0.212765 0.517580 0.198616 -0.727099 -0.011113 0.856195 0.191191 -0.957133 -0.131496 0.631896 0.382947 -1.044161 -0.830717 -0.720163 -0.405101 -0.557135 0.516679 0.038797 -0.328249 0.889931 0.211715 -0.844651 0.277010 0.355901 -0.175394 -0.307788 0.285776 0.587553 -0.820281 
行 0.744223 1.252323 -0.424173 0.699774 0.645339 0.812521 1.337983 0.404859 -0.351697 0.883045 -1.162066 -1.229351 0.202498 0.383312 -0.492945 0.131220 0.126160 -0.873061 -1.308759 0.420580 0.124390 -0.399238 1.137673 -0.146259 -0.138299 0.369632 -0.953072 -0.426353 0.043322 -0.251667 0.550748 0.093124 1.415258 0.418388 0.001473 0.208579 0.020454 -0.816511 -0.420092 -1.131508 -0.979113 -0.654453 0.790489 0.771971 0.784952 -0.018265 -1.563903 -1.579040 0.381557 1.030410 
3 0.904090 -1.023337 -1.120773 -0.089469 0.197031 1.841362 -0.659544 1.188891 -2.804336 0.694555 1.855987 1.711372 0.245788 -0.013833 -0.058880 1.405068 0.276855 1.060827 -0.135905 0.225099 0.213159 1.279158 1.285999 -1.120794 -0.773536 -1.309824 0.134125 0.293585 1.692864 -0.439396 -0.905228 0.184583 -0.200337 0.209991 0.317364 0.618895 0.130477 0.924393 1.357879 -2.228279 1.239851 -1.085877 -1.336037 0.431824 -0.573403 -0.953459 -0.157235 -0.016389 1.665457 -1.319480 
对 0.310970 0.182427 0.349767 0.506052 -0.532235 -0.600847 -0.113137 -0.090969 -0.471248 0.831529 -0.621508 -0.782998 0.496308 0.500698 0.424956 -0.917321 0.243232 -0.708566 0.225699 -0.081053 -0.415861 -0.127338 -0.837680 0.380828 0.341299 0.150576 -0.620966 0.253523 -0.698037 0.257755 0.129051 0.330768 0.038677 0.639723 -0.128880 -0.070545 0.017981 -0.630895 -0.795567 0.174112 -0.760569 -0.184681 -0.372715 -0.444952 -0.052357 0.101468 -1.118759 0.418362 0.236432 0.231484 
要 0.439280 0.258590 1.057785 0.801879 0.196982 0.051524 -0.098443 -0.608430 1.228015 -0.247169 0.889297 -1.257042 1.762536 0.647962 0.207073 -0.449879 -0.740283 -0.588707 -1.359432 0.676605 0.593735 0.721159 -1.212573 0.573257 -0.754528 0.677219 -1.492571 -0.175835 -1.389398 0.285472 1.325788 0.683058 0.624835 -0.014641 -0.206822 0.229637 0.808966 0.092720 -0.812695 -0.474648 -0.598329 -0.188428 -1.260351 0.118958 0.311173 0.562077 -0.336211 0.532439 -0.750768 -0.207841 
家 -0.293317 0.034788 1.146017 -1.277155 0.036675 -0.335950 -0.433629 -0.965620 0.082479 -0.303353 0.030633 -0.587843 0.287432 -0.007764 -0.326392 -0.330980 0.040998 0.784966 -0.154593 -0.461619 -0.023028 0.746129 -0.250643 0.303666 -0.260184 -1.348864 -0.127523 0.087956 -1.006888 0.292619 0.492079 -0.948228 -0.896681 -0.236733 -0.975868 -0.060402 -0.163304 0.878731 1.200240 1.164782 -0.275314 -0.201101 -0.750664 0.520403 0.482057 -0.943226 0.061585 -0.062783 0.948749 0.661774 
来 -0.093493 -0.994120 0.303035 0.131762 0.158570 -1.233729 -0.211664 -1.278494 0.376713 -0.856792 -0.513621 -0.496391 0.291170 -0.023705 -0.217382 -0.266977 0.444711 1.264320 -0.990400 -0.453657 -0.649672 0.338086 0.255565 -0.884339 -0.396694 0.004543 -0.075528 -0.083613 -0.566153 0.189530 -0.073549 0.445588 -0.586246 -0.407303 0.290284 -0.326816 0.080913 0.537885 -0.052490 0.577704 -0.061405 -0.345246 -0.945755 0.511793 0.252563 0.494521 0.634439 0.127006 -0.535200 -0.288840 
以 0.528299 0.119532 -0.238172 0.054624 0.465871 -0.258574 0.141385 -0.784422 -0.230907 0.174290 0.368989 -0.460072 0.746369 -0.376399 0.353480 0.702632 0.372725 0.005672 -0.309154 -0.501444 0.146467 0.474651 -0.264166 0.327214 0.286976 0.251289 -0.351168 -0.288519 -0.103413 0.336998 0.776364 0.054891 -0.026860 -0.208116 -0.111900 0.193850 0.300990 0.057930 -0.497941 -0.418342 -0.093105 -0.571135 -0.244321 -0.124981 -0.059775 -0.185766 -0.172248 0.826112 -0.393724 -0.611726 
地 0.016625 -0.158818 0.101859 -0.023523 0.539334 0.139460 -0.760663 -0.136180 -0.217989 0.544385 0.976824 -1.243814 0.192883 -0.387648 0.056315 -0.410595 -0.791656 0.093095 0.128156 -0.916153 -0.510761 0.298581 0.769347 0.582301 0.303793 -0.126561 -0.165063 1.549117 -1.378482 -0.663890 -0.945683 0.238716 0.240760 -0.092320 -0.512844 -0.255483 -0.163674 0.630352 -0.124437 -0.519224 -1.791510 -0.013737 0.575195 -0.581948 0.062614 0.024901 0.001399 -1.113465 0.408753 0.181656 
公 -0.373849 0.180416 0.122051 -1.441551 -0.764314 1.598509 0.355164 -0.291101 -1.623179 1.413940 -0.178267 0.033962 1.264946 -0.451662 -0.305154 0.413555 0.854110 0.116825 0.081533 -0.306365 1.388535 0.133555 1.233341 1.108774 -0.978090 -0.632890 -0.065493 0.751430 0.249805 -0.457130 0.314498 -0.187711 1.054322 0.815294 0.001601 -0.150857 0.543429 -0.721006 1.327505 -1.525866 -1.344158 -0.775893 0.501172 0.131873 0.459874 0.947160 -0.973249 -1.855901 0.049821 2.639456 
市 -0.737876 -0.032482 -0.193496 -1.463806 0.949144 0.680577 -0.495659 0.413608 -0.727622 0.839011 0.344298 -0.849403 1.539069 -0.093272 0.512114 -0.487491 -2.025578 0.547384 -0.534402 -1.305556 0.706966 -0.252872 0.899520 -0.138059 -0.966229 -0.709738 0.089402 1.793495 -0.061899 -1.344697 -1.438196 0.273573 1.160714 1.629624 -0.069134 -0.090054 1.455977 0.587544 0.405301 -0.133299 -0.273757 -2.144479 0.290465 0.195508 0.339894 -0.303741 -1.579157 -2.279971 0.714159 0.776138 
作 0.595145 0.853435 -0.355551 0.559839 -0.314294 1.333705 0.461433 0.275917 1.423818 0.859059 0.497798 -0.467986 0.585235 0.510948 -0.431133 -0.912522 -1.243815 0.564783 -0.633518 0.922714 -0.566261 -1.354620 -0.370849 0.998835 0.021259 -0.278105 -0.421465 -0.160129 -1.305703 1.185735 1.340209 0.414736 1.539948 0.433639 -0.815642 0.194416 1.211339 -0.467914 0.232470 0.243677 -0.077455 1.273175 -0.410634 0.776162 0.449981 -0.089667 -1.549358 -1.797507 0.101749 0.476348 
后 0.447218 -0.438881 -0.720428 0.368327 -0.391331 -0.846831 -0.695803 -0.430103 0.097333 -0.695350 -1.196420 1.001321 -0.321373 0.335789 -0.609633 0.165280 -0.124211 0.059323 -0.399702 0.079170 -0.185286 0.958727 0.980511 -0.698911 0.369841 0.327322 -0.565208 -1.374477 -0.749555 -0.127411 0.036370 0.091798 -0.465035 -0.400022 -0.439158 0.168177 -0.097191 -0.099709 0.157259 0.294820 -0.226895 -0.274389 -0.066756 1.268507 -0.736496 0.506545 0.461142 -0.355274 -0.047394 0.267026 
工 0.644365 1.473803 0.551582 0.312202 0.505230 1.796177 0.841871 -0.157768 1.302346 1.112674 1.479067 -0.122182 0.799984 0.670752 1.041598 -0.521499 -1.474259 0.336372 -1.738172 -0.309500 -0.547550 0.120769 0.457608 0.872214 0.413104 -0.932608 -0.458522 -0.624333 -1.290742 -0.401992 0.171458 -1.240589 0.943952 -0.190656 -0.887139 -0.127718 0.837378 -0.058796 1.241531 -0.301904 0.690940 0.567583 -0.607830 1.256152 1.700553 -0.242853 -1.002674 -1.943948 1.272297 0.841344 
他 -0.189186 -1.034428 1.306271 0.619678 -0.211710 -1.409918 0.176440 -1.059149 0.493736 -0.638581 -0.865533 -0.379834 0.360723 0.251300 -0.262109 -0.833867 1.138114 0.671163 -0.200680 0.292310 0.192062 1.412090 -0.504774 -0.617262 -0.366495 0.245189 -0.844110 -0.718170 -0.987877 0.341168 0.624263 -0.691984 -1.560728 -0.658895 -1.330981 0.035446 0.058427 0.118282 -0.502638 0.677356 0.077960 1.030877 -0.653687 0.687048 -0.007547 0.834892 0.242966 0.985404 -0.155373 0.076653 
成 0.670064 -0.201460 -0.784435 -0.590638 0.623394 -0.066486 -1.019803 0.035762 0.199808 0.756602 0.752319 -0.468264 -0.114743 -0.054085 -0.253258 1.205419 -0.357026 -0.148443 0.261068 0.873896 0.044682 -1.338486 0.108624 1.047559 -0.044796 0.122123 0.043057 0.314923 -0.718580 0.229922 -0.218676 0.651693 0.945631 0.476562 -0.311042 0.230584 0.766672 -0.158211 0.000112 -0.343898 0.076503 1.052049 0.224311 1.844062 0.497599 -0.573086 -0.073044 0.171764 0.600093 -0.698561 
多 -0.197929 -0.805096 0.400352 -0.922423 0.713718 -0.537765 -0.140212 -1.607666 -0.399301 0.361552 1.166621 -0.240380 0.028373 -0.153765 0.271377 0.056866 0.205702 0.814544 1.015441 -0.116706 -0.909170 1.067041 -0.251286 -0.018415 -0.376001 0.621513 0.322025 0.129009 0.168824 0.512249 0.728801 0.205703 -0.602093 -0.665025 -0.120320 -0.954734 0.466907 0.552406 0.058955 0.292926 -0.373222 -0.304334 -0.175810 0.594370 0.038592 0.509913 -0.286447 0.842853 0.890439 -1.003877 
新 -0.085659 0.762217 -0.208019 -0.501796 -0.612596 1.829608 0.281854 0.302715 -0.833803 -0.160075 0.523131 -1.595145 0.176705 -0.493687 -0.446166 0.378684 -0.653720 0.533618 -1.209117 0.394095 0.672823 -2.323866 0.850008 -1.151802 0.526059 -1.724251 0.294358 0.058567 -0.395595 0.475701 -0.980875 0.443647 0.708933 0.919146 0.795062 -1.208778 0.109638 0.239855 -0.113733 0.695208 -0.395653 0.403727 -0.207872 -0.077005 -0.554635 0.236907 0.244535 -1.528579 -0.364490 -0.338830 
方 1.458737 0.938622 0.139885 0.201767 -1.025258 0.209482 -0.165288 0.220186 -0.276109 0.500037 -1.038433 -0.661011 0.405939 0.406371 0.390241 0.540651 0.688631 -0.697951 -0.316429 -0.164310 -0.059925 1.348043 1.174742 -0.018004 0.017360 0.919046 -0.342449 1.234894 -1.232367 -0.928454 -0.240375 0.589556 1.188463 0.811088 -0.770604 -0.178900 0.297100 -0.002921 -0.682592 -0.448274 -0.573482 -0.165872 -0.056200 -0.632663 0.535325 0.667275 -0.355055 -0.669286 0.657757 -0.486023 
现 0.481933 0.026222 -0.467175 -0.436699 0.565974 -0.859203 -0.124961 -0.870093 0.227864 0.708771 -0.073320 0.204550 -0.089520 0.142185 -0.299454 -0.025709 1.049545 -0.500551 -0.471406 0.187258 -0.896346 0.177822 0.244760 -0.278358 0.169636 0.256069 0.244586 -0.038122 -0.833562 0.130377 -0.355818 0.770139 0.181481 -0.269207 0.280481 -0.351043 0.711885 1.162789 0.001432 1.065323 -0.520295 -0.588366 -0.361121 0.581594 -0.575757 0.648198 -0.463516 -0.791050 -0.055811 -0.895260 
部 0.982555 0.239166 1.135135 0.589709 -1.050675 0.063366 0.018227 1.226320 -0.455555 1.440053 1.049229 0.012936 2.432831 2.244739 0.727757 -0.726096 -0.615769 -0.909538 0.409339 -1.317537 -0.192454 -0.473247 0.289445 0.400314 0.655581 -0.199208 -1.156363 1.203093 0.288982 -0.702267 0.435507 -0.079336 2.110432 0.174945 0.109150 -0.285856 -0.347260 0.211410 -0.302047 -1.201929 0.996963 -0.483725 -0.505423 -0.233981 1.017126 0.189144 -1.146079 -1.773189 0.302777 1.782748 
我 -0.994127 -1.685889 2.222727 0.392921 0.701078 -0.982332 0.377471 -1.414761 0.725580 -0.855969 0.074613 -1.308627 0.444064 0.456383 0.018951 -1.054693 0.985819 1.030468 -0.806259 0.371339 0.383989 0.228131 -0.424817 -0.533816 -0.375347 0.150774 -0.775438 -0.659653 -1.688594 1.201351 0.074282 -0.023285 -1.290434 -0.487342 -1.006089 0.023376 -0.030218 0.057175 -0.528419 0.864747 0.741206 1.125723 -1.828937 0.286275 0.235274 1.545507 -0.271784 0.723192 -1.071117 -0.879657 
民 -1.446050 0.589107 0.456539 -1.915222 -0.641195 0.543171 -0.095474 0.758978 -0.090155 0.643105 -0.035995 -0.637088 1.321702 -0.778089 0.031830 -1.316643 -1.609501 0.668824 0.175798 -0.508130 0.858571 2.149883 0.155783 0.283843 0.984639 -1.058910 0.178486 0.451499 0.144974 -0.125214 0.488383 1.615180 0.030015 1.111555 0.259427 0.426492 0.820423 0.439844 0.449937 0.720030 -0.589206 -0.057907 -0.526371 0.182322 1.532916 -0.146846 -1.382460 -2.326303 1.298651 -0.799110 
月 0.656094 -1.156587 -1.232324 0.523436 -1.235908 1.190317 -0.383557 0.432083 -1.988734 -0.006394 1.230278 1.906178 -0.159006 -0.331095 -0.770777 0.419179 -0.305925 1.298278 -0.176721 -0.079792 1.106139 1.195885 3.297222 -1.879957 -0.687978 -2.040792 0.431536 -0.720318 2.135202 -0.694236 -1.953930 0.494377 -1.275952 0.853403 0.492330 0.815764 -0.343083 -0.367686 1.073419 -0.701918 2.104266 -1.055455 -2.043025 0.253482 -1.983566 -1.039600 -0.366425 -0.672893 1.620194 0.272768 
过 0.569868 0.255652 0.254334 -0.089705 0.450908 -0.456712 0.500598 -0.744313 -0.392700 0.257637 0.175001 -0.068147 -0.405555 0.688612 0.565239 -0.253821 0.299269 -0.073736 -0.647968 0.076066 -0.849158 1.142140 0.714456 -1.047735 -0.356371 1.038419 -0.129038 -0.964822 -0.433693 -0.668967 0.064499 -0.381503 0.039665 -0.798876 -0.025406 -0.223663 0.447008 -0.403221 0.501771 0.430568 0.395433 -0.257566 -0.181079 1.199734 0.630407 0.441424 -0.240184 1.142634 -0.522691 -0.098189 
全 0.425920 0.853829 -0.448951 -0.900118 0.664882 1.712007 -0.425274 -0.357602 -0.442116 0.301219 1.706509 -0.523907 1.452841 0.732702 0.126073 -0.475878 -0.004108 0.109647 -0.463907 0.197251 0.696531 -0.883821 -0.127754 1.847609 0.680235 0.139715 0.494921 1.063003 -0.702856 -0.580078 -0.122567 0.998598 1.070002 1.747727 0.112905 -0.181321 0.312558 -0.276456 -0.278259 -0.829848 1.412920 -0.303300 -0.964185 1.267260 -0.299310 -0.939011 -0.646751 -1.512803 0.168714 -0.292536 
4 1.131133 -0.867932 -1.115917 0.087216 0.019758 2.001279 -0.665490 1.275574 -2.587416 0.771436 1.827764 1.523871 -0.005945 0.102494 -0.691074 1.279321 -0.036756 0.906678 -0.565841 0.236793 0.196914 1.076604 1.458688 -0.739233 -0.559987 -1.157887 0.205485 0.097939 1.768337 -0.313698 -0.571850 0.308047 -0.284963 0.308706 0.223758 0.159789 0.220331 0.758138 1.264983 -2.084179 1.203049 -0.875781 -0.932753 0.593500 -0.361552 -0.870475 -0.104859 0.172139 1.419666 -1.433412 
5 0.760287 -1.001849 -0.983011 0.148506 0.270472 2.251996 -0.745470 1.365520 -2.771569 0.741379 2.423721 1.628259 0.088202 -0.156835 -0.112037 1.739450 0.163335 0.586659 0.029350 0.490689 -0.204478 2.172970 0.665334 -0.849563 -0.689259 -0.697216 0.107688 -0.035061 1.632955 -0.521145 -0.329023 0.290220 -0.252666 0.133884 -0.050158 0.228403 -0.208906 1.143986 1.526989 -2.182632 0.967852 -1.099691 -0.043994 0.531978 -0.267141 -1.039567 0.036322 0.548817 1.271658 -1.641148 
业 -0.208991 0.530834 0.295584 -1.087814 1.175936 2.496573 0.684858 -1.199100 0.716564 1.806863 1.158784 -2.217227 0.274166 -0.212714 0.534979 2.048616 0.134259 0.603971 -0.936178 1.044738 -1.481648 -2.130472 -0.267631 1.454505 0.979277 -1.674459 -0.722606 1.628956 -1.218773 0.830711 0.686356 -0.964977 0.124456 0.231756 -0.795229 -0.306110 0.866687 0.916809 2.540269 0.226723 -1.579229 -1.035977 0.269501 1.069050 1.178633 -0.139729 -0.492450 -1.440211 2.519383 1.089983 
能 -0.069347 -0.282456 -0.389403 -0.265201 1.336930 0.136038 0.385377 -1.819765 1.482337 0.817825 1.006875 -1.803531 0.218386 0.062198 0.739008 0.926837 0.893077 -0.052808 0.087623 0.162530 -0.203266 -0.268010 -0.853027 0.634797 0.087082 2.001291 -0.726789 -0.939667 -0.572629 -0.597135 0.635361 0.118889 -0.009947 -0.174937 -1.193805 0.475210 0.883511 0.153080 -1.220908 -0.612079 -0.584135 1.554865 -0.708164 0.158480 0.513403 0.894919 0.765115 1.271226 -0.499179 -0.771004 
者 -0.302799 0.253780 -0.226539 0.716763 -0.256207 -0.594675 0.160434 -1.297534 -0.082568 0.805548 -0.159429 1.437443 -0.655119 -1.698301 -0.299969 -1.614332 0.527010 -0.152544 0.653689 -0.691610 0.496008 1.653076 0.224126 -2.504442 0.110597 -0.696449 -0.013133 0.561151 1.021115 0.184819 0.076621 0.332533 0.179531 0.382740 -0.536944 1.667850 1.334016 -1.565632 -0.040842 1.189432 -0.211549 0.042249 -1.074919 0.956536 0.349119 0.396836 -0.266225 -0.083769 0.854252 1.121733 
开 0.273689 0.245601 -1.427267 -0.395582 -0.035779 0.806954 -0.084859 -0.872445 -0.676410 -0.227390 -0.635345 -0.724306 0.829408 0.975071 0.294570 0.640201 -0.733934 0.114250 -1.717440 0.048265 0.762892 -0.245108 2.512884 -0.553666 0.311558 0.130966 0.838760 -0.443183 -1.455583 -0.329491 -0.638781 -0.974840 0.308693 0.975965 1.420388 -0.202053 -0.412137 0.288199 0.248397 0.492256 0.412154 0.062859 -0.190143 1.285870 -1.016289 1.569552 0.456832 -1.807259 0.716495 0.138911 
子 0.673516 -0.168921 1.328462 -0.622769 -0.687247 -1.012687 -2.033291 -0.216784 -0.029045 -2.603022 -0.992473 0.658610 -1.326397 -0.337261 -0.733465 0.327446 0.616459 0.759265 -0.455914 0.899890 -0.057696 1.589765 -0.980030 1.080127 -0.330908 0.661073 0.308610 -0.616565 -0.459543 0.192366 -0.024548 -0.427388 -2.012483 -1.757493 -0.558762 -0.355050 -0.000139 1.111480 -0.317099 1.137527 1.216582 0.749726 -0.022722 -0.294944 0.061886 0.615704 0.849307 0.461546 1.144608 1.382192 
也 -0.366129 -0.983343 0.363313 0.134536 0.236951 -1.153525 0.516258 -1.277938 0.351167 0.019165 0.036509 -0.745374 0.225420 -0.129785 0.106529 -0.298817 0.409906 0.018126 -0.099573 -0.011122 -0.495444 0.291055 -0.618883 -0.088396 -0.465858 1.005828 -0.148660 -0.307891 -0.447702 0.642167 0.291354 -0.099212 -0.733264 -0.330416 -0.454966 -0.653202 0.271470 -0.343407 -0.318025 0.251077 -0.569563 0.608298 -0.330346 0.216449 0.144564 0.768293 -0.035308 0.914437 -0.216624 -0.412248 
车 0.243164 1.405743 -0.947984 0.207939 1.030536 -0.113260 0.801133 0.132241 -2.061380 -0.242094 -0.816552 0.230040 -0.411290 0.338618 0.265259 -0.635142 3.214832 0.386282 -1.659297 -2.272835 0.980412 1.206652 1.444709 0.453334 -2.740824 0.667253 0.269199 -1.953564 0.856999 -2.443118 0.126816 -0.229255 0.101868 -1.703437 1.493150 -0.869294 1.953966 0.653723 -0.235234 -2.471615 -1.523889 -1.857192 1.245595 1.861832 0.711126 0.960851 0.993164 -1.463137 -0.870677 0.033687 
前 0.871671 -0.356043 0.115398 -0.138983 0.132346 -0.264392 -0.430514 -0.569262 -0.873166 -0.022979 -0.094838 0.751471 -0.089017 0.881856 -0.753381 -0.676231 0.203287 -0.301306 -0.303989 -0.707020 -0.532490 -0.288594 1.167615 -0.568083 -0.839704 0.123438 0.208988 -0.609258 -0.635551 -0.608573 -0.361414 -0.079910 -0.751495 0.383764 -0.525577 -0.209270 -0.191584 -0.380272 0.400361 0.009268 -0.121071 -1.339624 -0.768972 0.418232 -0.690132 -0.048882 -0.031406 -0.365723 0.124305 -0.292387 
进 -0.371887 1.729907 -1.099100 0.509277 0.508166 1.515614 -0.183898 0.248036 0.654630 0.256777 -0.424517 -1.829936 0.328005 1.113540 -0.200846 -0.249139 -0.657284 -0.464942 -1.044670 1.709958 -0.317327 0.030013 1.079825 0.627670 0.400539 0.821512 -0.888573 0.307924 -1.668597 -1.519332 -0.084683 0.038611 1.626357 0.782593 0.453001 -0.130771 -0.272616 -0.397078 0.466102 0.332432 0.449737 -0.453289 0.504582 1.088666 1.026029 -0.181879 -0.408283 -1.882668 0.866719 -0.724811 
经 1.143395 0.627047 -0.332409 -0.990311 0.793415 -0.703820 0.124186 -0.532096 0.719466 0.150164 -0.005669 -1.464340 0.593406 1.156813 -0.993202 0.574762 0.557708 0.433395 0.378223 1.008806 -1.185578 -0.181253 -0.814044 -0.005322 -0.661625 -1.821211 -0.341398 -1.209915 -0.628249 0.997809 -1.729045 -0.026143 1.145569 -0.069604 -0.082072 0.173157 -0.404572 0.517849 0.717222 0.315622 -0.752887 -1.495272 -1.445670 1.582313 0.831876 -0.644224 -1.069728 -0.759211 0.669014 0.229812 
于 0.466569 -0.312708 0.027154 -0.143694 -0.436051 0.010956 0.237633 -0.399168 -0.215240 0.667689 0.202696 -0.358626 0.226423 -0.032727 -0.836506 0.594902 -0.463784 -0.258113 0.398997 -0.043083 -0.306542 0.490025 0.225121 0.080904 -0.225271 0.421976 -0.314164 -0.265025 -0.427684 -0.443514 -1.034239 0.203831 -0.289611 0.249720 -0.814007 0.176427 -0.020882 0.214340 -0.341987 -0.728427 -0.176875 -0.262958 -0.259125 -0.296454 -0.701879 -1.043244 -0.037074 0.281737 0.319148 0.415768 
就 -0.402466 -1.073663 0.278472 0.285847 0.288031 -1.011131 -0.305148 -0.898201 0.459699 -1.204851 0.579790 -0.564475 0.119592 0.115496 -0.109888 0.139296 0.591455 0.527968 -0.373573 0.374671 0.075116 0.311889 -0.017164 -0.543364 -0.754161 0.377601 -0.212692 -0.440622 -1.230674 0.518065 0.395970 -0.089696 -0.730925 -1.022073 -0.372636 0.311875 0.178057 -0.034559 -0.122847 0.277883 0.061423 0.513066 -0.647355 0.567638 0.209833 1.405215 0.058304 0.312475 -0.202223 -0.277240 
： -0.635384 0.878275 1.475075 0.329071 0.102658 -0.304220 -0.229525 0.621371 -0.628186 -0.663137 -0.022104 0.454549 -0.363666 -0.888828 0.666010 -0.271502 0.141300 0.313082 0.030719 -0.683925 0.629665 -0.988149 -0.184181 -1.412269 -0.664638 0.242867 0.346709 0.168167 -0.770724 0.617036 0.006341 0.236663 -0.436207 -0.141589 -0.028994 0.723933 0.056368 -0.264688 0.077159 0.716089 0.785565 0.322278 -1.699879 -0.899863 -0.461507 1.083723 -0.026025 1.481533 -0.383182 -0.193873 
下 -0.112985 -1.495292 -0.685186 1.273853 0.845719 -0.463552 -0.811257 0.354119 -0.000031 -0.033384 0.163533 0.056344 -0.038711 -0.204697 -0.709998 0.499300 -0.109284 0.570161 -0.512365 0.029534 -0.275350 1.125781 1.054439 -0.267477 -0.312002 -0.184975 -0.518464 -0.528670 -0.061113 -0.695965 0.124290 0.083866 -1.015705 -0.566901 -0.339896 0.316007 0.177065 0.038854 -0.635170 -0.754655 -0.222184 0.072029 0.069536 0.549277 -0.400587 0.526877 -0.423756 -1.011213 -0.434921 0.337321 
自 0.209421 -0.335487 0.323525 0.926183 -0.727796 -0.357967 0.084486 -0.874022 1.225092 0.258243 -0.494180 -0.855828 0.159327 -0.771114 -1.118268 -0.227215 1.071439 0.404958 -0.048897 0.539355 -0.217795 0.358687 -1.057260 0.529028 -0.584893 -0.475609 0.027419 -1.052603 -1.447630 0.844069 0.126681 -0.611635 -2.319798 -0.157286 -1.176340 -0.315087 0.107862 -0.713401 -0.265837 -0.316565 -0.583676 1.428159 -0.248073 -0.436683 -0.072999 0.245145 0.193003 -0.713096 1.562170 0.087793 
实 1.791964 2.912635 -0.451331 0.958783 1.159192 -0.677188 1.563617 -0.593047 1.093304 1.250825 0.876733 -1.336360 0.350108 0.538756 1.268457 -1.434365 -1.619065 -0.477298 -0.093577 0.434967 0.589416 -0.584713 0.827280 2.004733 0.251193 0.141847 -1.778511 0.091884 -0.861326 0.594717 -0.387853 0.878654 0.523305 -0.055368 0.333793 -0.618369 -0.012901 -0.915719 0.272297 -0.174465 -0.240239 1.046660 -1.277753 -0.064661 0.390063 -0.822881 -0.444912 -0.527313 0.982228 -0.695286 
用 -0.947078 1.496296 -1.196571 0.373017 0.417825 1.193515 0.779741 -1.726161 -0.065210 0.308939 0.982486 -0.567908 0.022382 -0.967977 0.451737 1.731891 1.647373 -0.087196 -0.534532 -0.031500 -0.047004 0.457305 -0.365867 0.051640 0.206181 0.354238 -0.484631 -0.082235 -0.326269 -0.548537 1.190865 -0.324636 1.042300 -0.428864 -0.640762 0.196742 0.867733 -0.723039 -1.189392 -1.058733 -0.700167 0.650053 0.741523 -0.951228 0.987117 -0.361583 -0.018655 -0.051956 0.521930 0.985734 
动 -0.026540 1.088497 -0.229054 0.142217 0.186541 1.736534 1.312313 -0.359909 0.900270 1.639411 0.148617 -1.561114 -0.031052 0.677656 -0.855473 0.132363 -0.015489 -0.089360 -1.148895 0.478946 0.245751 -0.701817 1.575509 0.782450 1.793104 0.850227 -0.758128 0.099997 0.047931 0.040577 -0.003603 -0.614034 -0.038657 0.634784 1.463674 -1.465822 1.700991 -0.032317 -1.020939 0.441967 -0.193408 0.899829 1.180668 0.863447 0.483135 0.124437 -0.042480 -1.255383 0.318929 -0.682073 
小 0.755602 -0.611063 0.898696 -0.877286 0.507851 -0.083517 -1.231033 0.907726 0.567045 -1.584986 -0.599113 0.923504 -0.679070 0.049950 0.094755 -0.397964 0.118640 0.433533 -0.740574 0.112966 -0.568212 0.125042 0.212323 -0.712168 -1.160556 0.538126 0.351298 0.413815 0.194652 -0.026715 0.578835 -0.065946 -1.218027 -1.228289 -0.127440 0.055105 0.072966 0.459787 0.745289 0.460829 0.255580 0.143038 0.385536 0.069349 0.235704 0.402313 0.584934 0.814014 0.989043 0.733995 
法 1.219164 0.640064 0.367377 -0.125178 -0.176591 0.665165 1.580698 1.547960 0.267820 1.276393 -1.105775 0.244895 0.907400 0.259054 -0.124001 0.333397 0.719117 -1.054783 0.856235 0.521807 2.656101 0.372577 -0.043646 0.371879 -0.197767 0.262066 -1.901568 -1.134913 -1.933223 0.085857 0.675491 0.148135 1.431576 0.832592 0.314475 1.242700 -0.380746 -1.008716 -0.148357 -0.016622 -1.907068 -0.389176 -0.015640 -1.933375 0.704143 -1.155618 -2.992116 -0.563816 -0.405176 1.235079 
高 -0.603507 0.297283 -1.766784 -0.611996 1.250967 0.557435 -0.530756 0.652442 -0.991097 1.662196 0.776896 -0.380396 0.769034 -0.193990 1.085225 1.485494 -1.008194 0.603415 -0.425523 0.226708 -1.513892 -0.870360 -0.227494 0.233593 0.008359 0.438345 -0.542449 0.913027 0.166557 -0.675352 0.605423 0.912797 0.003946 -0.702641 -0.165687 -0.785796 1.316334 -0.183256 0.739723 -0.008655 -0.850365 -2.223583 -0.221489 0.025400 -0.247079 0.420190 0.811328 0.945669 -0.586829 0.046906 
分 0.975951 -0.733628 -1.483441 -1.088848 1.128570 -1.123187 -1.522591 1.072509 -1.091124 0.306334 1.091534 1.076606 1.034897 -0.142481 1.032104 0.809872 -0.334773 -0.619584 0.485159 0.502355 -0.047525 -0.426896 0.604464 0.121585 -0.866807 0.134624 -0.754135 -0.770252 0.478842 0.047662 1.421410 0.823463 0.388857 0.456087 -0.575329 0.189518 1.365811 0.716017 -0.451966 -1.466604 0.406057 -0.028065 0.073521 -0.808069 -0.175210 0.472950 -1.451844 -0.714614 1.070008 -0.292849 
说 -0.638399 -0.401518 1.507881 -0.066931 -0.119541 -1.606362 -0.400717 -0.046228 0.257258 -0.538353 -0.726793 0.276133 0.069304 -0.491333 0.476638 -1.002331 0.413297 0.367542 0.279364 -0.223608 0.137435 0.659018 -1.149317 -1.187819 -1.463916 -0.262426 -0.661037 -0.613066 -1.254473 0.907478 -0.395924 -0.409480 -1.562485 -0.368475 -0.939700 -0.034744 -0.345049 -0.486876 -0.470047 1.153239 0.782089 0.614042 -0.941136 0.089068 0.508633 1.785978 -0.135386 1.415032 -0.651012 0.449172 
学 0.812724 1.284786 0.129940 -2.095706 0.853287 -0.524430 -0.831183 0.852530 0.547192 0.998422 0.846026 -1.444738 1.055225 0.067527 0.884714 0.122809 -0.404947 1.639540 1.693058 1.647716 -0.398934 -0.865572 1.211900 -0.882652 0.928383 -1.413070 -1.282307 -0.304695 -2.214122 0.449882 1.812733 -0.324502 0.263081 -1.552459 -1.322896 -0.982041 0.147871 -0.630077 0.833877 2.890947 1.392943 -1.509720 -1.298517 -0.802134 0.342154 -0.849148 0.398165 1.397032 1.005629 2.423060 
天 -0.983089 -1.574065 -0.466731 0.302856 0.801711 -0.642091 -1.275107 -1.006467 -0.589105 -0.395312 -0.062699 0.724508 -0.180833 -0.168108 -0.597457 0.854998 -0.438692 1.632117 0.276962 -0.763610 -0.025008 -0.417965 1.767487 -1.576682 -1.061311 -0.298435 0.691721 -0.838577 0.560001 -0.316465 -0.373217 0.908133 -1.702838 -0.702445 -0.204854 -0.207516 -0.091776 -0.906088 -0.107886 -0.949003 1.215567 0.058959 -0.850509 0.069798 -1.684922 -0.115634 -0.236070 -0.461068 -0.953548 0.890805 
们 -0.721929 -1.247755 2.020937 0.384339 0.148877 -1.276388 0.276963 -1.886834 1.091479 -0.445495 -0.312506 -1.156557 0.978307 0.195918 0.008993 -0.838714 0.996963 1.005949 -0.623871 0.262924 0.224200 0.786049 -0.230612 -0.107980 -0.201551 0.221287 -0.735216 -0.507025 -1.183398 0.986336 0.793971 -0.282363 -1.397235 -0.219016 -1.143153 -0.168143 0.718060 0.263686 -0.549486 1.145113 0.058287 1.218495 -1.245076 0.417909 0.349393 1.339199 0.438760 0.845473 -0.514270 -0.978743 
将 0.464885 0.406334 -0.518115 0.220444 -0.235963 0.350900 -0.099564 -0.333555 -0.681000 0.065873 -0.544533 -0.066754 0.061664 0.505035 -0.753638 0.155244 -0.000927 0.025684 -1.275801 -0.451388 -0.452815 -0.135616 0.933128 -0.262254 0.247666 0.079039 -0.756226 -0.557665 0.051149 -0.071867 -0.520922 -0.059867 0.399783 1.124534 -0.024422 -0.217858 0.026025 -0.033243 -0.268842 -0.835113 -0.241435 -0.310682 -0.140114 0.947637 -0.025382 -0.718250 0.276361 -1.154406 -0.245159 -0.093569 
等 -0.140895 1.407014 -0.158198 -0.415549 0.174631 1.471550 -0.067337 -0.629557 0.030664 0.319816 0.210274 -0.330592 0.291375 0.082602 0.380107 0.141127 -0.470817 -0.564066 0.105985 -0.423097 -0.147737 -0.622786 -0.111438 0.958969 0.351812 -0.090393 0.167396 0.579990 0.138997 -0.629364 1.088373 0.100190 0.865304 -0.186561 0.021476 -0.218612 0.556157 -0.036613 0.225704 -0.123010 -0.425649 -0.505302 1.141071 -0.344006 1.016332 -0.733204 -0.641507 -0.271481 0.556400 0.351364 
可 -0.498815 0.085504 -0.148712 0.309132 0.767509 -0.845062 0.053703 -1.521223 0.495825 0.168165 0.381486 -1.037424 -0.159646 -0.312452 -0.385507 1.119213 1.042900 0.074177 0.316390 0.351505 -0.148262 0.711936 -0.344990 -0.590978 -0.544559 1.642258 -0.723226 -0.526563 0.317321 -0.353041 0.473728 0.089648 -0.227529 -0.988658 -0.512843 0.448666 0.852000 -0.344771 -0.934594 -0.632949 -0.790025 0.939309 -0.411174 -0.486653 0.383498 0.330791 -0.254739 0.921046 -0.487275 -0.521092 
区 -0.278106 0.895967 0.764998 -1.453883 0.992432 1.434630 -1.224484 1.311794 -0.470601 1.313977 0.520818 -1.005986 2.037461 0.326991 -0.676680 -0.777571 -2.056050 1.331580 0.229293 -1.118905 -0.443933 -0.916525 1.205935 0.420322 -0.345960 -1.354376 0.642313 1.989157 -0.598966 -1.329160 -0.927298 0.883067 0.920518 0.052872 -0.065665 0.868841 0.005801 1.305166 0.240938 -0.537757 -0.669078 -1.088439 0.951595 -1.061936 1.281439 -0.728032 -1.159365 -2.099757 0.926313 0.753158 
事 0.304522 0.061789 1.033312 -0.042504 -1.345092 -0.945847 0.403365 -0.078029 0.265957 1.334610 -1.340177 0.437434 0.635770 -0.299854 -0.760383 -0.555221 0.236339 -0.472653 0.841202 0.019530 0.892039 0.205943 0.183904 1.726367 -0.678425 -0.379009 0.332201 -1.095700 -1.770350 0.156817 -0.203432 0.902690 1.162574 0.091412 0.112185 1.113768 -0.214673 -0.419310 0.094900 0.294045 -0.999155 0.226751 -0.475114 0.626468 0.430396 1.035310 -1.061303 0.273694 1.156854 0.230423 
关 0.452431 0.419009 1.276543 0.516796 -0.848597 0.640723 0.722616 -0.662112 -0.940363 0.953180 -0.236028 0.330677 0.441879 1.240389 -0.772757 -1.577441 -1.277440 -0.810390 -0.422097 -0.215501 0.141254 -0.435691 -0.370270 1.909407 0.614047 0.551156 -1.657984 1.636681 -0.525683 -0.628184 0.907717 0.084051 2.134055 2.918128 -0.617128 0.523543 0.772154 -0.281299 -0.519065 0.342929 -1.058590 0.485983 -1.350317 -0.493362 -0.465752 0.887999 -1.662445 -0.185285 0.282114 0.782660 
政 0.133097 0.801440 -0.307714 -0.155762 -1.999136 1.680356 1.915364 1.538013 -0.549028 -0.170620 1.239478 -2.161606 3.764721 0.272334 1.180173 -1.495226 -3.878097 0.692187 -0.832237 -0.313677 -0.290999 0.527099 -0.822208 1.145547 -0.055932 -0.767921 -1.541393 0.391813 -0.537434 0.941528 -0.313016 1.014945 1.935186 2.372977 -2.029369 1.787795 -0.380081 -1.808366 -0.584485 -1.438793 -0.006792 -0.608329 0.629001 -1.053212 0.580279 0.224199 -3.264770 -1.818563 0.279209 0.331942 
员 1.000139 0.133719 0.657131 -0.187626 -1.092132 0.191911 0.293207 0.741388 0.326119 1.987595 0.225826 0.384392 1.524910 0.003287 1.257858 -1.476832 0.111862 0.149490 0.274959 -1.312814 -0.012381 0.060108 -0.161696 -0.021022 0.346529 -0.128072 -0.759044 -0.679332 0.097878 0.694184 2.292710 -0.906089 0.234446 0.247171 -1.078217 0.175032 1.187854 -0.680416 1.563620 -0.013406 0.488040 -0.206678 0.123336 0.772272 0.374775 0.504745 -1.419512 -1.968822 0.872836 1.361059 
长 0.895217 -0.299049 -0.131391 -1.145419 0.568702 0.386056 -0.824050 1.296537 0.364800 0.951997 0.645049 -0.086508 2.504799 0.917080 0.080917 0.558743 -0.419989 -0.166281 0.300386 0.183124 -0.311090 -0.369885 0.337661 -0.184247 -0.797070 -0.720214 -0.243534 -0.160285 1.498839 0.454146 -0.592452 -0.049841 0.034722 1.056137 0.052030 0.413383 -0.316167 0.227539 0.368189 0.168462 -0.093042 -2.144989 0.110961 0.495062 0.251601 1.024671 0.538276 0.893892 -0.263665 2.164890 
记 -0.642625 0.300842 -0.410762 1.326594 -0.518504 -0.380603 1.922070 -0.389441 0.283638 1.263762 -0.300442 1.236493 0.144647 -0.880391 -0.463831 -1.163324 0.651660 0.152510 0.125147 -0.397281 0.050742 1.374442 0.344179 -3.939227 -1.238064 -2.047020 -0.637224 1.502944 1.177598 0.622649 -0.261148 -0.510796 -0.126799 -0.496494 -0.820431 1.433169 0.864213 -1.086201 -1.316525 2.253498 0.684371 -0.157501 -2.035066 1.854912 0.007252 0.382016 -0.274940 -1.524276 0.401863 2.201012 
报 0.269869 -0.205039 1.321221 0.551407 -2.101274 0.193530 0.160773 -0.275825 -2.459164 1.112131 -0.671780 0.618964 -1.962243 -0.479960 0.647757 -1.176676 0.483141 0.035165 0.710319 -0.296809 0.038627 1.247108 0.927353 -2.108981 0.142809 -2.452110 -1.670318 0.564723 1.578372 0.272875 -1.017181 0.446720 2.183043 0.810833 0.729948 0.456356 0.135272 -2.624404 0.478383 1.583924 0.845496 0.178987 -1.942470 -0.529103 0.306664 0.264581 -2.089087 -1.639977 -0.784372 0.927604 
机 0.233379 0.261600 -1.972842 0.813072 -0.766639 0.618347 0.013521 0.228827 -0.228755 0.867828 -0.435374 -0.743288 -0.034100 0.139971 -1.296380 0.303769 1.626074 -0.312445 -1.475106 0.248722 0.490355 -1.223276 -0.187213 -0.052693 0.689835 0.571218 -2.026155 0.331990 -0.301211 -1.766952 1.390285 0.027535 1.630717 0.017219 -1.286645 0.810825 1.898773 0.865473 0.247371 -1.089272 -0.193552 0.051524 1.051107 1.419106 1.004239 0.152220 -0.263636 -1.787725 -0.236046 0.283269 
6 0.742817 -0.552192 -1.056572 0.277651 0.305690 2.091100 -0.689205 1.422367 -2.507483 0.941908 1.863916 1.556348 -0.300107 -0.102193 -0.290060 1.405069 0.187583 0.760200 0.045850 -0.106171 0.021730 1.706059 0.938240 -0.924386 -0.581322 -1.124911 0.298569 0.372176 1.844812 -0.823011 -0.292140 0.287118 -0.608017 -0.039130 0.130714 0.637385 0.149353 0.809870 1.305715 -2.132527 0.952878 -0.902749 -0.883571 0.818580 -0.426802 -0.963411 0.003678 0.442339 1.734911 -1.598094 
还 0.238818 -0.594862 0.773171 0.234751 0.796018 -0.707047 -0.212264 -1.472752 0.139695 -0.688858 -0.307065 -0.302627 0.042945 -0.041054 0.354625 0.136569 0.595661 0.335115 -0.173307 -0.194842 -0.302207 0.547110 -0.237580 -0.331769 -0.857117 0.777785 -0.215111 -0.430124 -0.554363 0.505832 0.278601 -0.331217 -0.446044 -0.576558 -1.110080 0.083591 -0.107032 -0.041150 -0.418798 -0.186635 -0.362194 0.164974 -0.336865 0.124660 0.410030 0.969014 0.060013 0.835835 -0.126375 -0.015701 
建 0.350390 1.841398 0.386318 -1.792501 1.497108 2.533817 -1.623864 2.169467 0.042631 0.709764 1.821798 -0.406566 1.143858 0.631966 0.404779 -0.108497 -1.826179 -0.481304 -2.124591 -0.114801 1.508489 -1.527928 1.239115 1.282375 0.510138 -1.621019 0.218747 2.294108 -2.180650 -0.846810 -0.550316 0.210258 2.310488 1.861107 -1.132963 0.503482 1.123188 0.258999 -0.448158 0.178718 -1.755888 1.948488 -0.299614 0.761128 0.917067 -0.692251 -0.323661 -1.189564 1.163148 -0.039210 
理 0.258493 1.336197 0.504229 -0.991393 0.566326 2.091081 0.914794 -0.128390 0.615882 1.174430 0.804517 -0.502894 0.955038 0.859104 -0.081414 0.034089 -0.365623 -1.222879 0.268165 0.622497 1.212959 -0.308618 -0.861302 0.299565 -0.311770 0.116798 -0.459905 -0.849575 -1.791107 -0.416369 0.575833 0.224748 1.337061 0.584551 -1.153937 0.356915 -0.591906 -0.874212 -0.131112 0.010919 -0.636656 -0.640529 0.815280 -0.591820 1.304297 0.923765 -3.449144 -0.866142 0.845728 1.810881 
主 0.986766 0.162300 0.675775 0.055759 -1.532434 0.323299 0.924982 0.990164 0.398589 0.059229 0.800729 -1.466060 2.253798 -0.212218 0.180482 -0.253509 -1.013555 -0.295674 -0.544709 -0.745546 0.706234 -0.888641 -1.353486 0.006017 -0.021792 -0.171754 0.500285 -0.224840 -0.225927 0.489065 1.151342 -0.640052 0.098354 1.625241 -0.200120 0.040126 -0.030912 -0.140118 -0.248992 1.164045 -0.453759 -0.490141 0.478651 0.396224 -0.334379 0.998165 -0.293739 -0.437408 0.679237 1.144140 
9 0.936784 -1.071356 -1.022890 0.246617 -0.245858 2.130644 -0.305369 1.888415 -2.773928 0.698978 2.031000 1.626002 0.150608 -0.167295 -0.525760 1.287541 -0.158740 0.939387 0.126301 0.182450 0.402187 1.248892 1.157358 -0.818735 -0.489652 -1.669016 0.215452 0.178342 2.246500 -0.725477 -0.796388 0.167821 -0.775303 0.421004 0.017760 0.780462 -0.619063 0.804067 1.253078 -1.539148 1.443043 -1.198605 -0.909373 0.536495 -0.715340 -1.376335 0.024585 0.622013 2.159862 -1.434743 
体 1.042028 1.347413 0.541841 0.712810 -1.227674 0.452964 -0.389670 -0.744115 0.158089 1.731995 1.336435 -1.845011 -0.272602 0.995310 -0.075262 0.936929 0.728200 -1.729573 0.452558 1.237365 -0.809441 -0.416701 -0.281743 1.544583 0.767576 0.453070 0.238948 0.627054 0.731880 -0.137123 -0.471781 0.600769 1.393405 0.187403 -0.431073 -0.651766 0.406241 -0.398539 0.477954 1.330873 -0.399928 1.110256 -1.022270 -0.896700 -1.116479 0.223802 -0.264908 -1.429770 0.310147 0.556850 
定 1.698933 1.398923 1.096124 0.962876 0.797840 0.456283 2.346095 0.618319 0.527207 -0.146376 -0.140313 -1.190307 1.418599 0.165349 0.397370 0.348016 -0.590181 -0.463597 -1.437881 0.238883 0.685846 0.765173 0.017397 1.724683 -1.511126 1.619426 -0.537045 -0.601936 -1.664022 0.705687 -1.273788 0.867799 1.011092 0.998206 -0.852633 1.285098 0.480116 -0.442995 -0.077146 -2.037850 -1.110592 -0.794062 -1.679181 -0.909135 -0.062944 -2.059176 -1.006521 -0.161280 -1.355626 0.376236 
都 -0.366771 -1.055530 0.715086 0.232743 0.541254 -1.573805 -0.310741 -1.362760 -0.022538 -0.634195 0.587770 -0.564457 0.202860 0.058004 -0.052696 -0.275069 0.415353 0.403135 -0.002849 -0.484157 -0.130427 0.075104 -0.211934 -0.257246 -0.728197 0.144498 0.451400 -0.343552 -0.567927 0.493921 0.583339 -0.081499 -0.715976 -0.982187 -0.335958 -0.482274 0.534725 -0.125642 -0.500480 0.251743 0.351977 0.643040 -0.048798 0.252570 0.223223 0.712143 -0.374271 0.699150 -0.172465 -0.281491 
面 0.781799 -0.473277 -0.270958 0.065112 0.715738 0.024322 -1.202727 0.040583 -0.188154 -0.343095 0.577589 -0.556184 0.888983 0.638729 0.205053 0.033068 0.843801 -0.944519 -0.348990 0.710300 -0.861885 -0.306006 0.234892 0.688221 -0.115563 0.418597 0.726629 1.206249 -0.896963 -0.630117 -0.085006 0.417092 0.742167 -0.180055 -0.500568 -0.472256 -0.331097 0.035974 -1.551649 0.108803 -1.040880 0.055760 -0.085094 -0.010258 0.329743 0.594443 -0.299369 -1.562941 0.132362 -0.397258 
安 -1.291319 1.633151 -0.083771 -0.865404 0.027229 0.407759 0.201670 0.252271 -0.650292 1.224160 0.359035 1.223601 1.648391 0.637949 -0.372465 -0.822653 0.207065 0.056309 -0.443034 -2.045020 1.362887 -0.334161 -0.159865 2.086824 -0.532068 -0.103553 0.383643 -0.485392 0.988583 -1.612416 0.169079 1.055214 0.899123 0.826502 -0.424476 0.487463 0.710088 -0.517329 -1.062182 -0.213515 1.481468 -1.015932 -1.451516 0.033420 0.939956 0.169141 -0.101980 -2.541144 0.590546 1.191056 
8 0.799822 -0.947511 -0.835188 -0.040598 -0.014470 2.185575 -0.558543 1.683877 -2.525058 0.583774 2.140131 1.497147 0.178827 -0.226066 -0.280932 1.425477 0.184316 1.142456 0.005931 0.246367 0.008680 1.796384 0.948200 -0.785082 -0.826306 -1.375486 0.157851 0.431792 1.987962 -0.334347 -0.377516 0.191343 -0.584541 0.096334 0.072291 0.667051 -0.342924 1.005932 1.479990 -1.860538 0.990429 -1.174357 -0.793836 0.705272 -0.406586 -0.991725 -0.115846 0.583260 1.823473 -1.421047 
网 -0.950211 1.279047 -1.687765 -0.616223 -1.565991 0.716920 1.416343 -1.504661 -1.626480 0.172815 -1.945359 -0.472963 -2.348540 -0.728021 0.593597 -0.992326 1.824343 -0.368436 -0.270009 -1.700952 -0.361293 0.933170 0.725220 -2.715763 0.607347 -0.778950 0.628968 2.908224 0.941461 -0.556518 0.433664 -0.047273 -0.875887 0.898447 1.728295 -1.233892 2.470217 -0.399336 0.362648 -0.219154 1.099544 0.836182 -1.367562 -0.651799 -0.086573 1.497870 -1.683825 -0.140858 1.023794 -1.615001 
同 0.868604 -0.744189 0.765034 0.053290 -0.438231 0.314173 -1.004578 0.084811 -0.434269 1.045946 0.784500 -0.877312 0.513077 0.851079 -0.615564 -0.409824 -0.297577 -0.365066 -0.435438 0.801594 -0.171907 1.146683 -0.808165 -0.044770 -0.532930 0.303467 0.365097 0.490921 0.030383 0.011658 0.737235 -0.254518 -0.050070 0.067762 -0.667445 -0.454485 0.790213 -0.308477 -0.156959 0.904908 -0.211022 0.597996 -0.141576 0.628355 0.327129 -0.689518 -0.332264 0.544454 0.545928 -0.576364 
力 -0.943890 0.148122 -1.644035 -0.201720 0.244305 1.879583 0.705284 -0.246205 1.478793 2.180784 0.987480 -2.735133 1.074771 0.955073 1.479907 0.375077 -0.207390 -0.326726 -0.786846 1.314912 -0.865527 -1.233380 -1.201909 1.098440 1.898425 -0.085479 -1.537939 -0.396861 -0.410305 -0.200167 -0.600947 1.161936 -0.811818 1.001357 1.020160 0.223989 1.370315 0.893877 -1.364848 -0.770333 -1.122584 1.793432 0.009708 0.621217 -0.308550 0.004357 1.006629 -0.605701 0.478617 -0.130460 
表 -0.486431 0.122961 0.807971 -0.558438 0.515173 -0.860255 0.344802 0.869549 -1.132674 1.547070 -1.852094 0.058327 1.050231 0.033790 0.736260 -1.459368 0.391481 -0.442076 0.105069 -0.191031 -1.524479 0.283348 -0.729885 -0.954903 -1.232137 -0.060625 0.754925 -0.883404 -0.690050 2.088583 0.054673 -0.120269 0.100427 2.392871 -2.112977 -1.159930 0.723746 -0.441938 -1.168008 0.722565 0.453086 0.444083 -0.550680 0.947183 -1.634243 -0.291269 -1.080505 -0.664762 -0.693035 0.177628 
其 0.620800 0.602539 0.347018 0.301369 -0.398458 -0.952251 0.248370 -0.430397 -0.429276 0.569517 -0.218496 0.063146 0.410274 -0.456060 -0.669369 0.506974 0.468378 -0.288868 0.879466 0.129953 -0.795208 0.940034 -0.826633 0.359913 0.303933 0.206126 -0.371238 0.336516 -0.131673 -0.247843 0.697644 -0.067393 0.415202 -0.009724 -0.201927 0.146515 -0.070215 0.441546 -0.236864 -0.510913 0.019906 0.076051 0.177640 -0.053766 0.244175 -0.946522 -0.461117 1.123867 0.851603 0.263029 
名 0.521269 0.727787 0.455451 0.184975 -0.771904 -1.130556 -0.337528 1.322661 -1.629539 0.386005 -0.980044 1.148549 -0.243219 -1.408426 0.252334 0.408290 1.661059 1.160405 1.551367 -0.796000 0.059299 0.522555 -0.057133 0.172012 0.535177 -0.442250 0.526371 0.415450 -0.254318 0.014894 1.957604 -0.068836 -1.349972 -0.508327 -0.275716 -0.744197 -0.489998 -0.132220 0.898469 0.289697 1.463894 -0.069813 -0.701736 0.199785 1.176058 -1.779160 0.195765 -0.611286 0.594571 0.182755 
加 -1.010368 0.053188 -0.042354 0.485818 1.036214 1.426769 -1.396592 0.207341 0.309539 0.726841 1.056687 -1.130631 0.994981 0.813417 0.475460 -0.284569 -0.129549 -0.266959 -2.178087 0.912560 -1.093248 -0.848611 -0.908253 0.244464 0.722936 -0.206670 -1.013172 -0.056865 0.340429 -0.516781 -0.017231 0.721453 1.484676 1.009553 -0.289258 -2.231892 0.827895 -0.703371 -0.738832 0.362052 -0.427470 -1.167140 0.319125 0.958675 1.158204 -0.951592 0.537380 -0.859065 0.791072 -1.362866 
被 -0.297736 -0.147678 0.012511 0.363914 -1.590121 -1.076164 0.667560 -0.013650 -0.327237 -0.992607 -2.346627 2.111462 -0.756685 -0.649133 -0.187429 -0.002453 1.057814 -0.315391 1.029205 -0.432290 -0.520841 1.194057 -0.210437 0.823109 0.158156 0.762906 -0.603736 -0.372960 -0.348578 -0.659823 0.088890 -0.007463 -0.648074 -0.962715 0.428974 1.060530 -0.697685 0.955134 0.423170 -0.222547 0.184749 -0.431531 0.106593 0.407254 -0.061834 -0.212461 -0.146423 -0.408439 0.458686 0.632907 
与 0.864613 0.151066 0.547669 -0.556573 -0.452079 0.095086 -0.447942 -0.004950 -0.294811 0.715774 -0.238256 -0.841113 0.118352 0.144514 -1.004741 -0.676545 -0.058419 -0.585317 -0.094285 -0.128542 -0.588158 -0.206275 -0.904786 0.250928 0.476319 -0.491027 0.204658 0.069917 -0.046295 0.155407 0.282278 0.086255 -0.059650 1.108725 -0.780780 -0.429395 0.531207 -0.524600 -0.209038 0.923877 -0.415440 0.244549 0.628431 0.174789 0.113620 -0.536679 0.432169 0.092353 0.665351 -0.278540 
场 -0.279317 -1.013840 -0.171538 -0.530576 0.114665 -0.154249 -0.143784 -0.812842 -0.237305 0.164389 -0.032040 0.219860 0.538287 0.046773 -0.270655 -0.567783 0.296088 0.012445 -0.883208 -1.137574 -0.847166 -1.284954 1.004573 0.283877 -0.176571 0.373026 0.445184 0.171972 -0.399451 -1.036258 -0.259893 -0.411633 0.498588 0.976122 0.835022 -0.696143 1.162821 0.024647 0.886954 -0.124462 -1.836519 -0.934108 0.994580 0.740810 -0.023482 -0.246755 -0.022285 -1.833409 0.194640 -0.418314 
通 -0.072611 2.715656 -0.088654 0.295682 0.867087 0.686176 0.522364 -0.583704 -1.984077 1.048539 -1.439356 -0.838711 -0.419976 0.608406 0.031923 -0.760668 0.630368 0.785941 -0.631857 -0.471631 0.452951 0.505629 0.604354 0.061013 -0.695986 -0.856126 -0.009249 0.207662 1.023474 -0.750845 0.579242 1.051055 1.861114 0.500134 -0.216531 -0.372296 1.153048 -1.669113 -0.643432 -0.099428 0.512615 -0.951592 -0.350483 0.535211 1.771512 2.075728 -1.284600 -0.172702 -0.070754 1.153030 
重 0.030014 -0.260010 0.036424 0.897495 0.082667 0.853024 0.729272 0.123620 -0.154998 1.177829 1.025701 0.086637 1.348848 1.171078 -0.869273 -0.493039 -2.072460 -0.040371 -0.545658 0.775861 0.311372 -0.835405 -1.262029 2.272530 0.382853 0.631200 0.097064 0.433193 -0.119556 -0.209027 0.443053 1.355179 1.546540 -0.201846 0.632716 -0.093709 0.064340 1.007976 -1.091380 0.941614 -0.699403 -0.384622 -1.017202 0.396621 -0.205251 -0.393086 -0.746302 0.027635 0.018635 -0.290493 
最 -0.466486 -1.107520 -0.692344 -0.377841 0.805142 -0.735647 0.763216 -0.510504 0.118463 0.055213 0.304440 -0.434677 0.171239 -0.606875 -0.443148 0.592459 0.348671 0.452750 0.207769 0.546044 -1.401698 -0.838294 0.340514 -0.382341 -0.012140 1.530154 -0.218265 -0.008307 -0.465479 -0.166586 -0.132370 0.417719 -0.334022 0.144582 0.369032 -0.387729 -0.056825 -0.421157 0.450074 -0.355677 0.733540 -0.332959 -0.677385 0.073077 -0.440814 -1.393013 0.815531 0.985084 -0.477843 -1.293187 
女 0.796712 -0.138708 2.787326 -0.938718 -0.875223 -1.525721 -1.189870 0.678082 -0.528119 -1.546011 -1.897927 1.121284 -0.560093 -0.702879 -0.637257 0.013938 1.464479 0.352305 -0.170107 0.688189 -0.218558 0.363902 -0.719466 0.539596 0.457658 0.733226 1.060233 -0.643342 0.442226 -0.114864 0.061168 -0.183107 -3.102978 -1.084261 -0.566553 -0.836485 -0.173610 0.441635 0.841757 1.488815 1.063113 0.444274 -0.466649 -0.963435 0.238458 -0.462520 0.995667 1.470923 1.575423 0.563790 
当 -0.005609 -1.204846 1.013114 0.347764 -0.690403 -0.818824 -0.284775 -0.438403 0.087648 0.591141 -0.617683 0.452414 0.486386 -0.114662 -0.600773 -0.433492 0.454136 0.130568 -0.464019 -0.601905 -0.362827 0.528372 0.093184 -0.195215 -0.637001 -0.081210 -0.447219 -1.008213 -0.364745 0.139671 -0.146543 0.020061 -0.701309 0.091529 -0.665086 0.147864 0.283030 -0.770534 -0.079096 -0.111216 -0.531261 -0.165715 -0.682139 -0.347488 -0.731592 0.368894 -0.299997 -0.028704 -0.090026 0.225383 
次 0.719226 -0.791950 -0.772512 0.617692 -0.443398 -1.045232 -0.057631 0.645757 -2.020210 -0.220634 -0.086015 0.027089 -0.164180 0.294904 0.648687 -0.088164 -0.053118 0.203756 -0.837629 -0.613230 -0.823880 -0.068756 0.933035 -0.500545 -0.025052 0.026106 0.571313 -1.127524 -0.138335 0.065544 0.987284 -0.070454 0.030576 0.518447 -0.811997 0.084094 0.846525 -0.630150 -0.059060 -0.059469 1.497245 -0.413002 -0.596211 2.321596 -0.961291 -1.339844 -0.391263 -0.063385 0.188038 -0.982508 
得 -1.065690 -1.550639 -0.351236 0.002227 0.695802 -2.100742 0.294728 -1.509416 0.712449 -0.172588 0.163909 -0.116818 1.666414 0.056457 0.560199 0.632054 1.152707 -0.299527 0.543265 1.054476 0.560610 -0.134851 -0.001632 0.020533 -0.194002 1.604174 -0.651115 0.325666 -1.426787 1.583987 0.081539 0.544643 -0.622324 0.031260 -0.499326 -0.102510 1.123472 -1.110924 0.840518 -0.811718 -0.388624 1.247837 -0.031695 -0.704230 1.410650 0.218630 0.764464 0.823372 -0.361504 -0.824562 
本 1.625211 0.928965 -0.082927 0.625195 -0.539635 0.367353 0.267241 -0.517309 -0.205927 0.305856 1.412699 -0.991575 -0.520740 -1.499392 0.018602 0.139862 -0.173044 0.685543 0.391745 -0.070587 -0.066822 -0.102382 -0.864055 -0.595441 0.175557 -0.533866 -0.309050 -0.339325 -0.294154 0.401624 -0.415549 1.197093 -0.053177 0.812830 -0.476492 0.817755 -0.028413 -0.909243 0.178256 0.017200 -0.664150 0.204425 -0.821056 0.046640 -0.994161 -0.817701 -0.219359 -1.236248 0.306566 -0.532550 
7 0.933768 -0.979504 -0.755701 0.075729 0.228941 1.994703 -0.202065 1.594737 -2.881642 0.874859 2.188515 1.842170 -0.058830 -0.183956 -0.462155 1.312151 -0.305754 0.673386 0.295521 0.258348 0.148427 1.942852 0.806438 -0.850951 -0.663710 -1.313808 0.181666 0.328219 2.051512 -0.694550 -0.399007 0.530543 -0.530202 0.191495 -0.036008 0.569041 -0.187624 0.995541 1.367783 -1.792424 1.251369 -0.985658 -0.821830 0.600633 -0.485804 -1.141676 -0.159660 0.443715 1.597141 -1.257302 
道 -0.693967 1.247304 1.551266 0.733579 -0.438766 -0.276926 -0.135573 -0.687088 -1.699459 -0.139515 -0.627925 -0.583803 -0.574037 0.011558 -0.266672 -0.729286 0.727107 0.394004 1.012903 -0.622938 0.461010 0.183975 1.318010 -0.921674 0.164848 -1.288789 0.378773 -0.732727 -0.403946 -0.847671 -1.452151 1.870006 0.710963 -0.351343 0.758893 -0.664068 -1.225442 -1.301599 -0.478335 0.612036 0.087642 -0.874089 0.043248 -0.982173 1.590876 1.733960 0.227143 0.169677 -0.952577 0.533475 
好 -0.835001 -0.688421 1.127412 -0.254389 1.185600 -0.052798 -0.075515 -1.691772 1.778509 -0.760440 0.101395 -0.730712 0.813224 1.129461 0.245058 -0.206223 -0.227111 0.052729 -0.630678 0.684151 0.853164 -0.496641 -1.059773 0.733192 -0.626535 0.426913 0.053630 -0.010758 -1.595767 0.791446 0.627452 0.557534 -1.187755 -0.773586 0.088744 -0.939950 0.973080 -0.760223 -0.522541 0.403377 0.340999 1.415348 -0.744929 -0.316945 0.516538 1.095870 -0.343524 0.253220 -0.130194 -1.200683 
元 0.590202 -0.993115 -0.601918 -1.144827 -0.118866 1.858705 -0.762847 -0.958821 -2.381149 -1.383513 2.976303 2.593639 1.187741 -1.229913 2.198478 2.509832 0.291476 0.886701 0.298632 1.003438 -0.023884 2.539378 0.148450 -1.398521 -1.327259 -1.042069 -0.793227 0.597862 2.579614 0.274619 -0.268382 1.772327 -0.367816 0.573232 -1.136786 0.134327 -0.975743 1.542094 2.711193 -3.021417 -0.540027 -1.225764 1.160170 1.756957 1.745431 -2.031806 -0.900154 2.127703 0.871607 -1.854168 
目 0.917940 1.078189 1.125134 -0.340507 1.502399 0.668341 1.606603 -0.778829 -0.759172 0.178740 0.590309 1.277777 -0.510888 0.447185 -1.179410 -0.528555 -0.383760 -0.277860 -0.883337 0.041494 -1.953210 -2.137463 1.029934 -0.036569 -0.287637 0.692720 -0.027524 -0.165534 -2.102121 -0.805061 0.090056 0.530425 1.220467 1.664925 0.471383 0.249836 -0.329616 -0.680561 0.368870 -1.328676 -0.643332 0.196782 -1.061178 0.740559 0.096524 -2.000538 0.265483 0.734923 0.472590 -0.199148 
心 -0.790769 0.040319 0.382375 0.215903 0.097777 0.125452 -0.140842 -0.678791 1.344675 -0.194253 -0.470872 -1.048892 1.387448 1.223186 0.350178 -0.939979 -0.175194 0.330014 0.124874 0.497240 0.418275 -0.723509 -0.638861 0.803816 1.140616 -0.259153 0.064188 -0.228837 0.148133 0.680475 -0.356080 -0.087226 -0.932294 -0.147960 -0.799736 0.433579 1.264332 1.280913 -0.740252 1.017552 0.207211 1.023940 -0.354700 -0.615350 -0.424365 0.992097 -0.449446 0.512658 -0.358268 0.836442 
化 -0.701015 2.848404 -1.042441 -0.375675 1.343745 2.134408 0.257039 -0.084939 1.904110 1.620293 1.082751 -2.006952 0.713232 -0.528740 0.126816 0.924947 -0.820137 -0.732692 -0.371289 1.608794 -0.511250 -1.936866 0.132097 1.735837 0.651236 -1.065698 0.979567 1.000842 -0.633828 -0.460301 -0.185627 1.587486 1.406694 1.178552 -0.081554 -1.715232 -0.509334 0.821108 0.017894 1.603018 -0.393992 0.894875 0.436664 -0.314908 0.923823 0.038485 -0.750325 -0.681302 0.519658 -0.337149 
而 -0.212119 -0.253844 -0.727400 0.748345 -0.069424 -1.861668 0.560122 -0.850817 0.110768 0.031641 -0.097762 -0.505843 0.395741 0.012525 -0.387907 0.473274 0.983841 -0.078156 0.196297 -0.005206 -1.189779 -0.059282 -0.620068 0.362250 -0.457701 0.989951 0.223976 -0.993449 0.145745 0.366803 -0.218206 0.374156 -0.510661 -0.371161 -0.243884 -0.871939 -0.005069 0.108685 -0.460769 -0.123759 -1.512419 0.481162 0.389424 -0.014574 -0.234504 -0.483074 0.598907 1.204438 -0.511922 -0.120214 
务 0.828596 1.718217 0.850274 -1.254694 -0.538534 3.151825 0.258888 -0.304007 1.266303 2.115076 0.829058 -1.759769 2.557541 0.620470 1.639685 0.339159 0.664701 -0.467145 -2.008576 -0.093408 1.035530 -0.569273 -0.133628 0.598842 1.251875 -0.978387 -0.629473 0.800234 0.475907 -0.514838 1.787305 -0.562912 0.705473 -0.104031 -0.488364 -0.362597 0.949892 -0.463806 1.704813 -0.487550 -0.456270 -0.725872 -0.339842 0.623607 1.136253 1.071546 -1.845281 -1.588715 1.492399 1.537403 
》 1.567485 0.026389 1.091086 1.007379 -1.837532 1.057155 1.762951 0.852775 -1.582332 -0.694710 -0.145703 1.030457 -2.224634 -0.813655 -1.091470 -0.320114 -0.299408 0.151438 -0.845895 -0.535711 1.021623 -1.538391 0.362530 -0.402734 -0.022754 -1.328744 -0.105123 -0.269700 1.011102 1.701109 -0.643796 1.220488 0.506931 -0.157231 1.489581 0.127225 -0.825727 -1.560051 0.652485 1.893644 1.040838 1.014634 -1.057096 -1.490802 -0.104850 -1.703022 -1.285081 -0.781685 -3.207471 -0.785376 
《 1.204867 -0.276708 1.131868 0.672001 -2.049491 0.526941 1.698626 0.804995 -1.384074 -1.041952 -0.282869 0.474441 -1.836875 -0.179410 -1.573144 0.056673 -0.018634 0.460943 -0.572812 -0.570278 0.959593 -2.508662 0.124656 -0.861453 -0.116035 -2.173305 -0.346466 -0.100052 1.132064 2.315524 -0.846518 1.323663 0.654174 0.198109 1.065831 0.158009 -0.118757 -1.871743 0.320917 1.933982 1.545020 0.709561 -1.135837 -1.672631 0.446306 -1.662898 -1.477610 -0.978214 -3.501175 -0.149864 
度 0.886553 0.207258 -1.585654 0.718882 1.647683 1.290856 -0.009599 0.387579 0.589559 1.666493 0.954492 -0.388082 0.552822 -1.011963 1.001541 -0.144683 -0.380450 -0.048253 -1.569205 0.944912 -0.855642 -0.978985 -0.483700 0.145049 1.466580 1.858126 -0.500398 0.371144 0.466988 -0.762300 -0.334366 1.543206 0.641531 0.404276 0.572313 -1.449565 -0.772262 -0.686117 -0.296364 -0.866900 -0.592305 -0.153330 -0.621777 -0.154394 -0.137709 -0.832838 -1.019001 -0.159242 -0.535246 -0.493781 
点 -0.851519 -0.917765 0.060837 0.581785 0.794801 0.551301 -0.443419 0.158341 -0.164698 -0.529500 0.771344 0.231472 0.652468 0.210550 0.628205 -0.540952 -0.611474 0.563574 -1.042469 0.937958 -0.563176 -0.982833 1.698590 -0.322503 0.098274 -0.174210 0.933902 -0.253512 -1.233138 -1.266411 0.253142 0.848242 0.394255 -1.063032 1.606709 -0.433552 1.461529 -0.338099 0.030450 -0.788266 0.656432 -0.064641 -0.591628 0.090739 0.109063 0.694515 -0.147845 0.103939 0.910277 -1.220808 
之 -0.098599 -0.240357 -0.276852 0.073937 -0.589074 -0.834493 0.059054 -0.167467 -0.093590 0.024162 -0.598276 -0.463055 0.132031 0.188470 -0.763625 0.351548 -0.302157 -0.565954 0.223264 -0.474838 -0.356856 -0.346662 0.659583 0.231236 0.517788 0.121893 0.121163 -0.790245 -0.438159 0.250928 -0.080106 0.227422 -0.483490 0.020733 0.093648 -0.024890 -0.456987 -0.199017 -0.040244 0.185227 -0.761572 0.267987 0.241538 0.339844 -0.407944 -0.286762 0.456426 0.936277 -1.033405 -0.396940 
合 3.000407 0.019451 0.534267 0.042219 0.979425 1.594935 0.739818 -0.779910 1.338314 0.889614 -0.140517 -2.902038 -1.624335 -0.864411 0.416806 0.784277 -0.369527 -0.592213 -2.433754 -0.114060 0.929875 -0.422523 -0.683413 1.081306 0.704162 -1.454234 0.476446 0.303667 0.272421 -1.397217 -0.894253 0.818485 1.114249 2.422971 0.125123 0.097405 1.087552 -1.607463 1.419772 -0.399883 1.233950 1.386153 0.828305 -0.467190 1.941556 -0.860680 -0.787818 0.583974 1.674402 1.231570 
提 0.112659 2.397062 -1.294362 -0.857970 0.229132 0.912332 -0.781429 -0.109136 -0.043495 1.287947 -0.500375 -1.155846 0.304597 -0.758902 1.644285 0.219886 -0.340834 0.005653 -1.565299 -0.096720 -0.195013 1.903556 -1.280425 0.303258 -0.602339 1.231224 -1.509390 0.126025 -0.695426 -0.340938 1.436077 0.029491 1.121486 1.469788 0.212898 -0.642701 1.964621 -0.056424 -1.132238 0.064662 0.014844 -0.489581 -2.074300 -0.375810 0.221175 -0.498783 -0.254327 -0.866190 0.114016 -0.810790 
制 0.314385 0.983644 -0.840761 1.469504 0.233519 2.797824 0.506746 0.104285 0.625824 1.660940 1.569647 -0.092753 -0.228039 -0.839169 0.186485 0.701842 -0.345584 -1.192582 -1.137018 1.673251 1.147027 -1.433870 -1.005511 1.749511 0.579630 1.076524 -1.669003 1.182694 -1.051240 -1.372739 0.290315 0.244885 2.530074 0.512701 0.269916 0.203040 -0.486439 -0.717562 0.337107 -0.321687 -0.563888 1.393263 0.461769 0.178608 0.429343 -0.808589 -1.936015 -1.698907 -0.943519 0.841230 
外 1.131235 -0.119423 0.888950 -0.379145 -0.418850 -0.789090 -0.340504 -1.546402 -1.017979 0.217383 -0.458620 -1.058466 -0.182913 0.228604 -0.314158 -0.164552 1.038912 -0.174307 1.007289 -1.057284 -0.629211 0.001822 0.296002 0.070017 0.569658 -0.164295 0.645599 0.229203 0.095698 -0.608646 -0.249357 0.092026 0.405773 -0.031544 -0.277732 -0.683423 -0.711195 -0.248468 0.300554 -0.439142 -0.625594 -0.243742 0.010458 -0.742184 0.728512 -0.600276 0.018254 -0.039827 0.581545 0.832931 
保 -0.617107 1.991769 -0.704550 -0.088068 1.910012 2.746220 0.884897 -1.359924 1.763640 0.813332 3.198391 0.372290 0.395082 -1.071588 -0.314001 -0.327705 1.249175 -0.985463 -0.553411 -1.159215 2.115684 -0.008426 -1.721560 1.739319 0.630856 1.337479 -1.208575 0.904051 -0.688456 -1.014121 0.394456 1.033329 -1.716434 1.396869 -2.169405 0.605163 1.010104 -0.534641 -1.076314 -0.238357 -1.360781 -1.580577 -1.724437 -0.644686 0.876087 -1.598961 -0.043250 -2.974437 0.067979 0.844250 
情 0.638530 0.550584 1.875813 -0.046536 0.791355 -1.200659 0.092088 -2.014711 -0.075021 0.369867 -1.842821 1.118025 -0.744203 0.667008 -1.871039 -1.347634 -0.797687 -1.740744 -0.400268 0.824655 -0.648347 -0.649581 -1.184293 1.698147 0.648811 0.518808 -0.768794 -0.731520 1.342930 0.955524 -0.037941 0.868372 -0.847489 -1.138867 -0.133213 -1.758484 0.615567 -1.011458 -0.926589 1.728369 -1.051847 -0.725355 -0.926879 -0.084227 -2.148194 1.413207 -2.506657 -0.408500 -0.782913 -1.661056 
起 -0.231024 -1.332589 -0.131073 0.736687 -0.597443 -0.650036 -0.579105 0.115293 0.249803 -0.603939 -0.847916 0.208776 -0.248510 1.293251 0.097791 0.300145 0.151284 0.261032 -0.735325 -0.401687 -0.058913 0.887692 0.353790 -0.189852 0.112884 -0.082558 0.287385 -0.384329 -0.570600 -0.147385 -0.493786 -0.167372 -0.209567 -0.104489 0.657548 -0.041781 1.028162 0.815403 0.493901 0.742680 -0.354177 0.362682 -0.529948 0.255129 0.104446 0.764599 -0.243403 -0.250634 -0.029753 -0.923285 
产 -1.596697 2.011204 -0.210786 0.024187 1.219359 1.342977 0.690370 -1.712502 -0.202512 0.313721 1.756385 -1.576462 0.349680 -0.624846 -0.325995 2.055452 0.232712 -0.412160 -0.702832 1.976545 -0.239097 -2.056390 -1.265795 1.748664 0.071191 -0.955178 -0.070850 1.763806 -0.735878 -1.130179 -1.129080 0.072211 1.036637 1.043204 0.089295 0.366468 0.274417 1.443111 1.982678 -0.456210 -1.964436 -0.092614 0.720681 1.007975 -0.085412 -1.607366 -0.809529 -0.613926 2.129150 1.046255 
据 2.037635 1.770669 1.567337 -0.620157 -0.131252 -0.145807 0.622636 -1.780726 -2.014181 2.939076 -0.535471 0.207836 -1.739204 -1.448669 0.932385 1.229285 0.830842 -0.185525 0.743536 -0.796121 0.051995 0.846934 -0.805934 -1.610513 -0.238214 -2.427122 -2.560972 0.765269 -1.307863 -1.158800 -1.896270 1.607076 0.848686 1.338256 1.678791 -1.058351 -1.214894 -0.847392 0.876438 -0.299423 1.742487 -0.820084 -1.867563 -0.779526 -3.019710 0.117918 -0.727283 -1.244801 0.137914 1.538632 
间 1.000182 -0.375456 -0.837707 0.016212 -0.135902 0.376637 -1.132514 -1.096224 -0.197030 -0.306577 0.813170 -0.458834 -0.207442 0.827606 -1.706987 0.227259 -0.004590 0.087252 -0.121993 -0.668419 -0.357334 0.345110 2.018149 -0.695083 -0.300383 0.875304 0.260956 -0.621378 0.932822 -1.541755 0.531080 -0.023547 -0.883570 -0.957757 -0.271037 -0.277146 -0.098160 -1.029606 -0.429539 -1.132153 -0.817209 -0.814341 -0.377535 0.737624 -1.322950 0.257819 -0.851935 0.298624 -0.452847 0.048650 
电 -0.642982 -0.066952 -2.744681 0.147525 -1.765984 0.525230 1.745619 -2.180833 -0.942710 -1.437815 -0.484187 0.083980 -1.291369 -1.216913 -0.325125 -0.509758 0.945857 0.618835 -0.760341 -0.727419 0.168166 0.027804 -1.322334 -0.401043 -0.848493 -2.814643 0.608092 0.239264 0.915451 -3.032825 0.925757 0.347507 -0.059921 0.626279 0.125628 -1.018701 1.666058 -0.397680 0.748324 -0.291702 1.865807 1.342670 -1.104347 0.474852 1.383962 1.206858 0.693968 -0.236386 -1.091116 1.095932 
所 -0.150932 -0.022459 1.130672 -0.102344 -0.163500 -1.199386 -0.352221 -0.129166 0.125298 0.651595 -0.032100 0.024339 1.035354 -0.569127 -0.937460 0.174035 0.299740 0.087434 0.957394 -0.432078 -0.332761 0.378951 0.126600 0.697580 0.093900 0.146085 -0.922452 -0.240286 -0.895174 -0.483347 0.931310 -0.714233 0.260877 -0.304473 -0.354093 -0.233298 0.186831 -0.416750 -0.096386 0.042223 -1.355020 -0.576700 0.062369 -0.981077 0.542800 0.218995 -0.467953 -0.010565 0.393950 0.577469 
位 0.411263 -0.324441 0.538369 0.701105 -0.199354 -0.348808 -0.362929 1.079859 -1.675271 0.324096 0.765100 -0.645784 0.574430 -0.329527 0.493507 0.130285 -0.224755 -0.096488 -0.239714 -0.969148 -0.193954 0.020464 0.134416 0.920386 -0.158486 -0.105165 0.643015 0.573094 -1.070132 -0.640805 2.715456 -0.563718 -0.736542 -0.705403 -1.664549 -1.164255 -0.253239 -0.606266 0.598185 -0.413263 0.192711 -0.804479 -0.381061 0.315891 0.740782 -0.662889 0.062048 -0.450409 0.833120 1.279003 
海 0.375599 -1.057150 0.236152 0.246095 0.075555 0.599798 -0.383465 0.010975 -0.551419 1.223136 -0.427134 -1.310551 -0.071345 -0.172736 -0.832915 -1.056718 -0.716946 0.682421 0.850434 -1.735785 -0.851613 -1.701678 1.153444 -1.673054 -0.364274 -1.323100 -0.583767 1.867218 1.081106 -1.390019 -0.880558 0.736663 0.081300 0.187646 1.568601 1.557217 -0.678939 1.047069 -0.222766 -0.057924 -0.480374 -1.089792 0.631245 -0.256038 0.380841 -1.208512 0.749928 -1.824540 -0.117544 0.799098 
内 0.568238 1.082993 -0.541231 -0.352729 0.477249 0.144808 -1.174080 -0.467484 -0.935840 0.364759 0.229601 0.200455 0.374329 -0.004402 -0.025083 -0.524731 0.642932 0.590816 0.631663 -1.206660 -0.478457 -0.577302 -0.233143 0.162534 0.402833 -0.053683 1.861830 -0.292001 -0.108409 -1.115054 0.405810 0.408764 1.192649 -0.180674 -0.009563 -1.113170 -0.759522 0.597797 -0.040324 -0.882927 -0.537254 0.442272 0.533142 -0.457380 0.045000 -0.413320 -1.088201 -0.579654 0.669966 1.242940 
此 0.181878 -0.380168 0.584208 -0.050730 -0.587306 -1.583788 0.046141 -0.833116 -1.088686 0.904624 -1.302275 -0.127537 -0.412260 0.260198 -0.003803 -0.129565 0.192682 -1.259672 0.148929 -0.695938 -0.527192 0.012390 -0.162277 -0.439838 0.016492 0.391560 -0.300718 -0.679799 -0.403385 -0.023997 -0.533350 -0.009196 0.486252 0.654094 -0.885437 0.197635 -0.683781 -0.784352 -0.100152 0.753487 -0.765120 0.052218 -0.566232 0.074820 -0.745506 0.168795 -0.751317 0.610320 0.287499 -0.265853 
着 0.828358 -0.206310 0.491444 1.435387 0.578221 -0.632974 -1.316419 -0.385496 1.242446 -2.195909 -0.499938 -0.308215 0.500707 0.587891 -0.060469 -0.648505 0.521315 1.338954 -1.023333 0.338068 -0.183056 0.558112 -0.059862 -0.706573 0.559326 0.469637 0.114604 0.242639 -0.321099 -0.157974 0.102631 0.095797 -1.305309 -1.167530 0.027813 -1.127804 0.430291 1.104052 -0.661355 0.554953 -0.579779 1.337013 0.446929 0.013829 0.509679 1.371465 1.716957 -0.938043 -0.751094 0.257419 
从 0.211658 -0.419969 -0.543547 0.381826 0.324381 -0.825895 0.083103 -0.478890 -0.258929 0.136772 -0.110330 0.207921 0.259613 0.053694 -0.340306 0.584417 -0.082143 0.354354 -0.379613 -0.065274 0.026597 0.169354 1.016672 -1.010411 -0.833722 -0.407554 -0.263337 0.024081 -0.539916 -0.366692 -0.465095 0.560081 -0.444188 -0.102660 0.147161 0.400272 -0.262429 0.321587 0.024443 0.147488 0.293907 -0.642036 -0.751772 0.257038 -0.118996 0.401423 -0.017600 -0.843255 0.274289 0.475018 
但 0.193131 -0.705277 0.223146 0.150579 0.781824 -2.100429 0.848087 -1.737419 0.226956 0.130280 -0.113024 -0.539338 0.422667 -0.047478 0.135063 0.443318 0.685845 -0.401127 -0.121713 0.033228 -0.591382 0.579830 -0.875377 -0.152091 -0.623195 1.659052 -0.395354 -0.712489 -0.962511 -0.033701 -0.625944 0.106387 -0.799380 -0.712786 -0.657527 -0.256670 -0.562276 0.120668 -0.271141 -0.342875 -0.893845 0.143568 -0.628173 -0.011402 -0.582915 0.536433 -0.147289 1.416147 -0.525177 0.235253 
已 0.692348 0.097907 0.260297 -0.436657 0.662079 -0.430004 0.060966 -0.504119 -1.041598 0.711062 -0.098676 0.700323 -0.939699 1.038417 -0.263385 0.355175 0.617207 -0.114220 -0.395429 -0.116583 -0.533499 0.750980 1.215101 0.100199 -0.208418 1.054123 0.062461 -0.641441 -0.741992 -0.274638 -1.153212 0.343540 -0.073853 0.589272 0.034481 0.722068 -0.668051 0.603814 1.328960 0.404801 -0.343640 -0.614885 -0.358480 1.816695 -0.963507 -0.076841 -0.383676 -0.370692 0.274513 0.340242 
展 0.112379 1.634601 -0.859657 -1.597263 0.728975 2.107747 -0.408736 -0.121625 1.076310 0.315732 -0.192424 -2.653294 1.574642 1.934590 -0.459155 -0.140266 -0.176764 -0.160273 -0.623007 2.636609 -0.947317 -2.447672 1.121079 0.276547 1.080387 -1.596151 0.516061 0.327267 -1.308877 0.415521 -1.385048 1.616463 1.862373 1.783627 0.275492 -0.850588 1.688658 1.013095 -0.164723 1.091564 -1.584558 -0.395780 -0.437430 0.430777 0.143268 0.346016 -0.019826 -2.845696 1.388903 -1.623407 
示 1.797783 0.590195 0.428835 -0.191427 0.601571 -1.087441 1.441752 0.193283 -0.096197 2.158085 -0.866846 1.052011 0.545879 -0.655867 1.143463 0.022506 0.951921 -1.060408 0.115509 -1.338806 -0.668629 -0.205402 -0.520798 -2.043410 0.182749 -0.381667 -0.229325 1.316445 -1.072993 -0.335731 -1.692365 -1.848146 -1.155973 2.333538 -0.855634 -2.076835 0.368166 -0.291268 -0.954879 0.606960 0.247860 0.196617 -1.521020 -0.161415 -0.759835 0.739939 -1.403416 -0.157616 0.451956 0.234544 
省 0.536725 0.802918 0.145646 -1.323080 1.090639 0.763125 1.845269 1.378711 -0.907563 1.632434 1.135739 -0.420782 2.463761 0.658588 1.284811 -0.496553 -2.934568 1.646275 -1.276237 -1.316206 0.709842 -0.752687 1.348287 -0.338682 -0.746970 -0.991990 -0.613005 1.648229 0.950870 0.509774 -0.214454 0.516812 1.367136 1.195559 0.159344 1.510043 0.989437 1.418414 0.326903 -0.308943 2.465531 -1.439096 -1.176841 0.020703 -0.013257 -0.918818 -2.502636 -2.194267 1.898135 2.335520 
入 0.577923 0.128077 -0.571258 0.082098 1.422275 1.913844 -0.358342 -0.635069 0.372371 0.756799 0.325973 -0.378386 0.019041 -0.454714 -0.830133 1.215511 -0.110314 1.710057 0.081066 0.534713 -1.088409 0.582508 0.430128 0.012973 1.335335 0.627207 -0.075632 1.118433 0.584191 -1.001283 0.697601 0.817624 1.061927 0.571423 -0.450268 -0.044926 -0.953683 -0.154960 0.392483 -0.004353 -1.164528 -1.040126 0.457547 1.080747 1.080706 0.133691 -0.451610 -0.633442 1.372687 -0.993156 
美 -0.207589 -1.380088 0.945574 -0.865228 -1.077999 0.080999 -0.696123 -0.651640 -1.341861 0.165992 0.646366 -0.448465 0.140772 -0.230885 -0.756937 0.150403 1.200990 0.229043 1.193028 -0.442471 0.187626 -1.407483 -1.414014 -1.116621 0.843403 0.187239 0.633224 0.619749 -0.118185 1.114529 -1.134265 1.172206 0.708439 1.094468 0.388517 -0.284463 -1.212446 -0.429075 0.470610 -0.047468 0.119024 0.482183 0.037346 -0.653965 -0.164121 -1.154551 1.298861 0.356940 0.500138 -0.830532 
路 -0.267865 1.444582 -0.445056 -0.512117 1.476076 1.042085 0.388211 0.317083 -1.847878 0.427257 -0.524744 -1.048335 0.217354 1.469156 0.269481 -0.559941 -1.366052 0.802212 0.600121 -1.304023 0.223242 0.923389 2.202941 0.983531 -2.525196 -0.888569 0.136248 -0.162844 0.788120 -2.341739 -0.077824 0.931018 0.787286 -0.754131 2.281339 -0.246929 0.127867 0.161015 -1.577821 -0.558465 -1.327403 -1.907672 0.137791 0.522923 1.457799 2.495529 1.297096 -0.436489 -1.118896 0.920564 
性 0.046383 1.167609 0.277901 0.402779 -0.158894 -0.331232 -0.449332 -0.077814 0.692263 0.809565 0.548908 -1.883475 0.522323 -0.129133 -0.807445 1.083746 0.071326 -0.734247 0.067379 1.806398 -0.097318 -1.069552 -1.467913 1.460114 1.525293 2.547986 0.644396 0.177233 0.175715 -0.306680 0.044274 1.373325 -0.245806 -0.661359 -0.195181 -0.337638 1.434881 0.087005 -0.210422 0.768558 -0.187632 0.044413 -0.092193 -1.379690 -0.380330 -0.643521 -0.215285 2.071477 0.906815 -0.485383 
去 -0.238207 -1.602566 0.549460 -0.015169 0.436950 -0.683569 -0.421347 -0.775734 0.075881 -1.110419 0.233581 0.023000 0.427525 0.821738 -0.288651 -0.154580 0.529453 0.886633 -1.299543 -0.264891 0.363775 1.162297 0.930457 -1.105850 -0.264703 -0.326414 -0.594967 -0.730027 -0.315974 0.559201 -0.473041 -0.364667 -1.254216 -0.754084 -0.062618 0.501963 -0.804892 0.277578 0.467496 0.711651 0.581572 -0.973138 -1.277893 1.489116 -0.132009 0.842605 0.375746 -0.202344 -0.115208 -0.220990 
两 1.126232 -0.889683 0.782287 -0.175107 -0.304315 -0.961927 -1.133982 0.054526 -1.130531 -1.248426 0.181869 -0.420111 -0.733174 0.401096 -0.929120 0.082686 -0.258940 0.229373 -0.238369 -0.056744 -0.458546 0.679098 0.483629 0.251802 -0.313025 0.329274 0.080844 -0.304347 -0.418010 -0.574264 0.510910 0.390866 -0.631651 -0.132052 -0.036924 -0.054103 -0.061023 0.480562 0.001560 -0.111259 0.668367 -0.201965 0.208653 0.558011 0.139013 -0.158330 0.081598 0.209030 0.507227 -0.252374 
没 0.134682 -1.135862 1.150325 0.622050 0.344775 -1.672396 0.611080 -2.087636 0.827119 -0.624624 0.219310 -0.020578 0.202475 -0.384970 0.106378 -0.060453 1.306652 -0.459302 0.146552 0.232576 -0.080929 1.221145 -0.170681 -0.165199 -1.091116 0.968299 -0.738334 -0.900022 -1.771033 0.268699 -0.554763 -0.416597 -0.671089 -1.240205 -1.398981 0.534965 -0.146617 -0.150689 -0.284872 -0.371766 -0.324008 0.466401 -0.980066 0.402146 0.348434 2.005046 0.082831 0.685612 -0.693329 0.287811 
并 0.436508 0.382377 -0.137068 0.536020 -0.380782 -0.630246 0.514468 -0.846982 -0.191246 0.267015 -1.076194 0.237399 0.166286 0.168381 0.065133 -0.029261 0.956816 -0.671463 -0.298494 0.254366 -0.009067 0.935623 -0.312973 0.366833 -0.221868 0.976195 -0.741855 -0.457987 -0.758363 0.028766 0.356527 -0.020637 0.556253 0.420583 -0.828842 -0.233496 0.051821 -0.441790 -0.400181 0.045562 -1.083488 0.488718 0.376054 0.100235 -0.139269 -0.399268 -0.938727 -0.247224 -0.253687 0.269365 
明 1.894690 1.092609 0.948423 -0.066773 0.744141 -0.964348 1.328298 -0.267331 0.360790 0.658238 0.298874 0.709457 -0.012446 -1.136503 1.482307 0.129877 -0.667392 -1.238492 0.385009 -0.119699 -0.375025 -0.729969 -0.959547 -0.218494 -0.895338 1.074330 -0.314440 0.678811 -0.770887 0.422184 -1.500165 0.289398 -1.086249 0.704653 0.152934 -0.745211 -0.079656 -0.944454 -0.455277 0.570906 0.321731 0.336571 -1.371192 -0.519874 -1.246129 0.123374 -0.146038 -0.873534 -1.041661 0.874874 
里 -0.279351 -0.747061 0.232771 -0.650694 0.672328 -0.867741 -0.926988 -0.313681 0.165186 -1.659199 0.800505 0.416224 0.327525 0.095270 -0.366993 -0.202546 0.801310 1.755298 -0.200061 -1.584622 -0.052770 1.365902 0.583809 0.413879 -0.987402 -0.659252 0.348182 0.443942 -0.840555 -0.423713 -0.310441 -0.386897 -0.710368 -1.604227 -0.196630 -0.559239 -0.718875 0.545898 0.499495 0.228089 0.203428 0.119087 0.492180 -0.610483 0.138878 1.415291 0.930488 -0.229783 -0.068692 -0.583225 
三 0.948160 -0.241109 0.007708 -1.323517 0.562539 -0.061626 -0.858983 1.595567 -1.579324 -1.604039 0.401916 -1.137230 -0.472360 0.009188 0.273323 0.107248 -1.404498 0.860648 -0.364147 -0.852841 0.289434 -1.082617 0.689530 0.539795 -0.607757 0.308095 0.278364 -0.109020 0.004329 0.081795 0.817599 0.854348 0.058613 0.421120 0.207220 0.164380 -0.404884 -0.339810 -0.187191 -0.311039 1.238421 -0.962758 0.054756 1.227879 -0.345799 -0.869861 -0.450238 -0.522933 0.025486 -0.220815 
. 0.744689 -1.382607 -0.967388 0.986160 1.016039 3.554918 -0.045781 1.391663 -3.204458 1.560768 4.694417 1.184752 0.140228 -0.023981 0.446551 1.023469 -0.049730 -0.027115 0.987325 2.044932 -0.538148 2.274318 -0.873762 0.006259 -1.548776 0.075311 -0.012323 1.709194 2.593865 -0.648318 -1.052824 1.168129 -0.015958 0.329974 -0.031747 -0.809010 0.578359 1.923414 1.715151 -2.544698 -0.145140 -1.798227 0.440011 0.492600 0.469610 -0.884236 -0.731148 1.486172 2.231285 -2.491614 
万 -0.323484 -1.016099 -1.078998 -1.581396 -0.620941 2.683895 -0.585692 -0.554478 -3.112659 -0.729523 2.436684 2.005205 0.119795 -0.497784 1.877795 1.781092 0.186160 0.244254 0.416199 0.478452 -0.726420 3.183066 0.348069 0.263251 -0.903838 -0.808023 -0.715488 1.042687 1.486809 0.456116 0.222423 0.091760 -0.565424 0.264309 -0.609359 -0.440701 -1.276237 1.937773 2.688418 -2.338877 0.024142 -0.960487 0.836542 1.076966 1.315154 -1.410043 -0.235139 1.912205 0.847512 -2.319041 
委 2.036724 0.059458 0.555521 -1.473056 -1.218599 0.365332 1.828922 3.027774 1.612080 0.702843 0.110621 -0.538526 4.572171 0.142187 2.622172 -2.383692 -3.344470 2.086242 -0.796253 -2.198854 0.740311 0.684475 0.352710 -0.642054 -0.920419 -1.652017 -0.100542 0.924139 0.936234 1.741068 0.008774 -0.651203 3.180769 1.407130 -1.336636 1.182556 1.764149 -0.215503 0.073257 1.293242 2.798544 -1.695830 -1.692174 0.878545 -1.056167 0.714896 -3.091186 -2.743027 0.474964 3.279829 
正 0.525359 0.969692 0.286850 -0.020428 -0.835469 -0.052086 0.985541 0.263616 0.998814 0.349871 -0.325547 -0.926111 1.279181 0.284022 -0.242532 -0.518627 0.515855 -1.061022 -0.834731 0.303251 -0.301875 0.162828 0.972604 0.289446 -0.302807 0.538037 0.148028 -0.073872 -1.168287 0.348715 -0.347572 0.067190 0.304062 -0.414718 -0.149537 0.383488 0.416196 -1.383530 -0.374690 0.237617 0.135038 0.148968 -0.337479 0.277149 -0.543249 0.242220 -0.066487 -0.553314 -0.859028 -0.353410 
金 0.120445 1.118250 0.236803 -0.572059 0.125412 2.224451 1.620411 -1.175838 -0.867228 -1.299157 0.742559 0.885107 0.395103 -0.814759 1.234865 2.698130 -0.835821 0.093492 0.859047 -0.183794 -0.285358 -0.502079 -0.569714 -0.883164 0.546491 0.059604 -0.505846 1.366630 -0.032449 0.732305 -0.102124 -0.021553 -0.869314 1.567693 -2.146415 0.753236 -0.834356 0.738862 2.478568 -0.956787 -1.265494 -0.217119 2.451657 0.282832 1.076100 -0.542274 0.030590 -1.567953 0.650053 -0.563885 
平 1.200116 0.674087 -1.190543 -1.118814 -0.132228 1.109865 -1.077410 0.554336 1.136637 0.505319 2.347324 -1.737766 0.949617 -0.256981 0.334491 0.367058 -0.976559 -0.200087 0.764858 -0.341798 -0.313152 1.510543 -0.280186 -1.121746 -0.570486 0.298334 0.586858 0.978123 -0.472138 -1.706213 -0.275431 0.803199 0.227957 1.069272 -1.311377 -1.723870 0.889513 0.034879 0.000208 0.336660 -0.443726 -1.333148 -0.397360 -0.121716 -0.034074 -0.003564 0.652826 0.374660 0.364124 -0.164518 
设 0.857075 3.541515 -0.468816 -1.087351 1.295213 3.954999 -0.694915 0.548777 -0.211275 0.762794 1.645652 -0.904797 0.988370 1.451661 0.843394 -0.485255 -1.442443 -0.231816 -1.617076 -0.220690 -0.069201 -1.904276 1.025218 3.037132 0.135288 -1.349521 0.865577 0.849035 -2.609271 -1.597599 -0.203004 0.476761 2.124204 0.023324 -1.242111 -0.830168 0.295833 -0.138572 0.336482 -1.236157 -1.090590 1.083349 -0.323654 -0.520041 1.172442 -0.892772 0.608231 -1.675111 0.077017 0.006216 
相 0.868680 -0.758616 0.728030 0.693196 -0.690308 -0.426058 0.363320 -0.708437 -0.995329 0.869640 -0.946803 -0.500100 0.193912 1.064949 -0.683786 -0.560304 0.417328 -1.913619 -1.037225 -0.408542 0.003029 0.264351 -1.276638 0.477207 0.417959 0.759054 -0.087659 0.584971 -0.493150 -0.500366 0.424398 0.966475 0.482247 1.360118 -1.315016 -1.698259 0.426424 -0.197539 -1.294885 -0.403436 0.248471 0.058383 0.233194 -0.363085 0.162059 -0.207755 -0.853722 0.898356 -0.296153 0.426653 
因 -0.304396 0.107180 0.525427 0.379115 -0.244023 -1.245108 0.125610 -1.121450 0.086326 0.697728 -0.168005 -0.009699 -0.012304 -0.515317 -0.593974 0.299428 0.303327 -0.407297 0.490443 -0.512348 -0.887872 -0.160387 -1.470574 0.964731 -0.702510 0.962596 0.834749 -1.776771 -0.021117 -0.331397 -0.420616 0.653148 -0.049607 -0.935821 -1.020272 0.991314 0.008074 0.054724 0.150064 0.099796 -0.798665 -0.554905 -0.374742 -0.077011 -0.901210 0.070813 -0.186967 1.754772 0.251150 -0.028482 
资 -0.375672 -0.330682 -0.008121 -0.394098 0.034617 4.410970 0.404424 -1.463992 -0.161908 1.085326 1.436271 -1.043298 -0.734258 -1.710893 1.112077 2.940774 -0.374495 -0.796957 -0.128027 1.184888 -0.738703 -0.458136 -1.378646 -0.059385 -0.196560 -1.678262 -1.347006 2.552171 -0.546239 -0.283356 0.950177 1.876464 0.955229 2.388154 -2.041790 0.747619 0.458315 0.267583 1.841891 -1.957318 -3.430937 -0.073707 0.057531 -0.299574 1.617416 -0.201461 -0.943873 -1.378730 1.521844 -0.203053 
门 -0.152567 0.105481 -0.175969 -1.191152 0.231455 -0.600476 -0.753270 -0.437229 -0.830802 -1.095372 -0.402623 -0.018156 1.275480 2.138493 0.503013 -1.260190 -0.098417 -0.210322 -0.894595 -1.574163 -0.383653 -0.061178 0.082543 0.390984 -0.285124 -0.662741 -0.897419 1.361532 -0.486195 -1.922212 1.099918 -0.712018 1.542445 0.411295 0.481283 0.263543 -0.255534 -0.167131 -0.375548 -1.275900 -0.036384 0.029756 -0.410124 0.075396 0.967644 0.333994 -1.097399 -1.935755 0.827441 2.477824 
老 -0.979545 0.698270 2.202893 -1.280934 0.131389 -0.428266 -0.975065 1.267137 1.624843 -1.402318 0.530397 0.149899 -0.267708 -1.331655 -0.171985 0.655720 0.129598 0.584784 -1.116425 -0.321223 -0.803184 1.514256 0.166634 0.161463 0.080457 0.118210 -0.494713 -0.701689 -1.052162 0.612978 0.079278 -0.705605 -2.907380 -1.173111 -1.546943 -0.692097 -0.117693 0.582458 2.067957 1.629834 0.203904 -0.866387 -0.749247 -0.144176 2.432153 0.403508 0.475944 0.217743 -0.628810 0.245041 
院 0.179279 0.469563 -0.087385 -2.475718 -0.107741 0.268807 -0.535364 2.008435 0.155357 0.179956 -0.919051 1.137337 1.058248 1.111548 -0.508528 1.242999 -0.324709 0.796397 1.766455 0.439587 1.163946 1.424360 -0.065910 -0.851012 1.063743 -1.300413 -1.839965 -0.594206 -1.628474 -1.065596 0.038969 -0.867200 0.351306 0.365721 -1.762370 1.789934 0.833508 -0.219161 1.724458 3.054787 1.359279 -3.506798 -1.572647 -1.362530 0.112194 -0.942610 -1.801686 -1.349771 -0.048661 2.743488 
如 -0.092520 -0.173589 -0.309863 -0.283155 0.642785 -1.444162 -1.265707 -2.052389 0.641283 -0.047341 -0.068187 0.252119 0.139432 -1.271285 -0.681638 -0.838169 -0.624043 0.161516 0.652776 -0.125263 0.143002 -0.932777 -0.444850 -0.418273 -1.609518 1.744019 -0.065667 -0.905368 -1.475582 0.892980 -0.957285 0.551808 0.863788 -0.130236 -1.481667 1.351007 1.297304 -0.672105 -1.192309 -0.749033 -0.480948 0.447444 -0.250608 0.211232 0.190297 0.977722 -0.452469 1.848839 -0.347372 -0.609994 
文 1.102459 2.480705 -0.156536 -1.799200 -0.122010 0.934004 0.067710 0.578949 0.073726 1.222846 0.276325 -0.205256 0.086740 -1.825053 -0.138158 -0.035728 -0.882084 -0.148129 1.716665 0.702409 -0.161595 -1.026584 -0.511148 -0.663954 -0.426468 -1.749177 0.941683 0.615143 -1.426252 2.299119 0.270678 0.035377 0.994151 0.340258 0.782679 -1.101049 -0.942928 -0.302385 -1.034585 2.241365 0.136919 1.431798 -0.996281 -0.963857 0.731625 -1.134640 -0.539772 -0.632599 -0.667783 0.831191 
题 0.350852 2.623493 1.024348 0.360855 -0.012366 0.578946 0.641959 -1.163437 -0.815889 -1.789647 1.796819 -0.046479 0.244930 -0.612910 1.447176 -2.603505 -0.767513 -0.254715 -0.844651 -0.628299 -0.737084 -1.245764 -1.983583 -0.238965 1.369015 1.145872 0.559216 -0.278302 -2.335696 -0.250683 0.718980 0.753406 1.418120 0.284564 -0.432910 1.066833 -0.160886 0.298751 -1.785999 1.641642 -1.030424 -1.717358 -2.679039 -0.268909 -0.786150 0.909921 -0.667924 2.707621 1.121469 -1.170611 
北 -0.090931 0.563140 0.065371 -0.559755 1.163908 -0.576086 0.993913 0.153964 -0.524967 1.025902 -0.348825 -1.311979 1.103069 -0.051817 -0.544862 -0.124549 -2.796190 2.792869 1.017120 -3.386883 -0.247390 -0.310002 2.169939 -2.168623 -0.518141 -2.314418 0.745858 0.594479 -0.100870 -2.055326 -1.803656 0.673316 -0.534912 1.014582 0.291157 0.863100 1.254391 0.012657 1.403386 -1.099751 0.854532 -1.189480 -0.271098 -1.315769 0.261561 -0.813847 -0.211195 -1.015439 -0.504652 1.664075 
手 1.233227 -1.087851 -2.183549 0.480528 -0.193422 0.081246 0.538956 -0.566181 0.327400 -3.130217 -1.190966 0.002631 -1.342378 -0.205621 -0.846427 0.564474 0.852683 -0.357630 0.158880 1.698967 -0.143434 -0.379058 -0.787184 0.099142 0.137488 1.495052 -1.643621 -0.111345 -0.325207 -0.215783 1.669027 -1.428118 -0.843284 0.201117 -0.600356 0.554865 1.038988 -0.489012 -1.392533 -0.663492 0.814871 0.615960 0.371979 0.360492 1.002489 0.172899 1.270185 -0.728135 0.516124 0.631956 
看 0.349931 -1.630508 0.951017 0.039986 1.158947 -1.791816 0.333959 -1.417495 0.581867 -1.248991 -0.161201 0.877010 0.481237 -0.027739 -0.235901 -1.118510 1.551919 -0.321748 -0.208001 -0.208925 -0.626594 0.385186 -0.194432 -0.693158 -0.761646 0.053122 0.711255 0.431783 -1.499340 0.054946 0.342808 0.204082 -1.297154 -0.944340 -0.372272 -0.422504 0.469304 -0.087605 -0.058085 0.751177 0.413619 -0.057371 -0.913672 -0.358968 0.369121 1.772683 0.252837 -0.247750 -1.119156 -0.348186 
水 -1.787249 -0.313096 -1.128557 -0.005074 2.357473 2.258611 -1.208361 -0.907593 1.820522 -0.125550 1.195635 -1.004296 -0.833430 -0.593920 0.656404 0.830072 -1.803358 -0.024338 0.309150 -0.452757 -2.648432 0.211298 0.097997 0.461460 -0.519002 0.402409 0.966611 -0.554759 -0.325811 -1.682257 0.296951 1.520631 1.228646 -0.995682 -0.415094 0.576359 -0.192591 0.369911 0.000408 -1.016836 -0.251314 -0.496442 1.065870 -0.713906 -0.056474 0.510851 0.797353 -0.665970 0.274354 0.216427 
意 -0.307062 0.418933 2.758689 1.372092 0.174746 -0.410444 -0.401166 -0.549268 -0.378681 1.397065 -0.817467 -0.799840 1.842542 -1.048023 1.349764 -0.563111 0.525235 -0.565024 -0.451469 0.698733 1.783002 1.572158 0.897448 1.025021 0.336452 0.484659 1.226135 0.094093 -1.386831 0.848045 0.647545 0.907665 0.413510 0.067728 -0.442919 -0.214683 1.476276 -0.424847 -1.836225 0.697789 -1.524764 2.348521 0.222177 0.001735 -0.739461 0.752378 0.243133 0.727092 -0.424044 -1.326220 
品 -2.170804 1.842361 -0.174861 0.346234 0.522913 0.974710 0.908038 -2.772085 0.522939 -0.806742 1.168867 -0.105880 -0.022094 -3.173828 -0.226375 2.068021 1.793717 -0.602485 -0.629937 0.443342 0.927513 -2.013576 -2.012458 2.146828 -1.387634 0.281498 -0.426078 1.734004 0.317086 -0.248072 0.276564 -1.354571 1.959477 0.808122 0.480920 -1.608143 0.991978 0.667844 0.751784 0.721565 0.001662 -1.902321 0.801426 0.332901 -0.550160 -2.104930 -1.539258 -0.875012 0.845534 -0.389123 
交 0.322169 1.508723 0.810948 -0.543714 -0.073065 0.150819 0.324511 0.017811 -2.106721 1.362148 -0.882509 -2.270678 -0.619564 1.232062 0.119761 0.606875 0.120333 -1.029091 -0.099414 -0.960169 0.959918 1.545040 0.902740 -0.431354 -0.692405 -0.014587 -0.705750 0.961597 1.012796 -2.064876 0.171430 0.165649 1.221890 0.052226 0.756551 -0.475590 1.173215 -0.857871 -0.293495 -0.582702 -0.656332 -0.879483 1.068061 1.053544 1.981035 0.952656 -1.162089 -0.487401 -0.365926 1.289794 
期 0.743418 0.481154 -0.986240 0.215850 -0.067207 0.430549 -0.290442 -1.430398 -0.607080 1.137430 0.750003 -0.886964 0.836538 1.005340 -0.742565 0.834670 -0.702148 -0.541745 -1.011793 -0.615196 -0.484779 -0.492287 1.574099 -0.768893 -0.077347 1.101995 0.559804 -1.154977 0.529639 -0.170651 0.135547 0.728671 -0.823464 0.536525 -0.058231 -0.336866 -0.541644 -1.560657 0.857803 -1.457829 -0.060187 -1.350867 -0.183301 1.366639 -0.982534 -1.256828 -0.727677 1.354459 -0.632272 -0.137009 
第 1.888037 -1.523171 -0.160555 -0.363398 0.188035 -0.848580 0.484404 2.723369 -1.747012 -1.074893 0.070606 -0.553586 -1.069777 0.278578 0.465653 1.151635 -1.496313 1.332039 -0.823488 -1.707972 0.704728 -1.423476 1.522889 0.635821 0.039645 0.344762 -0.032615 -0.612419 -0.149050 0.533368 1.342781 0.713680 -0.197575 0.733327 -0.424911 -0.136688 0.024853 -1.055232 0.388719 0.141688 2.648249 -0.986130 -1.014728 1.940815 -0.904233 -2.345593 -0.338771 -0.810142 0.256844 -1.302360 
城 -0.983982 0.748704 -0.907258 -2.034698 2.780595 0.672596 -2.390548 1.182701 -0.740704 0.981174 1.222117 -1.083119 0.610327 -0.098219 -0.747428 -0.661040 -2.857759 0.790500 -1.575951 -2.191776 1.285640 -0.545565 0.852533 0.599703 -0.233871 -1.515858 0.866381 0.998622 -0.938565 -1.157740 -1.235675 0.906177 1.402502 0.688326 0.293094 -0.829607 0.318316 1.575532 0.643428 0.191608 -0.951088 -1.199226 -0.437988 -0.847684 1.499019 0.235951 -0.545968 -1.644972 0.390763 0.024848 
问 -1.466250 1.754989 0.740753 2.386165 -0.185602 -1.661165 0.669605 0.549708 -0.849266 -1.482857 0.005905 -0.798089 1.555259 1.324660 0.654236 -3.177325 0.091887 -1.448132 -0.234036 1.006632 0.133844 0.255735 -0.565102 -0.502852 -0.373942 1.159672 -0.310890 1.114253 -0.562210 -0.465493 1.832711 0.871867 0.934411 -0.656098 -1.784890 1.862227 -0.372426 -0.867662 0.362929 2.114820 -1.920222 -1.133684 -2.207606 -0.505839 -0.094521 0.698944 -1.246485 1.202802 0.868214 -1.302127 
然 -0.630257 -2.440945 -0.687459 -0.344077 1.261856 -1.731015 2.389911 -1.612624 0.540812 -0.000414 -1.412783 -1.404143 -0.997661 -0.488842 0.996162 1.427637 0.437040 -1.698963 -0.528135 0.101657 0.025429 0.986258 -0.521467 0.136170 -0.219871 1.050359 -0.974758 1.492546 -2.331449 -1.293826 -2.468367 1.084362 -1.547409 -0.851007 -0.341857 -0.852529 -1.361176 1.278335 0.806654 -0.559621 -0.623316 0.322794 -0.501545 0.178825 -2.168414 1.368710 2.011783 1.879363 -1.480373 1.589697 
调 1.526618 0.025121 -0.599552 0.130994 0.257946 0.427398 -0.195928 -0.243453 1.810758 1.463591 -0.965454 -0.543355 0.301684 1.152965 0.891743 -1.170875 -0.327321 -2.082202 -1.920905 0.515340 -1.401007 0.623691 -0.373873 -0.847458 -0.811176 1.082597 -1.370330 0.993975 -0.902928 -2.137635 -0.431359 0.556232 2.842388 1.894272 -0.618968 0.297449 -0.009895 -0.356365 0.934385 -0.203378 0.770531 -0.261518 -1.361507 -0.251239 -0.112837 -0.010931 -1.860312 -0.821117 1.601852 -0.630377 
管 0.090204 1.599820 0.052901 -0.257834 1.427856 2.251560 1.894943 -0.606200 0.677281 2.252373 1.152235 -1.084094 0.706552 0.776264 1.388063 -0.236841 -0.577881 -1.004824 -1.575666 -0.392646 0.289347 0.117050 -0.904981 2.027430 -0.127330 0.259921 -1.219364 0.606042 -1.390895 -1.766857 0.183639 -0.263662 1.836186 0.381529 -0.356693 0.161476 -0.067183 -0.436542 0.673314 -0.431439 -0.298039 -0.229688 0.926297 -0.382420 -0.128084 0.664773 -2.117837 -1.564055 0.002887 3.652012 
很 -0.942104 -1.064472 0.763202 -0.147022 1.202493 -2.234999 0.005609 -1.893312 1.172668 0.424123 0.044535 -0.740283 0.741725 0.647353 0.133901 -0.246472 0.832289 0.063885 -0.158278 0.185094 -0.689914 -0.018434 -0.699799 -0.184789 -0.227921 1.220663 0.369046 -0.059328 -0.630595 0.747361 0.085389 0.626564 -0.588508 -1.192282 -0.413070 -1.443122 0.904229 -0.133608 -0.243881 0.713158 -0.393896 1.194501 -0.452817 -0.149861 0.715963 1.559004 0.179785 1.908627 -0.257583 -0.882722 
身 1.141594 -0.452464 0.211981 1.134552 0.600709 -1.372425 -1.104792 -1.283067 0.411761 -0.284990 -0.342992 -0.663257 -0.223980 -1.125417 -0.186887 0.184070 1.411695 0.002707 0.314981 1.166454 0.559556 0.826147 -2.219106 0.998345 0.650928 1.439366 1.075956 -0.206283 0.551518 -0.510969 0.570474 0.168043 -1.396042 -0.005196 0.600208 -0.354840 -0.342157 -0.109595 -0.443907 0.635709 -0.057425 1.717980 -0.219336 0.156915 -0.346516 0.439711 1.025066 -0.394977 1.056867 1.591510 
任 0.904429 0.540245 0.664282 0.230123 -2.140965 -0.462939 1.319103 1.709697 0.821483 1.161521 2.131795 0.313349 3.512899 0.823942 1.027030 -1.628291 -0.743100 -0.801856 0.339273 -0.787260 0.566234 -1.889494 -0.524271 1.453375 -1.038450 0.324737 -1.254095 -0.836938 -0.276337 1.238146 -0.265607 -0.420881 0.348514 1.119599 -2.786027 1.717528 0.760658 0.002241 0.834208 -0.403280 0.165447 -0.649105 0.162173 1.584430 -0.070660 0.465514 -1.018254 0.062547 -0.481756 2.883506 
