5691 50
</s> 0.008005 0.008839 -0.007661 -0.006556 0.002733 0.006042 0.001882 0.000423 -0.007207 0.004437 -0.008713 0.002499 -0.001503 -0.001914 -0.006631 -0.003764 0.005159 0.006051 0.005938 0.003195 0.003090 -0.007605 -0.008192 0.009939 0.007603 0.006180 -0.001208 0.008031 -0.000990 0.001469 -0.000298 -0.005966 0.002625 -0.002675 -0.007651 0.009508 0.008759 -0.002190 -0.000452 0.001018 -0.007275 -0.008014 0.009109 0.000126 -0.005165 -0.006084 -0.006153 0.003394 0.000403 0.002662 
， 0.039321 -0.178895 0.235964 -0.546267 -0.074514 0.048346 0.125315 -0.117749 -0.112364 -0.012045 0.082201 -0.293233 0.137334 -0.440708 -0.108340 0.159446 0.382936 0.253442 0.018241 0.108445 -0.190089 -0.139953 0.174079 0.009830 -0.263400 -0.367265 0.125559 0.104706 -0.095715 -0.145007 -0.019746 0.341654 0.226953 -0.104931 -0.486675 0.619215 -0.008204 0.109831 -0.053169 -0.376976 -0.019309 0.357107 0.419315 -0.059456 0.100611 0.068451 -0.127245 0.060899 -0.223851 0.037298 
的 -0.151040 0.339493 0.244440 -0.570238 -0.386994 0.203622 0.298315 -0.042934 -0.126872 0.068324 -0.199139 0.326940 0.602022 -0.093521 -0.083811 0.089584 0.587190 -0.408729 -0.049099 -0.010213 0.190432 -0.167224 0.217280 -0.481899 -0.111873 0.145394 -0.356182 0.167788 -0.026402 -0.286956 -0.227974 0.846848 -0.165478 0.233913 -0.225728 -0.002389 -0.120396 0.072446 -0.425648 -0.540640 0.098771 0.117909 -0.179072 0.083860 -0.335479 0.406258 0.246539 -0.065395 -0.019714 0.090855 
。 -0.153345 0.466068 0.349341 -0.310269 -0.298147 0.380703 0.458608 0.147903 0.117389 0.472374 -0.704732 -0.466942 -0.095809 0.180234 -0.037399 0.144950 0.100945 -0.594401 0.285378 0.587338 0.046225 0.183765 0.102706 -0.160177 -0.410807 -0.282543 -0.004381 -0.292579 0.063546 -0.147255 -0.034602 0.090333 -0.407988 -0.326554 -0.451764 -0.182179 -0.465698 0.512957 -0.596675 -0.817752 -0.170771 0.286022 -0.108963 -0.207082 0.192184 0.514717 0.092179 0.322492 -0.227969 -0.009910 
一 0.366923 0.087018 0.005604 -0.127249 0.071631 -0.097372 -0.841121 0.131484 -0.695703 0.467042 -0.496157 -0.076790 0.365623 0.156891 -0.010820 0.894209 1.245580 0.341245 -0.492134 0.153444 -0.193457 -0.453694 0.652358 -0.099012 -0.203281 -0.034472 -0.483655 0.481817 0.274614 0.012347 0.543785 0.774843 -0.446256 -0.094794 -0.204618 1.011805 0.146267 -0.304568 -0.389268 -0.185461 0.637961 0.868606 0.157589 -0.083689 -0.160901 0.154831 -0.332981 0.229766 0.213441 -0.199500 
、 0.362027 0.662949 -0.811405 0.486350 0.095385 0.336525 1.130472 0.511705 -0.624657 0.074473 0.347281 -0.430401 -0.781195 1.024431 -0.105264 -0.789251 -0.546009 -1.131768 -0.391678 0.813483 0.709059 0.518577 -0.663799 -0.972052 0.312046 1.412021 0.141230 0.484660 -0.415842 -0.249044 -0.798631 -1.333802 -0.463277 0.029326 0.493591 -1.559898 -0.088156 0.008294 0.163382 0.478748 -0.261706 -1.487299 -0.821955 0.328726 -0.998686 -0.437251 0.345871 -0.131503 0.074339 -0.194226 
1 -0.225484 -1.111078 -0.106694 0.046311 2.319543 0.469795 -0.309445 0.601799 0.354474 -1.613454 0.355018 -0.326823 -1.834125 -1.189462 0.480622 0.585372 -1.218296 2.032085 -1.403411 -0.393546 -0.889035 -0.335163 1.230802 0.253901 -0.639084 -0.367361 2.634388 1.931643 2.505286 0.550549 -0.157832 -1.497242 0.647895 0.897675 0.270041 1.074830 -0.444437 -0.734963 1.561981 -0.385716 0.346085 -2.021962 -0.387644 1.490638 2.018231 -0.899378 0.149459 0.553557 0.847859 -0.188550 
人 0.269156 -0.440404 0.241945 -0.076522 -0.611027 -0.186622 0.526513 0.948013 -0.024090 0.902184 -0.034733 0.540012 0.159375 0.391975 -0.911577 -0.088018 -0.737631 0.504987 0.017370 -0.224916 -0.266806 -0.559465 0.487391 -0.075606 -0.210633 -0.294877 0.254624 -0.305333 -0.111803 -0.188548 -0.821318 0.947618 0.041855 -0.377477 -1.324422 0.461121 0.014540 -0.146962 0.159738 -0.106805 -0.570880 -0.030814 -0.132543 -0.003086 -0.029984 0.209657 -0.101922 0.037733 1.398157 0.324642 
在 0.117868 -0.550044 0.416783 -0.460916 -0.277308 -0.090980 -0.667402 -0.284895 -0.598504 -0.249064 0.392393 -0.040265 -0.125831 -0.032916 -0.082927 0.371114 0.785478 0.884765 0.201129 0.345388 0.050817 -0.267868 0.126636 -0.138721 0.442388 -0.386813 0.033127 0.210456 -0.095966 0.053160 -0.727212 0.186187 0.317809 0.168156 -0.205736 0.667172 0.200761 -0.120783 -0.191123 0.352194 0.332776 -0.092180 0.216957 0.146547 0.215441 0.046844 -0.019880 -0.108947 0.157538 0.345812 
0 -0.076636 -0.898739 0.026111 -0.272348 2.572601 0.217878 0.288444 1.005868 0.619428 -1.656214 0.159383 -0.586875 -1.043738 -1.883590 1.323231 1.225764 -1.011031 2.239131 -1.651212 -0.243719 -1.334431 -0.130636 1.299788 -0.324921 -1.038406 0.192338 2.054942 1.461611 2.893549 0.932084 0.127432 -0.608366 0.452640 0.122204 -0.248291 0.882464 -0.554913 0.327744 0.474265 -0.565106 -0.475543 -1.777430 -0.736012 1.614006 2.165215 -0.289460 -0.063608 0.314645 0.744963 -1.024020 
是 -0.262552 0.395723 0.353287 -0.765226 -0.844753 -0.565620 0.040086 -0.506440 -0.072167 -0.047296 -0.201568 0.593499 1.511748 -0.726996 0.221047 0.673628 1.097649 -0.329012 -0.391026 -0.117581 0.200963 -0.594466 0.440466 0.226355 -0.528130 -0.542580 -0.680642 -0.386086 -0.275985 -0.408979 0.623591 1.427846 0.155573 -0.006750 -0.889778 0.453105 0.381025 -0.227554 -0.209733 -0.813406 0.028518 0.652992 -0.416179 -0.136087 -0.593415 0.215638 0.075788 0.158640 0.660802 -0.079405 
“ -0.610406 -0.278380 -0.142047 -0.253819 -0.264354 -0.118709 -0.321843 -0.397768 -0.004010 0.820252 -0.676383 0.128997 -0.267351 0.085220 0.041402 0.310753 0.197344 -0.463796 -0.637815 -0.215651 0.556929 -0.445092 -0.238517 0.518088 -0.859983 -0.032957 -1.248186 0.575702 -0.631519 0.108204 0.637399 0.889689 0.254168 -0.278372 -0.273301 -0.166503 0.939800 -0.776029 0.080409 0.142192 0.725260 0.501030 -0.204311 -0.087490 -0.613946 0.107364 -0.238197 -0.277434 0.536010 -0.131683 
” -0.609211 -0.289366 -0.532457 0.204366 -0.163218 0.139162 -0.296821 -0.368254 0.283592 0.770043 -0.670279 0.095047 -0.505167 0.329878 0.323809 0.352583 0.025871 -0.744027 -0.747826 -0.133918 0.648417 -0.225925 -0.347336 0.363423 -0.820953 0.016931 -1.136570 0.402381 -0.289645 0.029683 0.460050 0.907701 -0.021686 0.172889 0.002334 -0.453692 0.622508 -0.853744 0.060513 -0.035272 0.616035 0.437282 -0.269721 -0.121623 -0.581119 -0.193844 -0.342715 -0.263095 0.471966 -0.218223 
了 0.142565 0.251654 0.279202 -0.560134 0.293576 -0.564693 -0.427896 0.027730 0.154856 0.614233 -0.116933 -0.406323 -0.287908 -0.476411 0.040777 0.794411 0.929208 0.248596 -0.064447 -0.186122 -0.017060 -0.252587 0.009680 0.692982 -0.578082 -0.500284 -0.008871 0.199484 -0.610317 0.356016 0.034086 0.692496 -0.361863 0.070670 -0.574654 0.438843 0.179464 0.294928 -0.195791 -0.192418 0.262410 1.098088 0.743375 0.082201 0.059201 0.134291 0.111085 0.349840 0.086833 -0.048710 
有 -0.273311 0.048790 0.285903 -0.311401 -0.672865 -0.717636 0.356271 0.227343 -0.094598 0.058091 0.201496 0.137248 1.338377 -0.521115 -0.149966 0.687438 0.959875 -0.410636 -0.014611 -0.338469 -0.176478 -0.463089 0.696679 -0.164774 -1.285050 -0.498776 0.221706 -0.658474 -0.289453 -1.012608 -0.288387 0.748563 0.239667 -0.024650 -1.130479 0.114706 -0.149093 -0.141348 -0.288713 -0.689286 -0.133678 0.533228 -0.126659 -0.117681 -0.021840 0.752987 -0.090134 0.037016 -0.131756 0.322554 
不 -0.794147 0.424126 0.747614 -1.185624 -0.924410 -0.457597 0.518315 -0.772710 0.033298 0.265692 -0.222493 -0.483279 1.146592 -0.812502 -0.276269 -0.210906 0.981427 -0.781174 0.803580 -0.288527 0.709184 0.241478 0.256506 0.412614 -1.514878 -0.993707 -0.567015 -0.890135 -0.470883 -0.109422 0.163290 0.796037 0.308297 0.060354 -1.762514 0.146433 0.026751 0.220523 -0.418781 -0.737412 -0.270289 1.635801 0.231421 -0.234882 -0.498019 0.973814 -0.416415 0.654677 0.147736 0.249705 
中 0.066070 -0.760268 0.353004 0.533574 -0.208933 -0.287241 0.259205 0.438882 0.157220 -0.295085 -0.240957 0.470182 -0.076975 0.111426 0.343964 -0.690785 0.131111 -0.244162 -0.365923 -0.026875 -1.141606 -0.431010 0.356291 -0.314288 1.462465 0.476772 -0.127448 1.259029 -0.291336 -0.100061 -0.410568 0.200521 -0.386769 -0.073474 0.019542 -0.427344 -0.402600 -0.453885 0.598449 0.508414 -0.068197 -0.354927 -0.536655 0.551865 -0.059793 -0.644926 1.220141 0.060745 0.062717 0.051233 
年 -0.610852 -0.255563 0.194662 -0.959046 1.744455 0.428608 0.148052 -0.311480 -0.113259 -1.546893 0.151325 -0.635132 0.208195 -0.296496 0.979416 0.559632 -0.113639 2.257574 -1.612786 -0.237934 -1.553744 -1.208125 1.081720 0.128430 -0.330685 -1.325232 0.778948 2.010260 1.241616 0.891723 -0.213487 -0.056026 1.016309 1.253806 -0.413419 2.123663 0.096448 0.562438 1.213168 -0.316762 -0.212234 -0.752293 0.031212 0.505197 0.435319 -1.247179 0.681564 0.334522 0.335279 0.204367 
2 0.199056 -1.128034 -0.194743 0.020330 2.646345 0.746182 -0.186167 0.449752 0.353032 -1.983629 0.280345 -0.161619 -1.289019 -1.225175 0.824538 0.940752 -1.268794 1.816813 -1.407839 -0.222757 -1.292189 -0.213448 1.401728 0.122751 -0.481560 -0.159027 2.235735 1.769518 2.444700 0.733333 0.119187 -1.430070 0.806552 0.746321 0.126588 1.067635 -0.468138 -0.333436 1.324171 -0.408172 0.400256 -2.140591 -0.447755 1.391985 2.176078 -0.797015 -0.047964 0.658502 0.867864 -0.794784 
大 0.202521 0.001575 0.472093 0.223440 -0.509698 -0.266099 0.236490 -0.105155 -0.928485 0.500688 0.573002 -0.092113 0.179041 0.711473 0.338813 0.108031 0.163158 -0.211142 -0.968212 -0.003768 0.168035 -0.338881 0.356319 -0.243484 0.581287 0.777271 -0.801288 0.816328 -0.223177 -0.118657 -0.154516 0.377568 0.014050 0.780304 -0.126616 -0.168371 -0.235852 0.054149 -0.242216 0.307188 -0.440149 0.214710 -0.945955 0.520190 0.718401 -0.290220 0.288057 -0.101557 -0.184232 -0.489162 
国 -0.524988 -0.767248 1.407349 0.838663 -1.048269 -0.493966 0.855388 0.434515 -0.021626 -1.938189 -0.527720 0.807129 0.224636 0.360029 0.760728 -1.750952 0.654982 -0.195311 -0.005813 -0.487107 -1.127981 0.005729 0.587842 -0.573087 1.945771 0.022164 -0.065609 1.106093 -0.369765 0.502048 -0.724725 0.779750 0.306372 0.069390 0.773157 -0.856803 0.070077 -0.415203 0.742456 0.330634 -0.069937 -0.989212 -0.997169 1.073490 0.778287 -0.919600 2.623553 -1.262417 0.436041 0.092860 
上 0.609768 -0.952808 0.276849 -0.284253 0.136010 0.007087 -0.972174 -0.054022 -0.663538 0.329694 0.236041 -0.286070 -0.743776 -0.201101 0.239617 0.308082 0.643746 0.878513 -0.184121 0.284781 0.709222 -0.145161 0.751772 -0.084741 -0.333327 -0.227234 -0.039944 0.697076 0.037972 -0.050974 0.241856 0.248772 0.065533 0.332566 -0.099596 0.955545 -0.098814 -0.507437 -0.094862 0.395146 0.739042 0.307576 -0.018458 0.717707 -0.158473 0.541535 0.162580 -0.047974 -0.232158 0.521439 
为 -0.147312 0.257448 -0.040288 -0.236100 -0.237008 -0.250967 0.349867 -0.111012 0.005617 -0.402363 -0.611817 -0.034486 0.968292 -0.081554 0.073807 -0.137244 -0.361159 -0.424131 -0.234963 -0.206348 -0.381823 0.025317 0.177861 -0.294477 -0.291340 -0.592845 -0.117357 0.428602 -0.229566 -0.549611 0.207094 0.849334 0.346710 -0.157701 -0.156715 -0.344980 0.453677 0.220226 -0.067131 -0.451094 -0.235319 -0.529487 -0.394291 0.076785 -0.131657 0.108311 0.024622 0.003075 0.583712 -0.216724 
和 0.502160 0.584577 0.183150 0.199773 -0.236823 -0.071381 0.994738 0.508414 -0.114429 -0.247249 0.060529 -0.225491 0.141623 0.515477 -0.493754 -0.855732 -0.151925 -0.992302 -0.113609 0.381880 -0.098283 -0.087524 -0.309287 -0.962690 1.026960 0.618589 0.134180 0.679795 -0.420424 -0.147187 -0.620529 -0.203477 -0.109910 -0.176127 -0.037044 -0.765365 -0.240007 0.060965 -0.249030 -0.476862 0.087425 -0.915299 0.148216 0.234869 -0.426282 0.245215 0.111979 -0.621873 0.038846 0.083548 
会 -0.102317 0.901167 1.975321 0.298599 -1.041521 -1.245065 2.185343 -0.137936 0.009933 0.202900 -0.127417 0.025084 -0.350612 1.582040 0.076533 -1.087577 0.260945 0.278452 0.441469 1.247911 -1.077268 -0.329109 0.532306 0.736055 1.479339 -0.325982 0.318455 1.192702 -0.046393 -0.515633 -0.034157 -0.852585 -0.247773 -0.203708 -1.042065 0.875019 0.193589 0.252567 0.311944 0.231345 -0.140458 0.602753 0.034144 0.263258 -0.855078 0.871101 1.265128 -0.005627 0.829043 -0.363404 
到 1.033379 -0.178632 0.660251 -0.864170 -0.168240 -0.111825 -0.604899 1.078081 -0.138412 1.053124 0.383019 -0.017623 -0.606812 -0.399425 -0.399214 1.304597 0.767697 0.970501 0.343998 0.179857 0.990326 -0.480378 -0.236602 0.454628 -0.663126 -1.011940 0.137797 -0.168136 0.276827 -0.013524 -0.120805 0.206265 0.378077 -0.030514 -0.827819 1.201145 -0.175054 0.266899 -0.027766 -0.456413 -0.131108 0.638438 0.768394 -0.069693 1.045769 -0.228117 0.110644 0.719846 0.585990 -0.104085 
时 -0.125300 -0.700055 0.393240 -1.528566 -0.471268 0.156019 -1.071875 -0.504669 -0.450922 0.243254 0.620807 -0.357219 -0.490920 -0.643885 0.316504 0.398075 0.709758 1.957778 0.564942 0.412187 0.718872 0.527060 1.064919 -0.008013 0.319368 -0.886465 0.476018 -0.152974 0.524610 -0.315262 -0.250323 -0.614550 0.315081 -0.057204 -0.713154 1.205693 -0.609849 0.058564 0.718096 -0.349130 -0.108664 0.656276 0.903974 -0.488399 0.135321 0.123956 -0.715724 0.599492 0.044837 0.086139 
日 -0.815909 -2.020397 0.800005 -0.176198 0.666105 -0.074982 -1.071329 -0.367178 0.246577 -1.320028 0.735572 -0.316688 -2.179689 -0.506037 -0.113462 -0.510895 -0.696886 2.255962 0.154025 -0.553082 -0.507105 0.016133 0.223573 1.072264 0.752552 -1.277068 1.940454 2.260298 1.296520 0.220609 -0.553339 -0.611949 1.353511 1.147757 1.318915 0.898525 0.175708 -1.067006 2.477054 0.555548 -0.135101 -1.061978 0.310598 1.145454 0.537666 -1.299772 0.893676 0.623594 0.644000 0.220052 
发 0.118304 0.110446 0.779307 -0.017286 1.080036 0.852765 0.334677 -1.214388 0.211547 0.720204 -0.216181 0.165855 -1.034485 0.026876 0.067765 -0.179632 0.318009 -0.226053 0.595420 -0.050714 -0.492231 -0.134828 -0.258578 0.240081 1.673076 0.049140 0.847587 1.057617 -1.297117 -0.620008 -0.776828 0.230026 -0.420546 0.626630 -1.045479 -0.057632 0.097820 -0.204710 -0.593136 0.180622 0.134229 -0.904402 0.054318 0.827641 0.341699 0.367312 0.853155 -0.529997 -1.284626 -0.054521 
出 0.577818 -0.700456 0.702634 -0.547414 -0.067615 0.583415 -0.020314 -0.773606 -0.234484 0.495169 0.289996 0.126888 -0.418861 -0.017161 0.448277 0.410865 0.179753 0.098484 0.538005 0.037115 0.308897 -0.050949 1.133370 0.138398 0.078999 -0.239234 -0.398540 0.506610 -0.694837 0.516841 0.785791 0.863735 -0.542551 -0.568721 -0.073760 0.498765 -0.433963 0.263782 -0.073541 0.152240 0.415596 -0.787754 0.852432 0.253540 0.156179 0.509041 0.349664 -0.055021 -0.820369 -0.628313 
生 0.380778 1.407400 -0.074686 -0.933269 -0.361519 0.588512 0.315908 0.775965 0.295944 0.964732 -0.146196 0.403358 0.654805 0.101869 0.644667 -0.142661 0.218400 -0.371062 -0.527457 0.006437 -0.460985 1.169651 -1.258891 0.422652 1.109409 0.092143 0.887680 -0.013034 -0.585320 0.009489 -1.066673 1.107518 -0.647467 0.363520 -1.359880 0.447368 1.146332 0.342552 0.341985 -0.743407 -0.112578 -1.073829 -0.738314 -0.025178 -0.642041 -1.339765 -0.803224 0.474143 0.153231 0.794074 
这 -0.002626 -0.369950 0.412633 -0.827689 -0.705965 -0.691200 -0.028021 0.324099 0.198952 0.513660 -0.088295 0.881055 1.226183 -1.138377 -0.543403 1.326676 1.413343 -0.152968 -0.662624 -0.369242 0.007587 0.079940 0.577195 0.213835 -0.792395 -0.563618 -1.035940 0.111939 -0.077886 -0.679565 1.132286 1.210127 -0.368494 0.002088 -0.851612 0.829643 0.874858 -0.678118 -1.017953 -0.763203 0.851567 1.095938 0.031377 -0.448983 -0.188823 0.341642 0.495938 0.709234 0.509013 0.329318 
个 -0.528207 0.490296 -0.051751 -0.511595 0.049176 -0.749619 -0.713277 0.659218 -0.365991 0.198976 -0.276010 -0.188705 0.728325 -0.046645 0.435415 1.836833 1.365296 1.123979 -1.174644 -0.138622 -0.298967 -0.808605 0.640463 0.035860 -0.527733 0.188703 0.098803 1.081402 0.318718 0.275199 0.146835 0.682833 -0.039871 -0.264287 -1.016037 0.499179 -0.176878 0.071484 0.010315 -0.539525 0.236459 -0.266780 -0.191009 -0.252058 -0.003697 0.277994 -0.683874 -0.085731 0.543596 0.293884 
行 1.607776 -1.349428 0.355009 0.744081 -0.073305 0.419192 0.493560 -0.694390 0.492598 -0.384695 -0.548123 -0.766276 0.104137 0.821111 0.752406 -0.144330 0.058304 -1.509339 0.297234 0.440323 -0.299081 1.093752 0.533852 -0.308962 0.384890 -0.014531 0.126629 0.647676 -0.716329 -1.525176 -0.166389 -1.781639 -0.140492 -1.482234 0.199607 -0.190289 -1.272270 1.611212 0.627159 0.977504 0.645767 -0.134553 1.141198 0.816466 -0.209008 -0.646318 0.315559 -0.181915 -0.635928 0.572119 
3 0.065986 -0.868354 -0.398570 -0.155292 2.330258 0.520912 0.015605 1.051649 0.396783 -1.440952 0.159168 -0.191698 -1.168856 -1.327191 0.745807 0.864694 -0.870547 1.759551 -1.521114 -0.169472 -0.851778 -0.210781 1.413493 -0.194298 -0.865107 0.120444 2.242079 1.551881 2.537678 0.479595 0.003390 -1.045442 0.755167 0.795804 -0.019040 0.900510 -0.430544 -0.075017 0.909667 -0.484307 0.325054 -1.974136 -0.682784 1.547118 2.038473 -0.398906 -0.113894 0.558623 0.914412 -0.575943 
对 -0.106925 -0.821928 0.105969 -0.095847 -1.033372 0.119873 0.664383 -0.372239 0.088538 -0.436104 -0.206969 0.545795 0.436726 0.009736 -0.742712 -0.706613 0.463402 -0.430797 1.121783 -0.620659 -0.278637 0.017968 0.488543 -0.115473 0.815576 -0.265440 -0.202509 0.591688 -0.956304 -0.311296 0.497900 0.513224 -0.022645 -0.919306 -0.584505 -0.094784 -0.292188 0.041322 -0.265462 -0.316925 -0.655521 0.099215 0.571265 -0.091336 0.209723 0.343909 -0.003702 0.041961 -0.106487 0.472249 
要 0.957539 1.386628 -0.031393 -1.646808 -0.654764 -1.434469 1.373885 0.035126 0.416336 -0.315389 0.253906 -0.740786 1.099999 0.344149 -0.703636 -0.201206 1.106616 -1.496168 0.407137 0.593948 0.134231 0.437679 0.244833 0.294481 0.370188 -0.187526 0.281189 0.730215 -0.575118 0.517920 0.698791 0.490778 0.106165 -1.512584 -0.821033 0.545596 -1.199751 0.653624 -0.255422 -0.963176 -0.257864 0.873834 0.824859 0.027162 -1.057469 1.052511 0.034884 0.006699 0.133342 -0.629860 
家 0.730772 0.005232 0.415323 0.154266 -0.429822 -0.781564 0.263660 1.201518 -0.244904 0.446791 0.432087 0.575301 0.505621 0.014007 -0.221486 0.667222 0.751783 0.471003 -0.098333 1.015830 -0.039795 -0.149157 -0.107808 -0.339181 0.548580 0.423185 0.376281 0.026601 -0.674758 0.514245 -1.214360 1.779847 0.952527 0.093072 -1.306895 0.006040 1.312090 0.794639 -0.476136 0.594621 -0.070949 -0.440911 -0.303615 0.642793 -0.251464 -0.891075 -0.255933 0.145776 0.956345 0.441799 
来 0.112210 -0.018318 0.720101 -1.020685 -0.243016 -0.292231 -0.219638 -0.027787 -0.082712 0.671918 0.425787 0.165753 0.375200 -0.351643 -0.350208 0.714573 1.253897 0.966962 -0.229898 0.238731 0.414632 -0.515159 -0.126302 0.130373 -0.357420 -0.535954 -0.607881 0.434122 -0.567651 0.723072 -0.055001 0.810116 0.643335 0.494317 -0.581800 1.075287 0.081789 0.250044 -0.736885 0.023711 -0.077198 1.360872 0.338475 0.342856 0.307011 -0.405542 0.592231 0.417225 -0.162430 -0.176397 
以 -0.025821 0.098707 0.052773 -0.237152 -0.548108 0.400140 -0.010599 0.256531 0.442003 -0.504773 -0.075971 -0.184714 0.911873 -0.190999 0.221032 0.190874 0.228236 -0.259619 -0.122937 0.420041 0.005276 0.824909 0.846053 -0.143326 -0.544098 -0.426949 -0.149371 0.409847 0.653347 -0.389528 0.308850 0.109965 0.149429 -0.628332 -0.532888 0.049719 -0.193034 0.653452 -0.258823 -0.148269 -0.573512 0.161044 -0.289653 0.416472 -0.380634 0.680082 0.051687 0.139254 -0.122374 -0.443329 
地 0.388082 -0.232357 0.253339 0.371790 -0.677908 0.119445 0.269107 0.652486 -1.270323 -1.003832 0.984530 -1.118857 0.001300 0.631344 -0.432104 1.367453 0.788079 -0.607222 0.660416 -0.308507 -0.505289 0.287986 -1.053597 -0.340584 -0.412039 -0.012241 -0.504162 0.570849 -0.362635 0.016735 0.004119 -0.448241 0.474728 0.396116 0.023162 -0.505823 0.435875 -0.305561 -1.097861 -0.274924 0.093406 -0.832045 -0.205069 0.476828 0.555901 0.822128 -0.258365 -1.155002 -0.776806 0.639649 
公 0.599983 -1.811340 0.322073 0.135229 0.290160 -0.818497 2.580725 0.230563 0.225168 -1.174819 -0.352475 -0.536106 -1.631537 1.428643 -0.221228 -0.219426 0.474854 -0.074482 0.177632 0.512527 -0.001176 0.534155 0.942051 -0.758655 -0.488843 -0.055308 1.125019 -0.811641 -0.208202 -0.534481 -2.062721 -2.023287 1.424784 -0.285284 -0.353168 -0.622492 0.285122 -0.071286 -0.899128 1.459523 0.598633 -1.353518 0.386750 0.479293 0.328158 0.490593 -0.591649 -0.905094 0.161578 0.719030 
市 0.960887 -0.389334 0.335152 0.260438 -0.087027 0.680647 2.092214 0.653932 -1.347890 -0.530700 1.934385 -0.749921 -1.193932 2.065901 -0.151250 0.586952 0.394313 -0.839059 0.132722 1.151841 0.654851 -0.462387 0.512794 -0.028600 0.764222 0.980500 0.790494 1.374184 -0.619747 -0.583964 -0.121562 -1.625243 1.433112 0.357737 0.070575 0.219636 0.903497 -0.093243 0.377492 1.398904 -0.473770 -2.920771 -0.395969 0.605936 1.156037 -0.707444 0.512729 0.119912 -0.028084 0.083417 
作 1.330742 0.339047 0.536599 -0.841100 -0.461436 -0.637549 1.586579 0.655643 -0.275253 0.344153 0.061622 0.055100 -0.642311 1.428359 -0.223838 -0.523044 0.046035 -1.670389 -0.581466 0.718121 -1.622262 0.178460 -0.211225 -0.775482 2.224773 0.443864 0.019107 1.015260 -0.621379 -0.210748 0.472427 -0.455363 -0.511837 -0.354616 -0.369105 -1.420918 -0.557120 0.721557 0.206587 -1.167274 0.658948 -0.187485 1.034047 -0.016810 -0.917102 0.348573 -0.314261 -0.681077 0.146693 0.044203 
后 -0.139551 -0.003967 0.198937 -0.037020 -0.023052 -0.204499 -1.207956 -0.464621 0.039731 0.429160 -0.451882 -0.245839 -0.499530 -0.242063 0.327487 0.513355 0.294526 0.949245 0.278757 0.713807 -0.417177 -0.047790 0.138779 0.392673 -0.019476 -1.251237 0.207968 -0.606833 -0.331306 0.722993 -0.321703 0.249942 -0.342684 -0.380746 -0.267611 1.372353 -0.329914 0.170199 0.241455 0.574405 0.172817 0.955292 1.037914 0.096987 0.616310 -0.768041 -0.760745 0.421741 -0.355045 -0.282678 
工 2.654566 0.297493 -0.167437 0.665822 0.148747 -0.994919 1.756262 1.505029 -0.533878 0.280993 0.275793 -1.306621 -0.155994 1.146749 -0.149961 0.310905 0.242626 -0.047956 -0.184722 0.898251 -1.952585 0.616376 -1.482660 0.210817 1.637608 0.759951 0.836118 1.014288 -1.085800 -0.236476 0.065659 -1.096930 -0.282430 0.348049 -1.630396 -1.099644 -0.610447 1.328657 0.491220 -0.621831 0.777740 -0.584901 1.111427 0.436090 -0.628189 -0.171360 -0.478887 -0.782921 0.474260 -0.374598 
他 0.458068 0.144936 0.673123 -0.675627 -0.917830 -1.035968 -0.493379 0.197044 0.339875 0.830304 -0.015008 0.758589 0.293313 -0.982538 -0.335810 0.308364 0.174646 0.481768 0.294365 -0.067744 0.380916 -0.726181 0.105847 0.377168 -0.374221 -0.962512 -0.706435 -0.392427 -0.595031 0.173852 -0.343132 1.393792 0.203201 -0.568955 -1.680418 1.471975 0.712744 -0.023657 -0.364342 -0.287334 0.212783 2.193444 1.230220 0.139633 -0.247616 0.061502 -0.780199 0.047934 0.923821 0.063222 
成 -0.392101 0.737518 1.074466 -0.028762 0.510220 -0.302470 -0.031547 0.630352 0.237929 -0.462126 -0.282008 -0.639595 0.675662 0.670924 0.704370 -0.502772 0.472388 -0.735014 -1.004651 0.932339 -0.907053 -0.564356 0.611609 -0.898972 -0.280705 -0.038664 0.188392 -0.031237 0.077901 -1.042554 0.312589 0.431403 -0.934207 1.096209 0.043304 -0.911524 0.201929 0.694856 -0.581253 -0.892113 0.548625 -0.390129 0.105865 0.270675 1.070966 -0.554038 -0.200735 -0.064745 -0.654737 0.080638 
多 0.316710 -0.153332 1.192730 -1.010117 0.102450 -0.244170 0.416250 0.726970 -0.156688 0.447921 0.648630 -0.392795 0.922606 -0.057990 -0.042207 0.594067 0.545144 1.276113 -0.065154 -0.418689 -0.278774 0.753315 0.254880 -0.287519 -0.931719 -0.029428 -0.400754 -0.483631 0.099924 -0.429357 -0.204275 0.588129 -0.564479 0.814407 -1.145233 1.161809 0.439513 -0.761061 -1.222495 -0.813514 -0.824616 0.417685 -0.877652 0.258477 0.994527 0.616615 0.683359 0.290014 0.556132 0.560980 
新 -0.131170 0.213367 1.622067 -0.572241 1.511766 0.523549 0.907882 -0.514996 0.015613 -1.010988 -0.619514 0.096362 -1.115830 0.875744 0.602446 -0.028103 0.510333 0.119506 -0.968103 0.717398 0.397940 0.660853 -0.950885 -0.069679 1.455301 1.310364 -0.117177 2.540108 -0.556626 0.009389 -0.589332 0.675937 0.517575 0.710273 1.113153 -0.473918 0.131756 -0.949523 -0.348952 -0.009568 1.239054 -0.716841 0.076400 0.394172 -0.548706 -0.733368 1.722567 -0.356876 -1.229157 -0.604125 
方 -0.023166 -0.951017 -0.239252 0.720091 -0.081585 -0.247909 -0.209677 0.222595 1.072728 -1.033104 0.463843 -0.987003 -0.342758 0.629680 -0.158409 0.946607 -0.231251 -0.858705 0.894736 -0.389751 0.014285 0.406272 0.429027 -0.554351 0.456148 -0.751432 0.744509 0.792130 -0.566082 -0.934439 -0.030353 -0.185583 -0.300930 -0.959870 -0.585306 -0.278894 0.008112 -0.028345 -0.490482 -0.120500 -0.573163 -0.258189 1.297185 -0.524606 0.227717 1.654242 -0.320864 -0.629544 -1.783152 0.918236 
现 0.001133 -0.872926 0.409609 -0.444450 0.049560 1.055784 0.007700 -0.522323 0.249389 0.764587 -0.082767 0.266739 -0.002570 0.459221 0.115072 0.611330 1.127627 -0.239801 0.579381 0.330081 -0.308656 0.105893 -0.503658 0.006785 0.364169 0.250605 0.059229 -0.207337 0.013687 -0.380840 0.097137 0.501061 -1.055150 0.084566 -0.710829 0.988307 0.014377 0.648238 -0.867334 -0.795785 0.081549 -0.396326 0.823885 -0.504121 1.186775 0.463681 0.744523 0.348181 -0.925545 -0.260329 
部 0.700256 -1.954019 -0.469241 0.308261 -0.741155 -0.267328 1.342890 1.569297 -1.480478 -1.461292 0.637226 0.455418 -0.567624 1.259250 -0.989416 -0.441947 0.283608 -0.690202 -0.610840 -1.096533 -1.083913 -1.232111 0.724836 0.350976 0.978293 0.548004 0.508419 0.963513 -1.164510 0.730365 -0.540122 -1.469386 -0.202336 -1.217237 -0.584075 -1.157468 -2.235293 -0.806896 0.076754 0.393390 -0.301015 -1.104382 0.871480 0.250686 -0.644300 -0.363136 -0.209340 -0.744551 0.062663 -0.681485 
我 0.438519 0.907291 1.389678 -1.405081 -1.083595 -1.313756 0.180617 -0.270352 0.432693 1.101205 0.230712 0.853811 0.456233 -0.761684 -0.582594 0.577191 1.118568 -0.571685 -0.821239 -0.502009 0.746540 -0.548182 0.262433 1.316271 -0.115515 -0.738073 -1.311870 0.707422 -0.722126 0.610214 0.574061 0.789640 0.895802 0.116164 -1.949274 0.898206 1.032708 -0.100529 -0.153952 -1.384834 0.908491 2.341198 0.734106 -0.142146 -0.712586 -0.421746 -0.167906 0.237150 0.819822 -0.177198 
民 1.263459 0.095257 0.909912 1.330781 -0.550438 -0.305775 1.182245 1.198713 -0.794882 0.945715 0.970703 -1.037786 -0.871912 2.002903 -1.164259 0.048315 -0.707928 -0.960096 0.699201 -0.362551 0.156432 -0.095742 -0.743378 -0.519150 0.928263 -0.347242 1.266905 1.882232 0.430622 0.707319 -1.791910 0.255990 0.330631 -0.381432 -0.112011 -0.195886 1.057801 0.210927 -0.010560 0.073659 -0.993679 -1.981400 0.880529 0.139391 0.729105 0.737369 0.724546 0.399989 1.466718 0.458985 
月 -0.492895 -1.118416 0.203507 -0.845519 1.493457 0.311596 -0.630309 -0.180137 0.164808 -1.433330 0.967799 -0.607809 -1.785344 -1.077846 0.650970 0.558443 -1.435879 3.060911 -0.829566 -0.616069 -0.902178 -0.614769 0.889239 0.644576 0.030055 -1.267745 2.602927 2.266395 2.275335 0.716196 -0.554597 -1.508811 0.717026 1.194192 0.940740 1.758118 0.456573 -0.543461 2.150549 0.208509 0.912304 -1.731201 0.414473 1.368134 0.720673 -1.318146 -0.090045 0.670557 1.051371 0.212008 
过 0.387284 -0.868408 0.555115 -0.008048 0.465756 -0.576183 -0.552051 0.130538 0.230171 1.136046 0.089152 -0.802634 1.081344 -0.762503 0.551205 0.167705 0.710239 1.034332 0.098064 -0.119199 0.310826 0.840670 0.569686 -0.057102 0.076300 -0.831475 -0.180045 0.085049 -0.137646 -0.158924 0.322346 -0.638811 -0.403660 0.242403 -1.034806 0.545003 0.237609 0.770768 0.170967 -0.177245 -0.702773 0.649453 0.761036 -0.403607 0.754589 0.382331 -0.075823 0.655930 -0.332518 -0.281344 
全 0.382570 1.221428 0.338515 -0.082758 -0.206275 0.604408 1.944341 0.964230 0.597736 -1.065716 -0.149990 -1.309536 0.003949 1.484375 -0.383629 -1.057359 0.859889 -0.355962 -0.769050 0.970184 -0.810166 -0.394005 0.530797 0.923061 0.948565 0.257292 0.615533 1.648541 -0.087665 -0.176322 -0.285571 -1.023052 -0.562689 0.432625 0.318108 -0.287398 -0.998768 0.005872 -0.233076 -0.054372 1.858391 -1.555371 -0.001974 0.676811 0.664282 0.575210 1.028301 -0.362479 -0.285425 -0.014023 
4 -0.003974 -0.699545 -0.245097 0.450110 2.420077 0.585061 -0.124466 1.030675 0.161245 -1.647153 -0.241498 -0.322947 -1.109436 -0.984163 0.493151 0.675601 -0.776831 2.007782 -1.409238 -0.077695 -0.882818 0.202258 1.445554 -0.240739 -0.741589 0.334869 1.927858 1.256455 2.508869 0.517239 0.022350 -0.850732 0.549230 0.648347 0.062763 1.042209 -0.727148 -0.241789 0.909904 -0.641288 0.272724 -2.027185 -0.807397 1.017632 2.129799 -0.337727 -0.142161 0.501707 0.981164 -0.414279 
5 0.225860 -0.697295 -0.303479 0.325246 2.257305 0.209482 0.267774 1.716540 0.239956 -1.620042 0.019955 -0.478099 -0.708151 -1.379277 0.714999 0.736827 -0.836030 1.441772 -1.243341 0.090147 -0.567639 0.298360 1.316945 -0.504003 -1.604875 0.707992 1.822293 0.588056 3.017864 0.626386 0.324414 -0.588101 0.342287 0.066327 -0.273973 0.842912 -0.771909 -0.160946 0.598156 -0.756868 -0.395505 -1.897450 -1.286685 1.310912 2.703441 0.441289 -0.614973 0.607344 0.894961 -0.516289 
业 1.819533 0.193690 1.089521 0.134005 0.225673 0.688035 3.137560 0.344092 0.307750 -0.588083 -1.069276 -0.021998 0.147514 1.236152 1.205613 0.638640 0.836182 -0.223832 -0.741750 0.681494 -1.142324 0.861678 -2.414949 -2.054249 0.244076 2.780644 0.261789 0.692983 -1.101244 -0.915406 0.132813 -0.071372 0.825740 1.158126 -3.053824 -1.709667 -0.125093 1.419669 -0.846974 -0.101017 0.293205 -1.805714 -1.067986 2.787280 -0.449173 -0.774483 0.002514 -0.993920 -0.035884 1.007134 
能 0.424427 1.522689 1.328295 -1.032085 -1.216993 0.054753 0.122831 0.040191 1.501585 0.364236 0.082261 -0.995846 1.413161 -0.565470 0.642258 -0.458706 1.362922 -1.158503 0.051706 -0.088021 0.763811 0.614547 -0.207921 -0.397023 -1.216802 -0.963089 -0.088468 -0.799980 0.651626 -1.207986 0.193717 0.069115 0.141209 0.036449 -1.240006 -1.020297 -0.308458 0.242335 -0.575398 -1.747033 -0.491942 1.271012 0.042167 0.633149 0.220037 0.549173 -0.677378 -0.064681 -0.722903 -0.739129 
者 1.146305 -1.631368 0.634197 -0.498453 -0.263115 -1.256779 -0.498999 0.836600 0.876205 0.542792 0.808775 1.316237 -0.577746 -0.500571 -2.213509 -0.741604 -0.679586 1.145251 1.518406 0.497041 0.448539 1.410260 -1.012914 0.227629 -0.517315 -1.107993 0.959535 -0.059392 0.214413 -0.201870 0.240523 -0.322559 -0.288313 0.245551 0.445982 0.112348 0.904146 -0.305613 1.560300 0.690742 -0.072574 0.395381 1.079217 0.348764 0.852534 -0.218735 0.749252 1.713993 0.497670 0.320581 
开 0.935264 -0.457404 0.660618 0.095661 0.540738 0.872656 -0.139564 -0.903466 -0.600646 -0.438954 -1.292865 -1.396819 -1.078189 1.119563 0.583078 1.024237 0.030253 1.347292 -0.172395 0.804818 0.320991 -0.083362 -0.374408 0.219215 0.856223 -0.064257 1.014118 1.846938 -1.035316 -0.283830 0.013507 -0.571896 -0.521231 0.816045 -0.828097 1.182104 0.059539 0.167637 -0.882822 0.872150 0.781459 -0.446421 1.752488 0.800351 -0.616384 -0.678608 0.525321 0.212529 -1.099202 -0.585217 
子 -0.381652 1.166223 -0.906058 0.896358 -0.009318 -0.792977 -0.940990 1.411945 0.290188 1.956222 0.220041 0.790006 0.496837 -1.069428 -0.579521 0.592634 0.155542 1.653614 -0.899188 0.610908 1.422881 -0.457721 0.499508 0.049926 -0.698177 -0.639268 0.579989 -0.861084 -0.342844 2.182906 0.273404 2.171968 -1.249215 -0.309635 0.025480 1.449537 0.637569 -0.220069 -0.995020 0.187990 1.143161 0.753170 -0.013042 -0.154863 -0.424037 -0.305450 -2.636878 0.056906 -0.184331 0.952019 
也 -0.103379 0.167892 1.111877 -0.970541 -0.768797 -0.329046 0.250536 -0.410267 -0.062666 0.619889 0.113719 -0.083225 0.927796 -0.662832 -0.420183 0.252677 0.462757 -0.082972 0.515522 -0.190000 0.381671 0.034443 0.300278 -0.228371 -0.943629 -0.679267 -0.735872 -0.532902 -0.547686 -0.168609 0.325577 0.697099 0.372908 0.206734 -1.080158 0.533957 0.278435 -0.112681 -0.608625 -0.782454 -0.047595 1.255677 0.202833 -0.343461 -0.162687 0.344319 -0.002091 0.467800 -0.099514 0.226108 
车 1.080021 -1.914343 -0.114159 -0.368085 1.988022 0.104433 -0.576715 0.113587 -0.092804 0.972758 -1.169268 -1.983384 -0.037555 -0.239981 0.248798 1.263088 1.023136 1.210225 0.420133 1.081417 3.381991 2.891860 1.180511 0.561388 -1.418805 -0.655813 0.496605 -1.242865 -1.005389 -2.072131 -0.304181 -1.182174 0.640562 -0.942287 0.448585 1.492192 -2.565922 0.777534 -0.170700 2.417569 0.846017 -0.243315 -0.646194 -0.077726 1.855216 0.403440 0.055100 -2.968158 0.156032 -0.962515 
前 0.746193 -0.918271 0.351125 -0.179936 0.381608 0.746357 -0.620371 -0.632169 -0.303040 -0.344207 0.303923 -0.296666 0.253038 -0.509360 0.392914 0.439104 0.633984 1.834439 -0.239538 0.413878 -0.672141 -0.410780 0.663305 0.168140 0.586144 -0.994538 -0.042601 -0.073380 -0.167183 -0.253438 -0.158199 -0.257944 0.211654 -0.680199 -0.055376 0.856200 0.320457 -0.302041 0.039761 0.130229 0.841450 -0.275548 0.335778 -0.762831 1.074375 -0.509080 -0.121147 -0.098829 0.087557 -0.115089 
进 1.633020 0.335747 0.460637 0.583390 0.023855 0.666115 0.133803 0.073495 0.054098 -0.594005 -0.527385 -2.099168 -0.951773 1.302846 1.111444 -0.106968 0.434567 -1.416358 0.206914 -0.113381 -0.173897 0.380375 -1.080001 -0.389832 1.203499 0.856610 0.851622 1.204631 -1.306426 -0.707334 0.689911 -1.305045 -1.059490 -0.697452 -0.194999 -0.081026 -0.161263 2.010552 -0.296317 -0.863816 1.140141 -0.178110 1.084241 -0.066355 0.579166 -0.369505 0.467379 -0.268089 -1.089114 1.076070 
经 0.654143 -0.596257 0.825757 0.011337 1.050460 0.187223 0.772753 -0.675884 -0.648798 -0.174519 -0.465883 -0.522157 0.737931 0.080916 2.051191 -0.571751 2.077418 -0.957502 0.402439 -0.033781 -1.043804 -0.580780 -0.282846 -0.549524 1.728662 -0.132479 0.811207 -0.953982 -1.229793 0.465461 -1.331961 0.141677 -0.029309 0.647409 -0.946675 0.683021 0.729351 1.987461 -0.157470 -0.079395 -0.680263 -1.442760 0.472857 0.616557 1.040214 -0.860157 1.000894 0.442977 0.180363 0.517244 
于 -0.717495 -0.285049 0.097547 -0.087223 0.135254 0.271866 0.033125 -0.084485 -0.319812 -1.235627 0.354731 0.039147 0.920142 0.294194 0.042270 0.583966 0.121626 -0.026348 0.214707 -0.166306 -1.036134 -0.246482 0.149885 -0.145761 0.073863 -1.347401 0.152183 -0.263524 0.350519 -0.542145 -0.530785 -0.038466 0.711338 -0.197070 -0.303099 -0.123314 0.411333 0.298505 0.506027 -0.102093 -0.662459 -0.550343 0.256051 0.794420 0.031143 -0.510429 0.102778 -0.170288 -0.693911 0.353785 
就 -0.111144 0.482357 0.822996 -1.106544 -0.499679 -0.672893 -0.336503 -0.156597 -0.265554 0.814679 -0.072228 0.032756 0.235596 -0.679168 0.405219 0.722773 1.388679 0.533063 -0.733423 0.113606 0.617519 0.074121 0.027720 0.450268 -0.674909 -0.566876 -0.149506 -0.184914 -0.253041 0.273719 0.476233 0.519511 -0.348771 -0.018003 -1.140704 0.818918 0.061002 0.270362 -0.561646 -0.740184 0.487678 1.294582 0.702723 -0.146586 -0.195974 -0.316449 -0.415757 0.465263 0.638777 -0.199052 
： -0.110728 0.227607 -1.132681 -0.908629 0.018707 -1.014212 0.139344 -0.301044 0.309086 0.539527 -0.479505 1.254729 -0.059547 -0.472096 -0.397753 -0.213511 0.565537 0.408518 -0.329629 -0.068132 0.392154 0.079770 0.039919 1.209510 -0.247634 -0.015682 -0.287823 0.806842 -1.128780 0.178245 0.787584 0.589687 0.249747 -0.085004 -0.421067 -0.037602 1.618706 -1.756956 1.119961 -0.534665 0.202918 -0.285053 -0.696949 -0.768196 -0.601921 0.057729 -0.015660 0.393953 0.624982 -0.357695 
下 0.692279 -0.277550 -0.172241 0.251400 -0.519386 0.389720 -0.745305 0.247143 -1.115784 0.219444 0.656642 -0.402728 -0.971667 -0.802953 0.568311 0.763388 0.727196 -0.040658 0.414992 0.187260 0.094830 -0.292235 0.616881 0.502312 -0.553007 -0.306914 -0.131355 0.378167 0.650652 -0.106628 0.342278 -0.154363 0.328041 0.425237 -0.767320 1.570016 -1.126220 0.016112 0.306570 -0.155277 0.544783 0.500080 0.032190 0.608029 0.502034 -0.083732 -1.213973 0.235139 -0.261771 0.156905 
自 0.302279 0.725001 0.727819 -1.014619 -1.072279 -0.048656 0.500620 0.368745 -0.377244 0.311575 -0.611824 -0.024544 0.372585 -1.096792 -0.121560 0.193370 -0.075068 0.060907 0.524723 -0.436753 -0.010933 -0.020822 -0.138693 -1.094292 -0.713270 -0.596539 0.002630 -0.394514 -0.820524 0.457149 -0.792365 2.117411 0.140883 0.485639 -1.036886 0.255518 0.161592 -1.098395 -0.199524 -0.755136 1.317085 0.796973 1.477730 1.031302 -1.142489 -1.071380 -0.142365 -0.455195 0.623061 0.948311 
实 1.625891 1.094809 -1.086203 -0.710740 0.166852 0.344734 0.844860 -0.082138 0.345268 -1.063484 -0.059536 -1.276969 1.030621 1.175833 0.025919 0.221589 0.534774 -2.322800 0.078120 -1.386949 -1.703969 0.229577 -0.526731 0.240532 0.467323 -0.672712 0.410780 1.340441 -1.169286 -0.472075 -0.562258 -0.215471 -1.450496 -0.336166 -0.753640 -0.923316 -0.612196 1.706481 0.923123 -1.459228 0.365621 0.655855 0.547831 -0.929618 -0.414940 0.961753 1.757118 -1.396927 0.251644 1.027171 
用 0.405056 0.289959 0.422458 0.335664 -0.896763 -0.709240 0.095286 0.747531 0.499937 -0.121997 0.107953 -1.537638 0.210573 -1.184963 -0.338342 -0.135560 0.579765 -0.427719 -0.064408 0.500950 0.153667 2.570254 -0.655909 -1.004608 -1.390963 0.660482 0.752245 -0.256731 0.207901 -2.021651 0.502163 -0.470063 -0.253202 -1.096989 0.028840 -2.377394 -0.699109 0.431310 -0.420174 0.346779 -0.062644 0.272836 0.344367 1.414833 -1.116975 0.841413 -0.488409 0.312084 -0.908530 -0.334809 
动 0.167656 0.498454 1.601004 0.519599 -0.078237 1.725461 0.299918 0.754955 0.292283 0.749565 -0.855274 -0.848105 -0.679090 1.163617 -0.063821 -0.394911 -1.035334 -1.131365 -0.280191 -0.645552 -0.332406 1.999498 -0.505515 -0.983220 0.934548 0.559956 -0.112583 1.935104 -0.805162 -1.014831 -0.345686 -0.695621 -0.353691 0.794065 -0.632165 0.042231 -1.190688 1.378348 -0.911912 -0.217426 0.959673 0.632656 0.823758 0.254573 -0.972871 -0.168935 0.320379 -0.850009 -1.419927 -0.116612 
小 0.249714 -0.168036 -1.298447 0.106214 0.419986 -0.723664 -0.506396 0.364565 0.034029 1.000093 0.407484 0.159125 0.489856 0.262378 0.039902 0.683753 0.652253 1.794529 -0.194854 0.274857 0.848307 -0.529808 -0.220362 -0.803375 -0.246908 1.021991 -0.483027 -0.599364 0.028739 1.033826 0.384985 0.650144 -0.632267 0.626705 -0.907431 0.653380 0.307542 -0.523284 0.704424 0.372036 0.415932 0.530326 -0.342894 -0.564445 0.503773 -0.306507 -1.841952 0.326205 0.368185 0.420622 
法 0.688834 -1.937503 -0.464301 0.153154 -0.783975 -0.945588 1.621719 -0.624397 0.639396 -0.827660 -1.645330 -0.454285 1.333086 0.318074 -0.928355 -0.200746 -0.571563 -4.317124 0.621486 -0.039969 -0.584037 1.026863 1.443336 -0.064631 1.219158 -0.897108 0.876777 -0.625229 0.029457 -0.215117 -0.784319 -1.652060 -0.183271 -1.626543 0.463243 -0.556139 0.684278 0.334263 1.087351 0.886438 -0.242197 -0.464510 1.357966 0.172419 -0.233419 -1.074315 -0.909193 -0.503067 0.876744 1.137740 
高 1.426993 0.716322 -0.287543 -1.161332 -0.268594 0.763057 0.998782 -0.282523 -1.123761 -0.505348 -0.417728 -0.172621 -0.032350 0.451016 0.882874 0.138611 0.322098 -0.215025 -1.133466 0.315085 0.907698 0.837629 -0.006480 -1.072172 -0.090594 0.531829 -0.376838 0.322195 0.705760 -1.340794 0.403256 -0.570367 0.532317 0.448185 -0.341857 -0.127333 0.074726 0.812118 0.125098 0.386071 -1.764959 -0.663589 -1.735251 0.326711 1.920612 0.950091 0.213519 1.155124 -1.428565 -0.907487 
分 0.796544 0.174909 -0.743130 -0.104131 -0.072282 0.563298 0.544233 1.254425 -1.450337 0.410190 1.050386 -0.003036 -0.128796 0.035025 1.466410 0.743785 0.792204 -1.016882 -0.457133 -0.441953 -2.057176 -0.374122 1.806692 -1.390644 -0.132756 -0.515374 1.341199 0.342927 0.750926 -0.728790 -0.011010 -0.255816 -0.126299 -0.742234 0.291434 -0.013308 -0.738032 -1.434394 0.376846 0.119719 -1.011556 -0.414131 -0.430407 0.381319 0.646785 1.411839 -1.274267 0.180476 0.005997 -0.755514 
说 -0.068845 -0.101749 -0.241049 -1.129460 -0.343235 -1.374139 0.578403 -0.263983 -0.261737 1.204889 0.832481 1.423361 -0.188616 -1.238552 -0.366919 -0.053965 0.564580 0.096685 0.296777 0.068329 0.980502 -0.617203 0.129552 0.694671 -0.545554 -0.933373 -0.811997 -0.331212 -0.894837 0.318702 0.529038 1.251282 0.253260 -0.477175 -1.457185 0.777920 1.914830 -1.043985 0.544385 -0.380889 -0.053834 1.257556 0.792057 -1.081864 -0.340833 -0.353423 -0.649973 -0.100542 1.023985 -0.153766 
学 1.605011 -0.072531 -0.630574 -1.883450 -1.538706 -1.438514 -0.431197 0.901013 -1.539432 -0.567625 0.429384 1.466938 0.940229 0.446030 1.722165 -0.397176 -0.588652 -0.158840 -2.974421 0.437166 -0.823418 1.419899 -0.803165 0.150240 2.506635 0.319740 1.315471 0.989645 -0.867124 0.533430 -1.309992 0.634398 -1.657152 0.181052 -2.309284 -0.723092 2.604451 0.801002 0.169037 1.083547 -1.286046 1.232502 -1.966053 0.524462 -0.315326 -1.033376 -0.589330 0.194036 -0.528111 0.454552 
天 -1.579670 -0.620848 -0.173030 -1.805241 -0.796347 0.139119 -1.344729 -1.102221 -0.839871 0.258997 1.503501 -0.606907 -0.788175 -0.231905 0.500807 0.420563 1.212898 2.218768 -0.818484 0.596669 -0.017450 -0.337626 0.991946 1.190765 -0.357428 -0.442678 -0.588103 0.086573 0.933391 -0.170742 -0.679270 -0.573100 1.449059 0.465580 0.491385 1.252967 0.558277 -0.755133 1.443262 0.043631 -0.022341 0.958444 0.250577 0.890781 0.524245 -0.658341 -0.549776 -0.035958 0.066553 -0.041920 
们 0.571002 0.952959 1.206267 -1.167934 -1.283928 -1.063969 -0.102386 -0.075563 0.500003 1.088320 0.169885 0.557272 0.709130 -0.288947 -1.202317 0.515258 1.155537 -0.140816 -0.044658 -0.111686 0.583314 -0.772409 -0.134084 0.103280 -0.346652 -0.303841 -0.564350 0.219451 -0.607957 0.351798 -0.154596 1.381705 1.002356 -0.273337 -2.057897 0.728310 0.681346 -0.060044 -0.583174 -1.283720 0.222660 2.589542 0.684780 -0.362591 -0.852294 -0.115567 0.146146 0.166580 1.123044 -0.269385 
将 0.342462 -0.421836 0.296566 0.475630 0.688564 0.865744 -0.191967 -0.222715 0.273181 -0.621638 -0.558355 -0.727299 -0.052104 0.226825 0.173610 -0.026149 0.384886 0.606168 0.051321 0.633157 -0.640473 -0.014507 0.387031 -0.203462 0.385689 -0.709785 0.082184 0.615042 -0.216249 -0.262719 0.241826 -0.217300 0.657578 -0.535436 0.406050 0.330056 -0.697572 0.704459 0.413515 0.293008 0.393921 -0.328557 0.974744 0.783274 0.186126 -0.461540 0.211643 -0.531346 -0.839346 -0.237264 
等 0.441932 -0.116746 -0.172585 -0.030219 -0.264011 0.383792 0.723981 0.659933 -0.097260 0.233339 0.046777 -0.428672 -0.155717 0.570433 -0.309272 0.001543 -0.093465 -0.482930 0.137106 0.958362 -0.201264 0.943321 0.157667 -0.946585 0.031491 0.931979 0.044174 -0.137896 -0.519224 -0.784982 -0.229548 -1.060141 -0.335303 -0.555190 0.317193 -1.541914 -0.119506 0.577074 -0.464090 -0.047272 -0.206180 -1.216202 -0.734056 -0.008547 -0.769692 0.012322 0.304843 -0.190133 0.154562 0.400994 
可 -0.272590 0.698019 0.841848 -0.497444 -0.710833 0.141899 -0.617443 0.118464 0.634887 0.491366 0.164302 -0.415583 0.950111 -0.694315 0.417246 0.218703 1.134110 -0.525921 0.308195 -0.512827 0.398449 1.277907 0.595046 0.016922 -1.894905 -0.814202 0.335429 -0.963310 0.019930 -0.962806 0.088581 0.287839 0.486649 -0.169536 -0.563761 0.029625 -0.135017 0.251274 -0.163730 -1.248494 -0.259706 1.184550 0.008545 0.406539 -0.426023 0.581994 -0.399487 0.780746 -0.512298 0.166146 
区 0.825469 -0.126464 -1.018266 1.399855 -0.750323 0.248853 1.389199 1.637908 -1.745052 -1.085029 1.480977 -0.839445 -0.722010 2.143722 -0.139554 0.792309 1.562110 -0.629687 0.138393 0.754319 0.739374 -0.607907 -0.442993 -0.399694 1.856423 1.808636 0.259368 1.928411 -0.470990 0.619619 -1.492575 -1.872616 0.803987 0.955059 -0.392207 -1.532048 0.425688 -0.475299 -0.430134 0.456667 0.016192 -2.351759 -1.259570 0.119950 0.964175 -0.983370 -0.405354 -1.004791 0.421508 1.158303 
事 -0.019275 -1.497710 -0.427941 -0.743778 0.232502 -0.539918 0.928665 -0.460262 0.791096 -0.381268 -0.842357 0.645037 0.153346 0.865061 -1.126579 0.053993 0.256305 -0.988171 1.230509 0.788079 0.035490 -0.118175 0.213593 0.647681 0.832681 -1.170078 0.654563 -0.595963 -1.598664 -1.051418 -0.401786 0.733622 -0.543678 -0.616647 -0.507028 0.074142 -0.340425 -0.378330 -0.425290 -0.301798 -0.578330 -0.113621 0.668320 -0.885520 0.137350 -0.189987 0.256312 -0.480408 1.419054 1.609365 
关 1.588638 -0.094879 -0.099336 0.363504 -0.488873 -0.433391 1.252700 -0.192148 1.344187 -1.439057 0.654943 0.735921 -0.691713 1.272341 -3.200456 -0.545241 0.083370 -1.259746 0.573190 -0.034269 -1.941481 -0.212282 0.916575 -0.273899 1.854457 -0.971963 0.217672 0.563584 -1.246523 -0.662640 0.309103 -0.990657 0.621528 -2.363780 -0.564930 -0.810330 -1.343192 -0.718622 -0.826676 -0.118357 1.474255 -0.208613 0.102072 -0.482359 -0.770550 0.175920 0.202385 0.979829 -0.476555 1.405521 
政 0.686074 -0.522849 0.234070 2.200274 -1.176924 -0.904367 5.633224 0.486852 -1.638055 -1.388380 1.360093 -2.046376 -0.790681 1.609917 0.355533 -0.625538 -0.071965 -1.577676 1.135630 0.373539 -0.479952 -0.377718 0.113173 0.069156 2.601924 -0.174480 -0.131419 2.466536 1.252460 -0.278358 1.550299 -2.070395 0.336992 -3.276221 -0.154884 -0.530414 0.387886 -0.554735 -0.453567 -1.251373 -0.373773 -1.591390 2.037127 0.677468 -1.621905 -0.429420 1.040485 0.277740 2.567706 0.151288 
员 2.286678 -1.893152 0.070075 0.132825 -1.798144 -0.258233 2.188238 1.371891 -0.300592 0.585914 0.200400 0.176090 -1.092305 1.764815 -0.231454 -1.279728 -0.802428 0.826952 -0.036459 0.569298 -1.413392 0.152354 0.412857 -0.492760 1.177018 -0.092319 0.281256 -0.853594 -0.374623 -0.403125 -0.403802 -0.382566 -0.519811 -0.802498 -1.587964 -0.125061 -0.294182 -0.457633 0.412344 0.265555 -0.393569 -0.296194 1.187419 -0.036427 -0.307000 0.771452 -0.363943 -0.887616 1.414714 -0.775932 
长 1.021256 0.235244 -1.325558 0.524686 0.847144 -0.643701 1.447618 -0.199323 -0.668903 -1.504195 1.057618 0.972766 0.081899 0.719225 0.947658 -1.692791 0.496635 0.648489 -0.461243 0.574939 0.574110 -0.346615 0.203024 -1.072534 -0.142159 -0.396902 0.200593 0.343908 -0.286254 -0.017421 -0.870841 -1.560971 -0.189760 0.707569 -0.806285 0.751458 -0.593191 0.102886 -0.334032 0.934019 -1.462437 -0.461975 -0.902913 -0.316426 0.221180 -1.139630 -0.636210 0.302826 0.253030 -0.504024 
记 1.731091 -1.943519 -0.116248 -0.737151 0.061160 -2.256177 -0.374963 1.302563 0.644454 0.852378 1.623525 2.533385 -2.651718 -1.076866 -0.967680 -0.607737 0.007988 0.686860 0.925986 0.577197 0.289358 0.463351 -1.592382 0.083635 -0.163463 -0.932825 1.165191 0.753690 -0.567816 -1.227733 -0.213843 -0.994989 -0.031592 0.715259 -0.316958 0.664967 -0.213322 -0.530488 3.304784 0.820749 -0.026651 0.521587 1.067137 -0.554525 -0.555568 -1.076472 1.940552 2.106850 0.871586 0.776889 
报 2.045758 -3.296692 1.754491 -0.060357 0.688942 -1.042446 0.138340 -0.067112 0.878418 0.047024 0.446417 1.057818 -2.570679 -0.426822 -1.573539 -0.477684 0.241453 0.821746 0.667984 -1.846286 -0.684715 0.520165 0.693965 1.142315 1.698379 -0.863508 1.921637 0.661913 0.080350 0.811695 0.220823 -0.321839 -0.287433 -0.978668 1.579544 -0.230436 1.800889 -1.129434 2.466674 0.379693 -0.051296 -0.785764 0.524339 -0.202361 -0.160711 -0.408986 2.272776 -0.370879 -0.712760 0.666638 
机 0.574087 0.094270 0.852341 -0.343445 -0.583647 0.332466 -0.587549 1.242782 0.736565 -0.027383 -1.574151 -0.582909 -0.649612 0.760485 0.596000 -0.400931 0.577645 -0.759696 -0.421856 0.762315 0.321077 0.576744 -0.179278 -1.736704 0.813496 -0.296223 0.495140 -1.121287 -0.630776 -2.010873 0.381040 -1.021654 0.978534 -1.940923 0.038235 -1.387231 -1.838094 0.562587 0.377728 0.361068 1.299624 -0.783210 1.183076 1.463568 1.012603 0.071250 -0.877827 -0.565315 -0.789223 -0.408499 
6 0.149240 -0.593553 -0.234478 0.015857 2.488230 0.412262 -0.492109 1.385613 0.414156 -1.592665 0.048400 -0.370768 -1.227050 -1.190549 0.540947 0.509949 -1.003323 1.754414 -1.373294 -0.163726 -0.368968 0.140920 1.236828 -0.311538 -1.261491 0.302601 1.922412 1.167277 2.471864 0.363211 0.042341 -0.742988 0.342904 0.454770 -0.406109 0.913264 -0.680958 -0.394381 0.951535 -0.471539 0.124617 -2.250369 -1.038426 1.194688 2.303277 -0.065178 -0.447362 0.755706 1.378055 -0.268307 
还 0.090627 0.022381 0.461346 -0.516009 -0.361267 -0.815379 -0.080861 -0.533591 0.351681 0.038296 0.160750 0.118866 0.842587 -0.913628 -0.096958 0.753630 1.007885 0.541171 0.179580 0.199640 0.301345 -0.044411 0.206353 0.252227 -0.985736 -0.605524 -0.617631 -0.548242 -0.383620 0.006220 0.266830 0.607517 0.090147 -0.430425 -1.006361 0.351956 0.383574 -0.049524 -0.688232 -0.305158 -0.130766 1.033315 0.389732 0.338429 -0.221166 0.453020 -0.440062 -0.021571 0.037403 0.071311 
建 1.652213 1.358781 0.115613 0.631221 1.654132 -1.866640 1.430518 0.309653 -0.430335 -2.776539 0.186305 -1.167094 -0.512941 3.212554 -1.268923 0.388970 0.797073 -2.535122 -0.714043 1.983622 -0.557627 0.802651 -1.324560 0.048516 0.972171 1.520556 0.489282 2.332741 -0.480510 -1.189842 -0.855312 -0.940366 -0.299080 0.876343 0.347970 -2.458919 0.728290 -0.419137 -0.539892 0.218867 1.100082 -2.077173 0.919364 -0.269992 1.338249 -0.203316 -1.345879 -0.823645 -0.356260 -0.490874 
理 1.255883 -0.766001 0.954611 -0.099770 -0.539450 -0.815333 2.349856 0.133084 -0.486313 -0.737899 -0.438083 -0.012281 0.797544 0.793723 -0.502945 -0.691674 0.158001 -1.997521 0.319838 1.175312 -0.645821 1.185119 0.457216 -0.195680 0.460758 0.638817 0.329473 -0.646736 -0.580424 -0.589336 -0.944722 -2.428998 -1.234469 -1.827357 -0.895548 -1.177836 0.329815 -0.120993 0.226288 -0.490869 0.022341 -1.870746 1.480683 -0.417804 -0.968704 -0.977439 -0.725273 0.308481 -0.085773 1.362701 
主 0.470522 0.327488 0.583785 -0.035767 -1.172790 -1.388973 1.956635 -0.652728 -0.615248 -0.742412 0.209113 0.905084 0.213086 1.035957 -0.083742 -1.483299 -1.508717 -0.105463 0.434944 1.406071 0.131958 -0.109094 0.280732 -0.764468 1.052835 0.264573 -0.186733 0.886059 -1.093614 -0.159784 0.631639 0.688402 -1.018555 -0.719717 -0.772774 0.353492 -0.978764 -0.613484 -0.241388 1.000523 0.646816 -1.110756 0.123354 0.704233 -1.364300 -0.218381 0.385799 -0.422804 0.757148 -0.798980 
9 -0.200433 -0.423071 -0.574178 -0.105556 2.486880 0.263640 0.041402 1.238789 0.276795 -2.402673 0.051110 -0.057587 -1.267442 -1.526513 0.692309 0.299801 -1.763296 1.969125 -1.462615 -0.331700 -0.670568 -0.580754 1.199877 -0.158063 -0.616544 0.273843 2.051039 1.449513 2.708653 0.314870 0.104127 -0.495166 0.314495 0.857810 -0.061718 1.223043 -0.669551 -0.089921 1.018936 -0.743185 0.338131 -2.192709 -1.310086 0.890032 1.984166 -0.983397 -0.385560 1.018864 1.802678 -0.151296 
体 0.838582 0.865501 1.119137 -0.387905 -0.239561 0.108626 0.854654 -0.000163 0.441563 -1.298648 0.026382 0.298821 -0.350792 -0.068605 -0.363257 -0.858848 0.953499 -0.789042 -0.478425 -2.208546 -1.121780 0.441397 -1.108374 -0.633540 1.755076 0.641385 1.554190 -0.231058 -0.938686 -1.396319 -0.427398 0.582457 -0.969202 0.122082 0.805618 -0.266314 -1.021678 0.325469 -0.362420 -1.684146 -0.187592 -1.268810 0.112624 -0.590108 -0.750124 0.623366 0.233030 -0.203897 -1.607911 0.498104 
定 0.347961 0.245927 -0.932939 0.467744 0.404445 -1.005238 2.185901 -1.136715 1.270368 -1.964200 0.657096 -1.864959 2.531343 0.437900 -0.218634 0.181381 0.671814 -2.621664 0.673246 1.194537 -0.354548 0.030319 1.639214 0.756349 0.519739 -0.736533 0.655669 0.440748 0.645065 -0.764007 1.050455 0.422793 0.641769 -1.814507 0.242644 0.083385 -0.180777 1.576207 2.006086 -0.475126 0.557694 0.569450 1.041394 -0.684353 -1.129065 0.408821 0.026753 -0.779328 -0.384802 0.566408 
都 -0.326883 0.219286 0.942783 -1.095241 -0.839807 -0.908873 -0.170637 0.137474 -0.381572 0.987106 0.418827 0.345737 0.658844 -0.289086 -0.388840 0.730751 1.262376 0.727523 -0.448913 0.175128 0.341079 -0.125550 0.532054 0.205799 -0.532421 -0.068981 -0.771390 -0.286039 -0.123879 -0.046906 0.007788 0.403086 0.093126 0.211084 -1.010227 0.665661 0.374388 -0.059416 -0.450086 -0.386863 0.155316 0.914310 -0.066668 -0.003177 -0.578618 0.553512 -0.096299 0.156753 0.989298 0.022024 
面 -0.034464 -0.442652 0.842244 -0.277200 0.580429 0.009920 -0.056327 0.556422 -0.678886 -0.895498 0.483449 0.025133 0.587462 0.179388 0.635323 0.954863 1.736578 -1.031542 0.631906 0.301263 -0.301937 -1.257323 -0.046913 -0.232368 0.172217 0.518002 -0.244919 1.107159 -0.190535 0.019164 -0.311309 0.117748 -1.157578 -0.333277 0.203676 -0.687463 -1.312104 -0.318311 -1.060722 -0.217569 0.267383 -0.259586 0.740656 -0.314160 -0.069842 1.725713 -0.505221 0.335986 -0.914564 0.078749 
安 0.808435 0.043267 -0.329038 -0.760514 0.351762 0.891750 1.684004 1.761908 0.623517 -0.281155 1.043811 -0.245966 0.072368 0.742793 -1.560576 -1.150990 1.317980 -0.588263 -0.495312 1.081270 0.274277 -0.331243 -0.187182 1.235088 1.021201 -1.253890 1.255794 1.285791 -0.686548 -1.400109 -1.672084 -1.665512 1.197214 -0.375547 1.456273 -0.186087 -1.881305 -0.025111 0.788963 1.384133 0.013913 -2.051158 0.805388 -0.825985 -0.312032 0.825876 -0.489685 -0.514238 1.029696 -0.671712 
8 -0.170310 -0.449462 -0.496862 0.063381 2.370573 0.047964 0.019195 1.506469 0.289005 -1.822181 0.003804 -0.305998 -1.350146 -1.297396 0.660136 0.765620 -0.964122 1.703573 -1.382042 -0.146657 -0.688547 0.062474 1.259608 -0.482726 -1.154460 0.536168 2.005901 1.024083 2.775190 0.585705 0.079210 -0.622967 0.449299 0.604733 -0.331014 1.107463 -0.580252 -0.310744 0.847526 -0.522125 -0.177469 -2.036229 -1.539652 1.099298 2.230200 -0.416509 -0.501740 0.908244 1.326486 -0.018088 
网 0.023150 -2.234104 1.384193 -1.674562 1.525029 0.436078 -1.867562 -0.439639 1.182742 2.660355 0.245305 0.249874 -3.240559 0.543277 -1.466820 0.414694 -1.377821 1.305334 -0.161477 -2.405291 0.140793 1.377913 0.440687 -1.236589 -0.740551 -0.854699 0.317424 1.623496 -1.328710 -1.619775 0.050054 0.054262 0.973455 0.986042 -0.508666 -0.972349 0.994651 -1.695446 0.817616 0.746140 0.649800 -0.830151 0.010483 0.978054 -0.414878 2.271679 2.202711 0.348664 -0.483878 0.668476 
同 1.134809 0.682321 0.829793 0.264539 -0.438275 -1.238134 -0.070571 1.083423 0.101221 -0.480879 0.733740 -0.021202 0.334367 0.260505 -0.831898 -0.303774 -0.506823 0.326722 -0.141188 0.102308 -0.631922 0.379409 0.730617 -1.401097 0.269288 0.259088 0.078699 0.640159 -0.197804 -0.226062 0.109678 0.551065 0.122484 0.104600 -0.842257 0.629164 -0.433400 0.588293 -0.255086 -0.850035 -0.258783 0.550014 -0.501637 -0.953590 0.523855 0.736466 -0.270036 0.183752 -0.172669 0.507946 
力 0.709690 2.283820 1.139933 -0.743564 -0.793793 1.180601 1.665501 -1.004212 0.599657 -0.083774 0.182143 -1.234653 0.256311 0.538680 -0.032782 -1.421917 -0.808303 -2.447448 0.790434 -1.147538 0.067022 0.544311 -1.965258 -1.793388 1.093728 -0.735916 -0.185170 1.491174 0.528389 -0.661906 0.177900 -0.135228 -0.308982 1.053241 -0.828820 -1.365190 -1.701457 0.467090 -0.981482 -1.480061 -0.775885 0.054757 0.868917 1.901386 0.630791 0.014629 -0.362967 -1.237370 -1.356737 -1.542836 
表 0.269787 -1.442921 0.217516 -0.234377 -0.121119 -0.065814 1.434214 -0.689878 -0.041301 -0.181176 1.099369 2.410649 -1.023152 0.617447 -0.924335 -2.132216 -0.346230 0.177619 1.039548 0.871346 -1.381194 -1.073360 1.085857 0.346159 0.909378 0.646037 -0.911472 0.957329 -0.722020 -2.244206 -0.010969 1.330135 0.383356 -0.641094 0.129654 1.251272 1.107512 -0.549188 -0.106025 -0.581398 -0.589085 1.597650 0.954154 -0.615001 0.264351 0.888679 0.254811 -0.120960 0.303585 -0.256719 
名 0.458536 -1.380244 -1.209351 0.337451 -0.931171 -0.246585 -0.588169 2.002324 0.025370 0.722087 -0.951604 0.794389 -0.015910 -0.056851 0.063335 0.153297 -1.203724 1.142534 -1.557700 -0.183349 -0.719817 -0.710407 0.608806 0.049117 -1.089404 0.135131 0.727264 0.480393 -0.122759 -0.824077 -0.981502 1.958851 -0.142324 -0.547529 -0.538559 -0.377440 0.254574 -0.493307 1.195904 0.752426 0.675591 0.149892 -1.835003 -0.289996 0.829579 0.400078 -0.241549 -1.252953 0.811780 0.929911 
其 -0.271813 -0.430695 -0.594948 0.196899 -0.537572 -0.167874 0.145379 0.443950 0.341120 -0.117707 -0.183621 0.378593 1.139400 0.003800 -0.435683 -0.096423 -0.334017 0.132301 0.249983 -0.574594 -0.859872 0.354489 0.130248 -0.621491 -0.301495 -0.187776 0.126010 -0.661580 -0.041997 -0.770096 -0.097330 0.801688 -0.283320 -0.861715 -0.182438 0.227660 -0.054433 0.370507 -0.421531 0.034673 -0.334175 0.026448 -0.363711 0.942448 0.100699 0.557757 -0.126159 0.466576 0.498659 0.738710 
加 1.197489 1.768010 1.892661 -0.201261 0.118088 0.814996 1.099230 0.357775 1.062821 -0.890695 0.354563 -1.510710 0.361455 -0.369476 0.225499 -0.951492 0.231035 -0.351016 -0.114878 0.105583 -0.554464 -0.617819 -1.152300 -1.108832 0.654362 1.856289 -0.288774 2.059861 -1.183744 0.140201 0.419860 -1.056331 1.028710 -0.265232 0.506303 0.049171 -0.987635 1.183272 -0.015171 0.107518 -0.314265 -0.120537 -0.254166 0.240700 0.566034 1.256544 -0.409828 -0.599996 -1.071013 -0.514465 
被 0.050445 -1.454580 -1.400506 0.402807 -0.242177 0.530979 -0.273015 0.256433 0.671409 1.188586 -1.347302 -0.135949 -0.411116 -0.768014 -0.287908 0.985712 -0.832044 0.508980 1.105484 -0.572923 0.054471 -0.901082 -0.122139 0.638093 -0.259820 -2.059411 0.487274 -1.790774 -0.545621 0.491805 -0.217304 1.161528 -0.938005 -0.280084 0.405747 0.271815 -0.287408 0.206400 0.205258 1.256762 0.067992 -0.238978 0.405215 0.625280 0.333114 0.029220 -0.828858 -0.089301 0.741313 0.620718 
与 -0.032297 0.426034 0.968720 0.587590 -0.347981 0.116645 0.054632 0.208974 0.549156 -0.116016 0.243247 0.687503 0.755007 0.074430 -0.265376 -1.166891 -0.183357 0.374073 0.275099 0.268838 -0.766529 -0.319110 -0.028081 -1.849718 1.093104 -0.043415 -0.334246 0.509186 -0.618294 -0.591393 -0.695931 0.349643 0.150498 -0.199184 -0.403712 0.178013 0.188747 -0.190684 -0.278744 -0.131771 0.079877 -0.320652 -0.119551 -0.216293 -0.054704 0.153492 -0.252343 -1.120581 -0.023011 0.521140 
场 0.279789 -0.310223 1.291826 0.234026 -0.673231 0.931200 0.055584 -0.884637 -0.119120 0.290281 0.244014 -0.590403 -0.572074 1.711059 -0.180798 0.882529 0.787360 0.494951 0.789964 0.866848 -0.516726 0.261377 0.318252 -1.197288 0.245986 0.460774 0.155911 -0.363763 -0.668715 -0.613013 0.019731 -0.592509 0.720061 0.700141 0.431910 0.146604 -0.349142 0.927041 -1.046866 0.848402 0.547078 -0.718193 -0.391832 0.355150 1.518399 0.190836 0.231083 -0.751907 -0.276227 -0.379747 
通 1.083060 -0.757251 -0.285629 -0.143140 1.035229 -0.024891 0.871965 0.604734 0.470269 1.295818 -0.536946 -0.733496 -0.952354 0.063745 0.065679 -0.858365 1.291162 0.357659 0.357760 -0.290655 1.594586 1.161219 0.989666 -0.197703 0.622423 -0.158795 -0.120571 0.749174 -0.688393 -1.931941 -1.534674 -2.874971 0.951758 -2.239439 -0.577095 -0.982373 0.484735 -0.024392 0.943075 0.547794 -0.172276 -1.156121 0.416741 -0.059538 -0.503230 1.136799 1.137688 -0.107047 -0.626721 0.960632 
重 0.902674 0.972920 0.350488 -1.266610 -0.080710 0.350754 1.289220 -0.317330 -0.499488 -0.877855 -0.317400 -0.589607 0.846135 0.597348 -1.203886 -0.209285 -0.341425 -1.700064 0.126145 0.828178 -0.535766 -0.009841 -0.371526 0.574661 2.230758 -0.203048 -0.030388 0.979464 -0.000437 -0.253159 0.978817 -0.114396 -0.859056 -0.014209 0.655792 -0.016376 -2.112039 0.515343 -0.548457 -0.497550 -0.215899 -0.636139 -1.345912 -0.423210 0.013051 0.600039 0.377717 0.682314 -0.298661 -0.358011 
最 -0.754873 0.537562 0.416531 -1.126250 -0.650168 0.915157 -0.342622 -0.454110 -0.190070 -0.392336 0.100493 -0.020692 1.072889 -0.092902 1.162002 0.491444 0.330536 0.404529 -0.804553 -0.468491 -0.074396 -1.026214 0.639190 -0.585045 -0.407252 -0.590443 -0.028632 -0.142523 0.514509 -0.595987 0.539779 0.812660 0.607927 0.467070 0.478588 -0.068953 0.300372 1.275846 0.809087 -0.418659 -0.439348 0.849527 -0.786913 0.051378 0.551125 0.368925 1.117523 0.836109 -0.168741 -0.361678 
女 -0.957681 0.580632 -0.844813 0.698167 -0.409039 0.198608 -0.653217 0.620569 0.669670 1.386803 -0.016616 1.790541 1.927250 -0.346913 -0.351439 0.495023 -1.068808 2.278129 -0.735123 -0.928250 0.007760 -0.946883 0.256999 0.321163 -0.403582 -0.423665 0.284640 -0.166955 -1.032129 1.571103 -1.093094 3.557799 -0.742214 0.351905 -0.299484 1.453902 0.228316 -1.051628 0.217518 0.157990 0.263681 0.444722 -0.374635 -1.096427 -0.483000 -0.052529 -2.606347 0.039516 -0.063369 0.226623 
当 0.079314 -0.784418 -0.034081 -0.637744 -0.858887 -0.172854 0.246162 -0.176207 0.037705 0.155869 0.415519 0.205386 -0.100502 -0.322741 -0.319020 0.262760 0.739803 1.185134 1.000159 -0.052177 -0.484514 -0.406254 0.387105 0.288613 0.320171 -0.703065 0.020217 -0.374556 -0.136994 -0.323970 -0.357649 0.489772 0.935246 -0.158824 -0.632167 0.733572 0.162520 -0.293481 0.256499 -0.236167 0.117364 0.803076 0.835858 -0.375323 0.115248 -0.211600 -0.835277 -0.118731 0.596357 -0.262826 
次 -0.247923 -0.640710 0.089069 0.165630 -0.045527 -0.408733 -0.641264 0.341525 0.158630 0.098550 -0.902979 -0.356165 -0.278713 0.160962 1.254123 0.087964 -0.297869 2.080837 -0.447674 0.546359 -1.288013 -0.678249 1.816532 0.544774 0.828573 -0.930080 -0.146220 1.480152 0.085467 -1.267603 1.062574 -0.029118 0.463951 -0.162330 0.234212 1.133793 -0.218928 0.865861 0.567272 0.016421 0.182924 0.734760 0.290980 0.970496 0.465401 0.706714 0.361405 0.021656 0.924054 -0.697594 
得 -0.642530 1.017673 1.433906 -0.917531 -1.502219 0.225081 1.498710 -1.180109 0.922533 0.218267 0.840286 0.416965 0.638396 -0.530435 0.026510 0.809513 0.890869 -0.925592 -0.792294 -0.032896 0.634108 -0.184269 0.773892 -0.546504 -1.845104 -0.308669 0.079439 -0.725234 0.256792 -0.107090 0.177903 1.407423 -0.475686 0.550117 -0.573474 -0.913145 0.096052 0.694201 -0.065673 -0.202986 -0.143549 2.743411 1.042673 -0.465604 0.963948 0.602380 0.119769 0.120581 0.602792 -0.076003 
本 0.570316 0.281815 0.328573 -0.279799 -0.615394 -1.146349 0.273876 -0.168756 0.202956 -1.345961 -0.175363 -0.116584 0.550521 0.197354 -0.050074 -0.247439 0.235913 0.471808 0.091786 -0.348436 -1.290198 0.548744 -0.248047 0.510755 0.235246 -0.899357 0.080959 0.439669 0.464841 -0.274099 0.566349 0.827518 -0.436683 -0.143993 0.573214 -0.208811 0.719353 -0.406527 1.018749 -0.770587 0.503679 -0.844216 -0.343308 1.331919 -0.065864 0.367573 1.347191 -0.667915 -0.470436 0.249654 
7 0.088324 -0.675675 -0.406324 0.597643 2.303640 0.186404 0.199367 1.365628 0.451214 -1.665962 0.170625 -0.163274 -1.214014 -1.588599 0.647187 0.407692 -1.421097 1.617897 -1.464337 -0.243884 -0.918054 0.005918 1.270351 -0.279758 -0.641309 0.482646 1.887660 1.197331 2.710218 0.394440 -0.047414 -0.726676 0.123777 0.470888 -0.370625 0.904406 -0.926280 -0.417656 1.107228 -0.813607 0.171297 -2.192994 -1.534276 0.697943 2.203097 -0.508865 -0.597464 0.891428 1.279065 0.283067 
道 -0.263963 -1.369632 0.583353 0.071389 0.490180 -1.410594 -0.448323 -0.865982 0.176649 -0.272397 0.199058 -0.226616 -0.325848 -1.229764 -1.047551 -0.224908 1.306398 0.691679 -0.507184 -2.229468 2.269543 0.371999 -0.323852 1.617944 -0.060021 -0.685797 -0.618215 0.882352 -1.277503 -0.101264 -1.429165 -0.782478 0.055388 -1.147916 0.793848 -0.562873 0.658707 -0.750945 0.104855 0.088730 0.077764 -0.865987 -0.384596 -1.535558 0.565677 -0.620507 1.245152 -1.098305 -0.663056 1.114164 
好 0.150449 1.796629 1.499772 -1.605552 -0.518099 -0.200562 0.791193 -0.749758 -0.083979 1.577494 0.313957 -0.564911 1.150529 0.334138 -1.269594 0.586246 0.834300 -0.915900 -0.349344 0.488399 0.715237 0.130465 0.075930 0.088768 -0.562002 0.523245 -0.570744 0.146102 -0.796842 0.454467 0.054690 0.709483 -0.363403 0.544828 -1.082778 0.185138 0.417166 0.064099 -0.221869 -1.765675 0.290243 1.172345 0.921572 -1.026972 -0.919198 0.450019 0.334348 -0.454841 0.496490 -0.139831 
元 -0.122512 -0.052557 -0.141409 0.209337 2.789079 -1.719545 1.832916 0.763845 1.708593 -1.205631 0.130352 -1.204871 -0.627807 -1.148530 1.292265 1.849559 -0.502201 2.048050 -0.941973 0.820920 -1.205100 0.576400 1.691543 -1.352967 -4.023847 0.644666 0.700238 0.184698 3.871457 2.236690 0.085189 0.340101 -0.365653 -0.933737 0.663471 -0.621315 0.019435 1.517065 -0.319844 -0.477168 -2.452076 -1.622474 -1.337607 2.428311 2.890351 0.181379 0.434686 0.930597 1.490949 -0.462839 
目 0.667132 -0.492603 0.166514 -0.274707 1.419580 0.520164 1.234929 -0.131291 0.585043 -1.018402 -0.828459 -1.335815 2.515128 0.604819 -0.386902 -0.211252 1.420008 1.408638 -0.096337 0.637744 -1.994666 0.237200 0.275314 0.575626 0.844606 0.824943 -0.445487 0.796399 -0.244762 -0.788773 0.755539 -0.192978 -0.591896 0.134118 0.605327 -2.425607 0.752183 0.261558 0.641567 0.493823 2.204860 0.468346 0.149242 -0.823075 1.653224 -0.503436 0.282641 0.650235 -0.167180 -1.075116 
心 -0.559020 1.486965 0.065594 -0.747416 -0.652495 0.404780 0.781160 0.275200 0.321885 0.735920 0.857344 1.326537 0.028279 -0.000882 -0.789436 -1.002996 0.225379 -0.613917 0.281386 0.294548 0.551431 -0.780197 -0.447330 0.373056 1.164264 -0.076163 -0.049535 0.362862 -0.756891 0.402697 -0.987841 -0.098498 0.112795 -0.098421 -1.321430 -0.501270 -0.027394 0.329035 -1.206270 -0.822855 -0.478891 1.175986 0.036697 0.069160 -1.241647 0.024771 -0.337839 0.050172 0.078016 -0.657866 
化 -0.090107 0.973430 0.442425 -0.054778 -0.098622 0.634924 0.966290 -0.740470 -0.073206 -0.696046 0.429752 -1.423764 0.530179 0.584814 1.131037 -1.059023 -0.269308 -2.247481 -0.580320 0.705051 -0.156602 0.512099 -2.592080 -0.557790 0.689543 2.421742 0.462572 2.566898 -1.073871 -1.201541 -0.888405 0.028479 -0.838795 0.438394 -0.510317 -1.819400 -0.210180 1.000571 -0.843975 -1.761133 0.268767 -1.816761 -0.776996 0.022983 -1.064797 -0.022206 0.822162 0.250626 -2.087113 0.838567 
而 -1.264970 0.718241 0.361252 -0.281909 -0.319762 0.116992 0.562310 -0.905505 -0.371146 -0.278611 -0.431258 0.072377 1.335379 -1.339363 0.063594 0.112626 0.815968 0.202948 0.893391 -0.129179 -0.441056 0.224992 -0.114629 -0.323696 -0.802080 -0.905853 -0.633454 -0.806430 -0.026807 -0.644773 -0.145569 0.892931 0.269666 0.271919 -0.114505 0.282258 -0.642725 0.670434 -0.641281 -0.245564 -0.620015 1.290238 -0.460034 0.140146 0.180803 0.322662 -0.321438 0.104789 -0.525095 0.079968 
务 2.716208 -1.009248 1.375137 -0.610176 0.328473 -0.204841 2.414343 0.527071 0.552063 -2.117110 0.318146 -0.738805 -1.326414 1.688833 -0.096509 -1.404741 -1.081105 -0.287079 -0.109942 0.888963 0.271680 1.758641 0.039998 -0.650917 0.763136 2.437763 1.606875 0.849196 -0.568021 -0.775710 -1.479150 -0.699603 -0.550635 -1.005861 -2.677221 -2.299624 -1.717916 0.610982 -0.108956 -0.095880 -0.190504 -1.831064 1.268444 0.727516 -1.813331 0.537172 -0.554828 0.439542 0.779985 -0.062842 
》 -0.732764 -1.760235 0.319628 0.783404 0.940451 -0.765934 -0.586254 -1.590431 1.173777 0.356175 -1.017521 1.023593 -0.665834 -0.342762 -1.193371 0.166624 0.132039 -0.443471 -0.847263 -1.134189 -1.239471 0.826515 1.463697 0.697697 1.842100 -0.238168 -1.497166 1.133479 0.999296 0.933214 0.298221 0.273626 -0.235761 0.199204 3.266323 -0.949617 0.823285 -0.157590 2.680083 -0.379872 1.492615 -0.051883 -0.619206 -2.295628 -1.842673 -1.204180 1.813314 -0.787888 -0.035765 -0.223191 
《 -0.618577 -1.243564 0.361027 0.591746 1.074167 -0.829824 -0.087035 -1.212066 0.292073 0.482030 -1.074790 1.700221 -0.761804 -0.266007 -1.660672 -0.122184 0.177770 -0.133111 -1.020063 -0.595625 -1.413592 0.354518 1.582842 0.933245 1.865705 -0.701073 -1.713652 0.717768 0.827377 1.196383 -0.457546 0.422800 0.133948 0.108254 3.311067 -0.922806 0.844471 0.119975 2.341457 0.037279 2.020010 -0.925352 -0.554969 -1.303679 -1.780463 -1.839457 2.553400 -0.758326 0.084367 -0.673555 
度 1.071030 1.515382 -0.361368 -0.984341 -0.355287 1.145829 1.346975 0.019294 -0.332393 -1.148153 -0.550914 -0.941693 0.645786 0.253739 0.271096 -0.455070 -0.213212 -1.148023 0.494890 -0.762547 -1.083814 0.340464 0.331200 -0.328873 0.263923 0.573932 -0.582649 1.221087 0.401150 -0.257964 0.554703 -1.160609 0.199542 0.065884 1.281530 -0.586166 -1.105649 0.795128 1.006013 -1.308140 0.447287 0.198448 -0.537902 0.603294 0.790935 1.280111 0.435682 1.271794 -1.946311 0.162320 
之 -1.349872 -0.195409 0.404022 0.332394 -0.488310 0.106417 -0.792705 -0.940062 -0.361693 -0.313011 -0.502456 -0.231969 0.354787 -0.002584 0.403203 0.007082 0.182480 0.356387 0.134869 0.620831 -0.175531 -0.359749 0.201348 0.078082 0.044296 -1.268198 -1.019626 -0.104329 0.081545 -0.255152 -0.536343 0.632952 0.320051 0.122069 0.134275 -0.199248 0.146795 0.336567 -0.494018 -0.038893 -0.597430 0.549488 -0.048287 -0.547630 -0.109301 -0.011143 -0.048890 0.307301 -0.298540 -0.315881 
点 0.141309 0.163698 0.414740 -1.086676 0.140022 0.106988 -0.327341 -0.215199 -0.787467 0.931005 -0.261830 -1.337072 0.187786 0.615099 0.295240 1.814530 0.871365 1.025028 -0.333114 -0.861603 0.657086 -0.180023 -0.098200 0.275630 0.668690 1.090045 0.856315 1.914486 -0.205053 -0.123044 0.989638 -0.672911 0.175632 0.589591 0.513161 -0.685990 -0.570042 -0.045343 0.011205 -0.997817 0.715725 0.082569 0.057153 -0.433666 0.760841 0.758155 -0.520097 0.821795 0.326120 -0.782560 
合 0.240328 0.928091 0.306471 1.803545 1.394811 -1.611605 1.214151 1.104185 -0.370477 -0.818620 -0.329421 -0.236390 1.673260 2.256810 -0.855582 0.114493 0.271316 -0.141168 1.325743 -1.143917 -0.268017 1.310722 0.624817 -1.762686 0.955612 2.107622 1.220567 0.439902 0.172182 -1.841919 0.557070 -0.914515 -0.094900 1.426644 -1.769110 -0.877963 -0.000351 1.815518 2.591174 -1.019643 0.476313 0.209037 0.751921 1.142318 -2.005868 -1.221581 0.699888 -1.626985 -1.877186 0.315174 
提 1.911154 1.119235 -0.591731 -0.949545 0.636414 0.965625 0.639584 0.418038 0.475801 -0.537332 -0.245707 -2.396752 -0.678589 -0.088298 -0.944807 -1.068835 -0.383206 -1.744453 0.392921 1.549995 -0.287244 0.903618 0.419406 0.261467 0.261038 1.176066 1.860042 1.476214 -1.169898 -1.561214 0.102801 0.737912 0.835284 -1.144819 -1.454523 -0.395984 0.538465 0.452292 0.991056 0.094178 -0.561253 0.300552 0.285281 -0.404208 0.743318 2.891958 0.525191 0.293118 -1.028405 -0.564562 
制 0.924781 0.497250 0.342829 -0.294345 -0.798792 -0.675795 1.606175 0.969485 0.836993 -1.424801 -1.540503 -1.149390 -0.489519 0.238841 -0.583368 -0.215711 -0.490440 -3.223017 0.451864 0.719235 -1.228173 0.470295 0.102082 -0.484943 0.173231 1.323351 0.612468 -0.043200 -0.087218 -0.374416 1.002913 -1.370726 -0.275036 -0.568521 0.679880 -2.659132 -1.796996 1.960648 1.102985 -1.247767 2.034204 -1.237638 -0.034158 -0.131137 -0.362801 -0.362378 -0.148844 -0.281114 -2.273554 0.198291 
外 0.044963 -1.380082 0.976217 0.993242 -0.292839 0.235548 -0.239082 -0.013654 -0.465409 -0.783647 0.533467 -0.136532 1.132834 -0.446312 0.177680 0.234448 0.602613 1.518744 0.779181 -0.822413 -0.250252 0.403857 0.546510 -0.507530 0.511430 -0.198894 0.203361 -0.645809 -1.063147 -0.082374 -1.034171 0.988011 0.186230 -0.260272 0.076917 -0.875446 0.148973 -0.464037 -0.850590 0.242327 -0.089636 -0.247979 -0.318383 0.207992 0.158060 0.990105 0.036680 -0.648518 -0.122692 0.747163 
保 0.871100 2.316015 1.469685 -0.644552 -2.189322 2.315322 1.801979 1.212247 0.838507 -0.273848 0.748069 -1.424813 1.296965 -1.207929 -2.088624 -0.755585 0.761439 -0.544483 1.026765 2.838809 -1.468522 0.528803 -1.900954 0.242850 -1.525064 -0.249790 1.522141 0.872986 0.555744 -0.526237 -0.456738 -1.800063 0.790090 -2.482353 -1.668531 -1.105724 -0.323087 0.558121 1.980268 0.247471 2.198053 -3.158829 0.135435 -0.056583 -0.976866 0.037611 -0.162252 -1.010365 -0.261733 0.499237 
情 0.001630 1.971847 -0.368176 -1.129707 0.437808 2.116738 -0.034609 -1.145732 1.272370 1.742370 -0.112673 2.018878 -0.640850 -0.821097 -1.059163 0.527025 0.369554 -0.565071 1.185084 -0.446652 -1.765692 -0.545252 1.875193 0.300961 1.424389 -0.790328 -1.811671 -1.211292 -1.536615 -0.521107 -1.958100 -0.215592 0.108370 -1.002505 -0.689198 1.527082 -0.357513 0.163354 -0.315681 -1.899461 1.304235 -0.192523 -0.214264 -1.951855 -0.425697 0.337711 1.138823 1.829580 -0.082131 1.015856 
起 0.171112 -0.124929 0.664319 0.100278 0.668791 -0.108809 -1.320380 -0.862376 -0.006917 0.937665 -0.352355 -0.402248 -0.881498 -0.321101 -0.832413 0.744873 -0.297980 0.190209 0.212760 -0.002281 0.294815 -0.776014 0.432583 0.225118 0.482124 -0.125572 0.269606 0.091638 -0.616691 0.277937 0.228931 0.451851 0.125187 0.822176 -0.515787 1.156634 -0.513416 0.153289 -0.459777 -0.177924 0.076468 0.622115 0.245317 0.054881 0.764616 0.243119 -0.554699 0.039768 0.007927 -0.371737 
产 0.414398 1.533780 1.188525 0.359347 0.447465 0.423212 2.098173 -0.180514 0.519731 -1.383561 -0.245767 0.341338 0.876089 0.522372 0.928895 0.043509 0.709047 -0.792868 0.564611 0.399720 -0.380906 0.944777 -1.565424 -0.331903 -1.133872 2.478206 0.869789 0.658700 -1.458733 -1.469784 0.525085 0.235683 0.020656 0.455652 -0.181767 -1.683694 -0.470582 2.831724 -0.721347 -0.241364 0.824989 -3.293432 -1.237513 2.739627 0.081221 -0.923695 0.169977 0.304978 -0.374697 0.805376 
据 1.007161 -2.498255 -1.352692 -1.174381 1.137794 -0.117119 1.027696 0.164212 0.926394 -0.783506 -0.085890 0.303160 0.223630 -1.394507 -1.329194 0.223649 1.019312 1.497930 -0.014076 -3.829229 -2.026145 -0.309460 0.661426 0.986668 0.561902 -0.878060 1.500366 -0.469490 -0.899092 -0.573489 -1.424711 -0.892466 0.116905 -0.364497 -0.640308 0.106757 2.821407 -0.796733 1.931831 0.626726 0.242648 -2.630005 0.853007 1.598052 0.288141 -0.538205 3.418782 -1.577256 -2.475806 -0.517093 
间 -0.266846 0.288106 0.433313 -0.649113 -0.085194 0.218708 -1.753573 0.032022 -0.499188 -0.575774 1.089803 -1.290457 -0.631625 -0.321639 1.582393 0.431251 1.333341 2.199291 0.697850 0.558438 -0.299060 1.414312 1.316702 -0.470383 0.159159 -1.268085 -0.304103 -0.523743 0.452898 -0.142887 -0.594055 -1.134635 0.513321 -0.104543 -0.449197 0.724137 -1.344145 -0.282484 0.308537 -0.580854 0.409878 -0.466723 0.074659 -0.461072 0.277916 0.212205 -0.528471 1.205716 -0.168144 0.078299 
电 -0.993108 -0.361193 0.509149 -1.797787 1.687562 -1.112501 -0.877923 0.137903 -0.752203 2.277809 0.548718 -0.217953 -1.503332 -2.046265 -1.406255 -0.346280 0.065988 1.201483 0.245027 -0.064289 1.490918 0.233584 0.338711 -2.394459 0.632656 -1.228246 1.918794 0.205215 0.663954 -0.067557 -0.096396 -0.264620 1.346814 0.689905 0.238228 -2.295526 -0.191268 0.720452 0.738860 1.495369 2.612299 -1.016736 0.593499 2.267029 -1.092099 0.825919 1.518814 0.327942 -0.371655 -0.794594 
所 0.227710 -0.939242 0.166444 -0.391837 -1.480502 -0.238191 0.382842 0.269184 -0.352333 -0.071019 0.271105 0.157330 0.430902 0.448547 -0.306645 0.744199 0.362461 -0.579390 0.454520 -0.124496 -0.210386 0.890979 0.399848 -0.190750 -0.101716 -0.103578 0.776791 -0.899049 -0.508980 -0.219181 -0.983442 0.696764 0.206391 -1.232168 -0.526200 -0.003293 0.280555 -0.200763 -1.008255 0.520667 -0.115040 -0.308225 -0.432025 -0.619705 0.204640 -0.360185 -0.701964 0.118794 0.400741 0.015418 
位 1.461946 -0.421512 -0.549982 0.375339 -1.850640 -1.202895 0.149153 0.619717 -1.119079 -1.389627 0.045266 0.463050 0.650918 0.836033 -0.417528 1.080655 -0.006470 1.495544 -1.161144 -0.055330 -0.491926 -0.148351 0.440537 -0.256736 -0.718524 0.264116 -0.293235 0.573395 -0.538486 -0.613698 0.661617 0.381648 0.281322 -1.241732 -1.320254 -0.405030 -1.010250 0.160748 0.202898 0.346358 0.416267 -0.886027 -1.007485 -0.169354 -0.194318 0.309751 -1.343663 -0.702658 0.640821 0.471576 
内 -0.702099 -0.566641 -0.959559 0.130745 -0.426521 0.079645 0.466127 0.550524 -0.742696 -0.789517 -0.235004 -0.184986 -0.480827 0.075223 -0.273562 -0.148837 0.912857 1.104970 0.817207 0.654227 -0.524820 0.836806 0.866839 -0.083887 0.397035 1.166464 0.250963 -0.233425 -0.353303 -0.895833 -1.405765 -0.464438 -0.178062 -0.079706 0.127714 -0.742161 -0.704534 -1.023738 -1.141686 0.035754 0.744633 -0.951194 -0.880957 0.447242 0.736172 0.721615 -0.333459 -0.184424 -0.452398 0.625472 
海 0.104887 -1.211291 -0.181399 0.575792 -0.308599 0.932267 -1.632746 1.345419 -0.308163 -0.864223 1.711423 0.453698 -0.132413 1.342483 0.424550 0.578326 0.695933 -0.588251 0.690545 0.228720 1.251342 -1.144481 0.415389 -1.626955 0.993735 -0.152388 0.148450 0.534465 -0.733148 0.881314 -0.712767 -0.819567 1.282008 1.141402 1.219651 -1.722457 -0.292890 -1.129087 1.434816 0.457227 -0.287578 -0.677665 -1.029520 1.082635 0.812219 -1.777420 1.500285 -1.111020 -0.541378 1.360214 
此 0.104483 -1.344519 0.764549 -0.232029 -0.164653 -0.063606 -0.169404 -0.721630 0.244559 -0.883700 -0.199577 0.905030 0.935840 -0.238312 -0.541134 -0.228454 0.498939 0.958473 1.236372 -0.571717 -1.124991 -0.175204 0.321372 0.461142 0.552294 -1.044390 -0.456589 -0.501301 -1.686739 -1.236361 0.299459 0.512801 0.298106 -0.314663 0.087247 0.229437 0.719094 -0.465938 0.029236 0.143437 -0.714530 0.746679 0.795315 -0.188255 0.614348 0.189783 -0.117813 -0.084530 -0.252175 0.147227 
着 0.227181 1.025056 0.373414 0.024961 -0.071073 -0.552557 -1.393552 0.427919 -0.593357 1.037980 0.455222 0.090415 -0.178588 -0.470631 -0.620124 0.640805 0.919120 0.278176 -0.144889 0.718919 1.574248 -0.496162 -0.646890 0.069455 -0.515288 0.343519 -0.532903 0.334207 -1.029882 2.245442 -0.555200 1.291087 -0.793921 0.436487 -0.632694 1.289283 -1.719655 -0.389318 -0.723398 0.137586 0.850310 2.015052 0.399423 0.007059 -0.529220 0.239699 -0.645528 -0.460072 -1.325111 -0.027702 
从 0.475949 -0.787448 -0.139417 -1.001311 0.120097 0.173465 -0.377750 -0.290687 -0.274449 -0.005434 0.154996 -0.056023 -0.219867 -0.543764 0.410982 1.070045 0.812245 0.491012 -0.497986 -0.113625 0.193567 -0.393555 -0.156289 0.292786 -0.171331 -0.598235 0.645803 0.799502 -0.301219 -0.181045 -0.039641 -0.373976 0.349715 0.270392 -0.455899 0.886791 -0.047830 0.132826 0.413391 0.574268 -0.028930 -0.306775 0.227207 0.129958 0.168095 -0.818335 0.106806 0.254882 -0.298583 0.029067 
但 -0.341468 0.139208 0.491151 -0.972359 -0.999046 -0.132887 0.474887 -1.158941 -0.223281 -0.041990 0.236410 0.160827 1.678793 -1.209505 0.033039 0.504652 1.009799 0.016610 0.697140 -0.526257 -0.168078 0.108918 0.874924 0.048655 -1.081166 -1.180547 -0.562500 -1.408127 -0.324116 -0.362955 0.249936 1.168283 0.115655 -0.116152 -1.253907 0.861455 0.241790 0.491510 -0.136300 -0.440851 -0.644896 1.094586 0.470142 -0.075495 0.277148 0.186959 -0.282688 0.546152 -0.801461 0.066397 
已 0.482405 -0.975693 0.409272 0.738967 0.691382 0.407304 -0.151883 -0.263590 0.841119 -0.155686 -0.465264 -0.730232 0.311702 -0.237274 0.416493 0.149781 1.077052 1.345567 -0.007750 0.317388 -0.845000 -0.555280 0.414454 0.795171 0.343259 -0.963935 0.040738 -0.444038 -0.198954 -0.821261 -0.369355 -0.022257 -0.420546 0.413634 -0.584245 1.394747 0.136730 0.835467 -0.239989 0.019650 -0.358036 -0.832721 0.862958 0.100771 1.367529 -0.806960 -0.571660 0.104945 -0.717593 0.511284 
展 0.302721 1.661590 2.098131 0.430913 1.257855 1.609272 1.491286 -1.537016 0.441360 -0.662070 -0.227555 -0.026215 -0.014189 2.119158 1.563109 -0.361087 1.535099 -1.553837 -0.384991 1.307885 -0.577282 0.414403 -1.756220 -0.587907 3.168875 1.841384 0.902195 2.925646 -1.852893 -0.501998 -1.497759 -0.828316 -0.844712 0.387912 -0.394793 -0.582361 -0.392850 0.864330 -1.388007 -0.892472 0.245591 -0.886017 0.920900 0.457388 1.390004 0.252335 1.605791 -0.681897 -1.051627 0.436351 
示 0.858171 -1.955204 -0.095472 -0.288916 0.359882 -0.259226 1.204123 -0.176488 -0.130044 0.135285 1.601520 0.850352 -0.248993 -0.580252 0.086320 -1.058813 -0.646517 -0.266764 1.351205 -1.397298 -2.449535 -1.079225 0.374803 -0.537409 -0.905916 -0.452594 -0.368980 0.325036 -1.398446 -1.352655 -0.190895 0.641381 -0.683543 0.640591 -2.616233 0.232469 1.710245 -0.468856 0.980025 1.113730 1.194098 -0.125532 1.513468 -0.118725 0.346348 1.237858 1.303143 -0.084982 -1.040244 -0.935201 
入 1.803238 0.000355 0.512199 1.978559 -0.373018 0.324285 0.337975 0.907074 1.136243 -1.586055 -0.433618 -1.155327 0.455972 0.996559 0.539411 1.043837 0.134306 1.088169 0.961783 -0.727837 -0.380667 0.193259 -1.171357 -0.493293 -0.814887 0.990707 0.663946 0.741319 0.614936 0.294033 -0.728378 -1.361072 -0.380617 0.305842 -0.729713 -0.692677 -0.382751 0.756780 -0.779566 -0.456464 0.222322 -0.341703 -0.966873 0.478661 1.269174 -0.200615 0.428777 1.307065 -1.566616 0.454887 
省 1.702772 -0.531153 -2.073564 0.565964 0.129339 0.128875 3.410150 1.257908 -0.693819 -0.529826 2.320545 0.140065 -0.618114 2.316941 -0.446588 -0.008801 0.423000 -1.508502 -2.035228 0.104428 -1.272989 0.073340 1.606329 0.228546 2.170731 0.296495 1.160558 3.562357 0.117294 -0.483438 -0.693579 -2.879192 0.526300 0.633218 -0.770519 0.632772 0.182638 -0.619064 1.078146 1.613078 -0.572001 -1.755667 0.648661 1.227610 -0.415598 -1.428304 0.801167 1.055906 1.436614 -0.134611 
美 -1.369432 0.127046 1.385315 1.242632 -0.707871 0.338979 -0.306749 0.044908 1.078189 -2.006243 0.006593 0.901498 0.246641 -0.665002 -0.165340 -1.054756 0.234846 0.556259 -0.586758 -0.332507 -0.395811 -0.242007 0.652159 -0.497640 0.009569 0.638914 -0.133629 0.005214 -0.158087 1.414879 -0.689935 2.200945 0.410305 1.293813 1.204212 -0.716448 0.386717 -1.219367 0.194148 -0.671194 0.007124 -0.444577 -0.644345 0.137065 0.477184 -0.500973 1.579147 -0.026008 -0.336477 -0.283397 
路 1.794710 -0.683755 -1.156779 0.110591 2.477298 -0.131829 -1.054432 -0.279479 -1.588630 0.268020 0.269989 -2.073503 -0.057322 0.042659 -0.251983 0.967290 1.627501 -0.561427 0.250073 -0.077415 3.243485 0.416885 0.273736 -0.569395 -0.405385 -1.094825 -0.013695 1.559338 -0.783126 -0.782312 -1.824288 -3.584542 1.431810 -0.731187 0.119349 0.384377 -0.827648 -0.357498 -0.752903 1.453629 -1.097243 -0.786128 -1.627273 -1.092765 0.462525 -0.211256 0.476466 -1.778070 -0.460158 0.201940 
性 -1.106736 2.860165 0.015741 -0.093150 -1.219234 0.517196 0.176339 -0.171751 0.969494 -0.427714 -0.713968 0.189188 1.973227 0.453527 -0.468798 -0.694232 -0.471512 -0.632785 -0.469436 -1.227715 0.236092 1.408992 0.351963 -0.470300 0.485767 0.093749 0.507206 0.125536 -0.713574 -1.009851 0.252004 1.381354 -1.018917 -0.058692 -0.234801 -0.110335 -0.721191 0.707647 -0.546852 -1.914951 -0.841139 -0.590299 -1.047763 -0.728305 -0.417717 1.139813 -0.858554 1.154768 -1.357223 0.625097 
去 0.686740 -0.528656 0.818677 -0.948794 0.252073 -0.130993 -0.877814 0.113763 0.131252 0.130877 0.079895 0.139693 -0.236390 -0.351345 -0.212031 0.976704 0.867311 1.198717 -0.521299 0.459564 0.280537 -0.768624 -0.182521 1.244227 -0.577814 -1.087660 -0.276551 0.251624 0.168777 1.446475 -0.202497 0.175658 0.330112 0.474593 -1.246688 1.925758 0.183876 0.488986 -0.056085 0.078633 0.058322 0.791012 1.059895 0.254203 0.366191 -0.850296 -0.105523 0.564057 0.543818 -0.595138 
两 -0.022571 0.188141 0.151985 0.548505 0.217335 -0.375635 -1.141647 0.654835 -0.197048 0.295463 -0.099412 -0.053864 0.263643 0.668942 0.581559 0.694044 0.848252 1.086187 -0.068562 -0.209706 -0.144245 -0.548656 1.270633 -0.410483 0.144884 -0.335421 -0.273471 0.464665 0.062313 0.628002 0.069684 0.786225 -0.498584 -0.699966 -0.129703 1.211458 -0.343008 -0.566006 -0.256030 -0.322413 0.183330 -0.188680 -0.045302 0.324457 0.193333 -0.117970 -0.934370 -0.323319 0.054501 0.647829 
没 -0.167935 -0.088710 0.462559 -0.956892 -0.561795 -1.128971 0.291799 -0.463127 0.321586 0.586960 0.250280 0.255447 0.909278 -1.630835 0.024992 0.937815 1.867269 -0.013363 0.592131 0.074214 0.549817 -0.136345 0.281251 0.776039 -1.232426 -1.572174 -0.088785 -1.652384 -0.567677 -0.107026 0.583562 0.720083 0.090976 -0.795248 -1.900598 0.746175 0.392752 -0.312800 -0.449150 -0.773794 0.355530 1.695714 0.996302 0.004874 -0.106084 -0.066147 -0.616000 0.214926 0.317501 0.366046 
并 0.506764 -0.298281 0.196109 0.138135 -0.435859 -0.307630 0.609161 -0.187203 1.153309 0.307943 -0.376557 0.092806 0.140564 -0.724166 -0.488886 0.158863 -0.015674 -0.796030 1.269383 0.235799 -0.851405 0.461415 1.136865 -0.125799 -0.325710 -0.609732 0.019494 -0.719868 -0.729706 -0.855166 -0.573316 0.420946 -0.114546 -1.179070 0.058320 -0.091343 -0.250918 0.667508 -0.151179 -0.061262 0.269439 0.838952 0.692730 -0.064485 -0.096300 0.695014 -0.342829 -0.387640 -0.782479 0.848205 
明 0.887286 -1.037679 -0.971639 0.382894 -0.919515 0.047880 1.486506 -0.891937 -0.582257 1.064583 0.961825 0.124583 1.365965 -0.631728 -0.041303 -0.556195 0.164806 -0.342117 0.697767 -0.113731 -1.228215 -0.458012 0.328218 0.302286 -0.987144 -0.661626 -0.442606 -0.139633 -0.543135 -0.321078 0.046029 0.979198 -0.699195 0.397772 -0.668735 0.929574 0.896805 -0.792166 1.743697 -0.272401 1.056978 -0.247357 0.860493 -0.851680 -0.515382 0.490992 1.548249 -0.191264 -1.316302 -0.348087 
里 -0.502055 0.369298 -0.196356 -0.266713 0.092698 -0.668453 -0.986873 1.184203 -0.881169 -0.046304 0.647100 -0.430514 -0.655609 -1.123852 -0.043984 2.251450 2.037235 1.173845 -0.417068 -0.300148 1.582434 -0.593866 -0.773049 0.223425 -0.668620 0.321878 -0.229931 -0.709289 0.486574 0.616207 -0.826238 -0.079734 0.039069 0.249288 -0.569218 1.227159 0.976485 -0.081777 -1.083096 0.593455 0.170930 0.254300 -0.192098 -0.563406 0.105994 0.381287 -0.327316 -0.635737 0.808652 -0.476108 
三 0.508643 0.541056 -0.456188 1.072659 -0.126893 -0.172438 -0.255304 0.711980 -0.761387 0.294643 -0.344569 -0.974348 0.462434 1.819288 1.036862 0.401600 0.475344 0.454460 -1.443878 0.794450 -0.793663 -0.746518 1.579411 0.387845 0.667987 -0.609746 -1.296343 1.846229 0.573460 0.039407 0.572987 -0.434867 0.071536 -0.276819 1.090860 1.023359 0.321085 -0.379349 0.625760 0.491945 0.468182 -0.730492 -0.822055 0.671833 0.124184 -0.157088 -0.108271 -0.221594 0.151483 -0.068845 
. -0.040248 0.912995 0.400084 0.223306 3.417966 -0.254720 1.704305 2.220464 0.425879 -2.294258 1.054832 -0.322060 -0.182073 -1.776338 -0.400493 0.176854 -1.308429 0.301325 -1.210837 -0.815574 -0.382509 0.899200 1.257421 -1.653865 -2.798308 1.652462 2.009658 0.729983 2.976039 0.381495 1.436410 -1.417158 -0.148427 0.027383 -0.562721 0.560215 -1.696481 0.669047 0.274140 -1.611776 -0.593322 -2.427640 -2.765583 1.106527 4.876841 0.512433 0.067521 1.316716 1.035676 0.307653 
万 -0.004789 -0.380034 0.179289 0.419114 2.941440 -0.691088 1.304672 1.867528 1.228908 -0.369023 0.148929 -1.097042 -1.459495 -1.175374 0.748729 1.606047 -1.072524 1.896030 -1.527586 0.073247 -1.091245 0.537996 0.928196 -0.881758 -2.872083 0.211072 0.454506 0.208035 3.478810 2.091043 -0.079232 0.605356 -0.440854 -1.221894 -0.750004 -0.385876 0.418985 1.280685 -1.366611 -0.890508 -2.010218 -1.461101 -1.512901 1.549905 2.865530 0.037319 0.020925 0.325487 0.907269 -0.324659 
委 1.227059 -1.169748 -2.118713 0.836962 -1.317080 -2.765048 4.687768 2.050217 -1.625211 -0.042876 1.592786 0.921814 -2.341905 2.951553 0.103924 -0.926229 -0.931793 -1.222639 0.210568 1.189211 -1.432469 -1.857507 0.920157 0.120470 3.535537 -0.061675 0.939959 2.705867 -0.307166 -0.169849 -0.343718 -2.850591 -0.288899 0.048058 -1.375154 1.318987 0.472067 -0.676554 1.950903 2.280635 -1.142001 -0.605149 1.564954 0.536377 -2.291251 -0.366744 1.540388 0.979984 2.393358 -1.050939 
正 0.276248 -0.857269 0.162405 -0.447834 -0.469736 0.088146 0.708179 -0.568689 0.269278 0.092331 0.230477 -0.613159 -0.326347 0.210184 0.904842 0.038346 0.363930 -0.813125 0.497623 0.476510 0.289468 -0.080226 0.229050 -0.036350 1.222945 -0.536175 0.090026 0.277928 -0.287344 -0.617041 -0.084250 0.245217 -0.299212 -0.139293 -0.147981 -0.215881 -0.150507 0.390961 0.672881 -0.558975 0.298620 0.383087 1.221259 -1.642035 -1.094221 0.749873 0.087969 -0.354969 -0.066022 0.017028 
金 -0.780896 0.353046 0.246340 2.209857 0.252796 -0.670910 2.021012 -0.114901 0.936332 -0.626610 0.200756 0.482622 -0.262819 1.138422 0.366321 1.404472 -0.087407 1.617307 -0.547073 1.916908 -1.178482 -0.315128 -1.197373 -0.865087 -2.231555 0.965024 -0.541577 -0.914943 1.427903 -0.033606 0.121340 0.221358 -0.806031 -1.893371 -0.649642 -1.958264 0.868803 0.403819 0.690287 0.175421 -0.458942 -1.665951 0.265339 2.273147 0.900188 -0.481727 1.268491 -0.925112 -0.469101 0.187351 
平 -0.009238 1.703366 0.782964 0.223913 0.313894 -1.214432 0.409661 1.344031 -0.823028 -1.219122 2.737767 -1.324846 0.738778 -0.000269 0.947446 -0.380730 0.339546 -0.687219 0.710006 1.154145 -0.229960 0.915843 -0.260379 -2.117405 0.619255 0.043454 1.257544 1.016151 0.373932 0.379717 0.681226 -0.069943 -0.752519 0.396675 -1.078873 0.414551 0.650318 -0.575053 0.045782 0.390942 -0.699055 -1.296197 -0.607091 0.561614 1.183847 2.068153 0.281279 0.225561 -1.299967 0.384843 
设 0.663136 1.310102 -0.826351 0.159774 1.436854 0.048820 1.436555 0.451809 -0.715081 -2.427086 -0.058461 -3.262805 0.331565 0.919227 -0.320706 0.726168 0.742440 -1.696496 -1.147534 1.749615 -0.469865 0.615424 -0.939709 -0.369465 2.112598 2.284760 0.697350 1.911507 -0.592888 -0.529436 -1.666294 -1.035984 0.092971 -0.200021 -0.219505 -3.663242 -0.150094 0.535776 -0.763116 -0.995552 2.128883 -2.151948 0.467351 -0.951321 0.409624 1.080590 -1.188912 -2.333017 -1.174413 0.186779 
相 -0.805831 -0.580727 0.821544 -0.318313 -0.144447 -0.227161 0.605643 0.181298 0.803138 -0.291984 -0.027350 -0.220843 1.144433 0.524917 -1.990811 -0.204053 0.025184 -0.227211 0.303470 -0.824378 -0.951307 -1.010151 0.750462 -1.540036 0.212109 -0.496922 -1.419648 0.294011 -0.497444 -1.227123 0.460114 -0.290807 0.824078 -1.929102 -0.489423 0.363444 -0.797516 -0.433082 0.042175 0.032215 -0.231662 -0.413578 0.832511 -0.602236 -0.782800 0.729984 -0.075488 0.158981 -1.349399 1.094882 
因 -0.935175 0.317074 -0.530495 -0.388380 -0.982453 -0.389588 0.330171 -1.112199 0.457499 -0.477656 -0.103645 0.032688 2.128608 -1.320748 -0.272887 0.025404 0.410502 0.818510 0.928555 -0.004367 0.176990 -0.060095 0.049140 0.819913 0.405104 -1.603796 -0.326839 -1.708890 -0.781927 -1.116587 0.588494 0.862607 0.318440 0.024506 -0.119186 0.745187 0.271019 0.338748 -0.953337 -1.054787 -1.035141 -0.653336 -0.751410 0.004716 -0.304138 0.538670 -0.937075 0.505075 0.528157 0.624752 
资 0.404004 0.271199 2.354413 -0.464652 0.661332 -0.414514 3.800360 -0.642253 1.745282 -1.369822 -0.562886 -0.116546 -0.012002 1.367011 0.222845 1.664661 0.335851 0.485720 1.643795 0.266480 -1.790467 1.313715 -2.341443 -2.427078 -1.093210 2.469040 0.568357 0.491622 1.304914 0.629140 0.633879 -0.905673 0.355605 -1.314781 -0.778295 -3.414194 0.188282 0.260512 0.206244 -1.264713 -0.905554 -2.571050 0.261642 3.727853 1.062474 -0.385906 -0.040427 -0.079567 -1.795161 1.300715 
门 1.599508 -0.522524 -0.823089 0.668611 -0.563579 -0.573171 0.549523 0.290064 -1.139489 -0.127444 1.162577 -0.368316 -1.717349 0.566069 -0.485360 0.963449 1.617311 0.253065 0.797619 -0.470470 -0.415174 -0.902241 1.253885 -0.043387 0.567955 0.501855 1.000446 0.393984 -1.925120 0.562214 -1.115660 -1.725423 0.590575 -1.361396 -0.416775 -1.121796 -0.774506 0.663140 -0.306450 2.121156 0.987151 -0.365496 0.280318 0.313751 -0.356431 0.269245 -0.744713 -1.148603 0.398317 -0.032914 
老 1.175426 0.662888 0.425271 -0.593931 0.021799 -0.876486 0.585573 1.090733 -0.704547 1.762271 0.143008 0.060812 -0.311548 -0.041380 0.045721 0.715282 0.800192 1.045964 -1.135781 0.124370 1.112949 -1.178959 -2.334866 0.353984 -1.083949 -0.514219 -0.491493 -0.563253 0.473450 1.346030 -0.819030 2.628025 0.536342 -0.854667 -1.800619 0.794671 1.401695 0.644373 0.604741 -0.309008 -0.499849 -1.267293 -0.624905 -1.549943 -1.310676 -0.875537 -2.474830 -0.425656 0.345792 0.570952 
院 1.400313 -1.189337 -0.195132 0.178893 -1.180373 0.075221 0.596160 1.426083 -0.888089 -0.512185 0.150324 1.852863 -0.273826 1.569124 0.032380 -0.364554 -0.823964 -0.771009 -1.305084 1.450660 0.174412 -1.082325 0.345631 1.457881 3.082923 -0.525624 2.619189 -0.756262 0.054855 0.929505 -1.629998 -0.689726 -1.130840 -1.787466 -1.354766 -0.138343 2.741781 1.212709 1.928557 2.586770 -1.912136 -1.747573 0.424806 0.375040 0.635917 -1.943882 -1.385797 1.444598 -0.327491 0.494850 
如 -0.739184 0.544135 -0.506748 -0.261642 -0.836093 -0.662032 0.069495 -1.298990 1.418271 -0.418629 1.220342 -0.170618 1.116577 -0.245089 0.196245 -0.451948 1.456162 -0.320169 -0.050889 1.071772 -0.074544 0.055524 0.952767 -0.000599 -0.708852 -1.655675 -0.062150 -1.360322 -1.716604 -1.036268 1.686156 -0.741130 -0.295173 0.558963 -0.858511 0.286226 2.006883 -0.564378 -0.785052 -1.149371 0.154601 0.907777 0.380706 -0.893217 0.105765 0.864547 0.230137 0.282977 0.145910 0.948040 
题 -0.314360 2.501093 -0.554668 -1.385738 -0.531386 -0.770503 0.170082 0.227124 1.645887 -0.675169 -1.009337 0.294558 1.668718 -0.601258 -1.068776 0.076449 1.643862 0.117696 2.390979 1.493391 -1.099259 0.487490 -0.739035 1.542471 1.756854 -1.298097 -0.595768 2.634108 -2.435417 0.587008 2.590315 -0.705696 -0.762749 -1.659023 -1.072819 -0.946290 1.055302 -1.127814 -0.692512 0.076798 0.574274 -1.206179 -1.377929 -0.910445 -0.737623 2.003133 1.157429 2.126285 0.870694 -0.331154 
文 0.175338 -0.847333 -0.897625 -0.074292 0.496202 -0.848273 1.373948 0.519058 -1.058410 0.134261 -0.949065 1.636051 -0.348606 -0.262525 0.167622 -1.879407 -0.166876 -1.639472 -0.261761 1.447227 -1.442092 1.329810 -0.990725 -0.247986 0.398343 1.273951 0.077759 1.990012 -0.025674 -0.645571 -1.853916 0.788988 -1.205467 0.468054 0.696486 -1.047841 2.060263 -1.100392 -0.152125 -0.208820 0.576174 0.052959 -1.634758 -0.854330 -0.814179 -0.404569 1.552216 -0.537779 -0.752436 0.519098 
北 0.262533 -1.357382 -1.200689 0.128410 -0.993483 -0.047534 -0.259800 -0.788532 -1.119910 -0.616390 3.539589 0.367749 -0.491034 0.536822 -1.352728 0.500022 -0.583597 0.429462 -1.274754 0.883135 0.476866 0.516864 0.729202 -0.060950 1.326465 -1.275295 0.289781 2.734157 0.016979 -0.806809 -0.398399 -2.778886 1.663119 1.667215 0.036614 -0.114389 0.698238 -1.229469 0.002029 1.903581 0.296399 -0.741827 -1.289307 2.017468 1.997702 -1.523828 0.263135 -0.916783 1.092187 1.103699 
手 0.297554 1.594716 0.040964 0.678427 0.065403 0.605387 -1.675422 -0.953354 0.885495 0.993290 0.085524 0.940186 -0.847494 0.063070 0.863991 1.418442 -0.597558 0.118255 -0.702429 0.113313 0.861544 0.484194 0.474294 -1.881685 -0.254332 -1.194466 0.513120 -0.630373 0.246877 -0.194682 1.758346 0.669082 -1.734457 -1.607775 0.022635 -0.307330 -1.407012 0.704602 -0.135614 0.888485 1.623413 2.349283 1.067178 1.162917 -1.329127 0.016158 -0.848458 0.623983 -1.013037 -0.166528 
看 0.291306 -0.717785 0.600205 -0.934246 -1.086883 -0.391398 -0.394169 -0.723078 -0.272726 1.791249 0.375472 1.309244 1.011263 -0.750537 -1.126049 1.445429 2.274749 0.605860 -0.150405 -0.231441 1.136258 -1.189540 -0.158107 -0.159076 -0.771184 -0.060486 -0.235590 -0.392374 0.132456 0.985803 0.080101 0.497575 -0.317004 0.197401 -0.824972 0.831657 0.482745 -0.256869 -0.125944 -0.303259 0.864958 1.360720 0.506421 -1.289902 -0.034523 0.978694 0.517873 0.610528 0.133896 0.014466 
意 0.415659 0.136091 0.604586 -0.213827 -0.876367 -0.783095 0.267513 -0.568617 2.114618 -0.529378 1.016362 0.292973 0.371350 0.265262 -1.652065 -0.447210 -0.193085 -1.850798 0.946264 1.266947 1.495814 0.672336 0.938970 1.484657 -0.241941 0.513296 0.404983 1.386151 -0.837088 -1.245712 -1.030427 3.283177 -0.399995 -0.340994 -0.269282 0.488505 -1.063626 -1.037623 -1.324304 -2.009824 -0.532988 2.153596 -0.011876 -0.891003 0.128148 1.656094 0.783158 -0.026693 0.489385 1.382008 
水 0.715369 1.028021 -0.127213 -0.006145 -0.382381 0.034379 -0.622148 -0.107137 -0.701218 0.040606 2.026438 -3.438590 0.728703 -0.200922 0.021795 0.611027 2.038327 -0.779430 -0.300100 0.565562 0.655865 -0.457335 -1.855195 -0.131200 -0.019630 1.037299 0.024978 -1.226364 0.770454 -0.708164 0.151361 -2.166320 -0.206674 1.598028 0.879222 -1.499839 -0.042479 -0.376514 -0.159612 -1.094985 -1.531553 -0.647487 -0.685610 1.810652 0.570586 0.673987 -0.569321 0.789335 -1.359108 0.265344 
品 -0.664128 0.657676 1.450940 -1.430299 -0.312151 1.530452 1.953118 1.185706 1.742481 0.518332 -0.307280 -0.446093 0.360536 -0.531287 -0.120552 0.190243 0.211692 -1.567803 -0.122550 1.767994 -0.848786 1.051756 0.027639 -0.641374 -1.390632 2.585263 0.982283 -1.670039 -2.011182 -0.665036 1.487899 0.704383 1.130321 -0.423052 1.254471 -0.066853 0.224918 2.403298 -0.351243 1.182016 1.555359 -3.135487 -2.084306 2.013917 -2.274556 -0.558454 1.854147 1.043094 -0.716170 0.552968 
交 0.561134 -1.517531 1.246850 0.651939 1.047593 -1.064878 0.155278 0.542853 -0.517502 0.586310 0.150539 -0.863780 -0.339112 0.687255 -0.301121 -0.142984 -0.242992 -0.540907 0.165991 -1.139387 1.683949 1.714061 1.786600 -0.507755 -0.330089 -0.480940 -0.594351 0.859643 -1.622483 -1.202849 -1.154215 -2.334199 0.426958 -0.678982 -0.946863 -0.013542 -0.486158 0.275288 0.238167 1.445789 -1.278940 -1.802613 0.995666 0.773655 0.075300 1.320976 -0.407769 -1.489489 -0.737079 1.340658 
期 0.369804 -0.233225 0.167273 -0.894983 -0.317882 0.345479 -0.406885 -1.002583 -0.507539 -1.123528 0.165373 -0.786064 0.777095 0.797234 1.195540 -0.761531 0.201299 2.064934 -0.023852 0.826420 -1.113976 1.098251 2.292004 -0.164936 -0.451691 -1.213828 -0.326467 0.649833 -0.215392 0.084017 -0.527945 -1.547241 0.766746 0.286108 -0.000102 -0.062504 -0.924303 1.710759 0.885120 -1.060251 -1.034908 -0.665910 0.230032 -0.301546 0.008927 -0.391604 0.312738 0.926999 -0.265919 -0.171778 
第 0.090292 0.749181 -0.782616 1.203755 -0.218040 -0.125120 -0.721096 0.592795 -0.585694 -0.022725 -1.626480 -0.618018 0.044664 2.555221 1.289317 0.807891 -0.312886 1.317445 -2.487499 0.754433 -2.331130 -1.423417 2.144371 0.888243 1.230120 -0.770808 -0.608958 2.130822 1.156040 -1.174561 1.069175 0.116633 0.019677 0.218746 0.232763 1.294752 0.269561 0.144765 2.870122 0.888617 0.775003 0.221577 -1.411672 0.595069 0.191663 -0.494831 0.659679 -0.692225 1.025493 -0.563057 
城 1.288062 0.760436 -0.269112 0.881975 0.278052 0.744568 0.674106 0.844753 -2.584918 -0.953429 1.551963 -1.216088 0.078647 1.618492 -0.922777 0.843748 1.730340 -1.412066 -0.689071 1.318536 0.776866 0.278970 -1.105644 0.652521 1.047236 1.574944 0.287764 2.335370 -0.505411 -0.147185 -1.000159 -1.146699 1.311142 1.366443 0.205809 0.234318 1.293833 0.202348 -0.532394 0.865490 0.296017 -3.180115 -1.123878 -0.017690 1.685441 0.096448 -0.089837 -0.860746 -0.572426 -0.307252 
问 0.659768 0.718739 0.128697 -1.879044 -0.432096 -1.152812 0.330273 0.253047 -0.263104 -0.975469 -1.491007 2.304259 0.930259 -0.098672 -0.606675 0.155731 1.730431 -0.441370 2.675548 0.473015 0.608669 0.195651 -1.405795 1.312296 1.018740 0.494099 -0.476408 1.299661 -2.860580 -0.070460 1.314417 0.667570 -0.323862 -2.917033 -0.074759 -0.209455 -0.940179 -0.207625 0.774103 -0.977787 -1.452354 -0.013008 0.762454 -1.057176 0.721982 1.057505 0.372720 2.589373 2.750932 0.691912 
然 -1.142073 -1.022483 1.548765 -0.694804 -0.724648 0.002606 -0.677122 -2.330128 -1.273629 -0.880446 0.911861 -1.096044 1.473584 -2.896896 -0.303228 1.252537 0.056981 -1.192825 0.322681 -0.721555 0.946560 -1.491814 0.252428 0.192172 -0.526460 -1.476033 -0.731700 -1.507919 0.126273 0.499586 0.631679 2.945929 -0.009934 2.176676 -2.209422 0.514682 -0.268092 0.691802 1.061257 1.358952 -1.590064 -0.269366 1.528478 1.085577 -0.299129 0.257164 -0.095691 1.054864 -3.685419 -1.121699 
调 1.461791 -0.344964 -1.149572 -0.790212 -0.104705 0.180137 0.548992 -0.077699 0.752569 -0.521133 1.184538 -0.611971 -0.985408 0.206856 -0.312815 0.212199 0.312395 -0.537628 1.829643 -0.558758 -2.732397 -1.092586 0.640906 -1.466079 2.011244 0.607276 1.750317 0.474236 -1.520679 -0.873255 1.181547 -1.545951 0.043397 -0.869363 -0.941339 0.493067 0.068113 2.234557 0.162374 -1.042770 -0.402852 -1.119496 1.709562 -1.209898 0.485706 0.917624 -0.242291 0.340319 -1.942945 -0.688188 
管 1.648625 -0.636127 -0.892430 0.421355 -1.157500 -0.606116 3.344778 0.399576 -0.146794 -1.021610 0.271791 -1.130570 -0.396606 0.564298 -1.156728 -0.390687 1.113415 -1.681666 0.997649 0.477289 0.131020 0.195795 -0.188213 0.124671 0.895100 1.595685 0.272701 -0.685034 -0.679300 -1.713262 -0.236937 -3.275423 0.200096 -1.107168 -2.170029 -1.584422 -1.264025 1.424467 0.884242 0.572663 0.696026 -1.744917 0.434721 0.746151 -1.726781 -0.126689 -0.050679 -0.575381 -1.276130 0.920072 
很 -0.852127 1.341890 0.911015 -1.853757 -0.818889 -0.146344 0.246051 -0.705180 -0.327966 1.120706 0.435770 0.344722 1.117649 -0.836029 -0.562753 0.524016 1.281165 0.133374 -0.206119 -0.740857 0.907989 0.090816 0.137734 -0.343098 -0.807021 -0.017865 -1.050031 -0.793821 -0.939343 -0.381918 -0.378639 1.110834 0.200433 0.455346 -1.727912 0.016664 0.193904 -0.056916 -0.972385 -1.614880 -0.790276 1.733236 0.089450 -0.991217 -0.010884 1.079990 -0.038338 0.818496 -0.020656 0.119013 
身 -0.428911 1.438887 -0.157916 -0.042829 -1.096722 0.185853 -1.264339 -0.036890 -0.149857 -0.280770 -0.526712 1.233794 1.569902 -0.036110 -1.594935 -0.633636 0.196384 0.405342 0.600317 -0.657884 0.476831 -0.353400 0.598622 -0.498381 -2.169920 -0.351286 1.300856 -0.886016 -0.370703 0.216727 -1.303575 1.060537 -1.035062 0.511015 -0.211892 1.241664 -0.673584 -0.344052 -0.303357 -0.579328 0.623792 0.233114 0.935066 0.957572 -1.339520 0.278820 -0.479030 -0.075531 -1.207955 0.039404 
任 0.355081 -0.211033 -1.521750 -0.341827 -1.385267 -2.543430 3.399243 1.100739 -0.374418 -2.083927 0.404893 0.863272 0.117151 1.596660 0.534407 -2.325417 -0.476462 0.257704 -0.000568 1.745097 -1.400055 -1.686086 -0.794051 -0.101634 0.634833 -2.265561 0.193689 -0.974255 -2.208648 -0.959653 0.388714 -1.774858 0.081994 -0.396423 -1.545540 -0.924367 -1.736337 0.607970 0.742565 -0.112208 -0.796787 0.052019 0.727741 -0.906835 -1.454450 -0.282976 -0.591186 -1.391559 2.238600 -0.302708 
